#pragma once
// Auto-generated from AIDA-X model: bandmaster high gain
// Architecture: LSTM-12
// DO NOT EDIT - regenerate using convert_aidax_to_cpp.py

#include <cstddef>

namespace EmbeddedModels {
namespace bandmaster_high_gain {

constexpr const char* kName = "bandmaster high gain";
constexpr const char* kArchitecture = "LSTM";
constexpr int kHiddenSize = 12;
constexpr int kInputSize = 1;
constexpr int kOutputSize = 1;

// Input kernel weights: shape (input_size, 4 * hidden_size)
constexpr float kKernel[] = {
    -0.23346102f, -0.03764708f, -0.07860976f, -0.69735366f, 0.16471931f, -0.26111466f, 0.66086483f, -0.21459948f,
    -0.21187195f, -0.03483704f, 0.08073696f, 0.26427016f, -0.02397938f, 0.61665601f, 0.11355275f, -0.26062924f,
    0.43636689f, 0.01547402f, 0.21105120f, -0.09335082f, 0.26339123f, 0.00375364f, -0.08546419f, -0.11060016f,
    -0.22117643f, 2.32384109f, 0.07037527f, -0.59518921f, 0.69102305f, 0.27473053f, 0.82391477f, 0.26674449f,
    0.01613375f, -1.26254928f, -0.50927955f, 0.71619058f, -0.52851760f, 0.12286132f, 0.19587044f, 0.41180423f,
    0.04306137f, -0.40664110f, 0.18443386f, 0.35188738f, 0.22275595f, 0.02666165f, 0.05175553f, 0.30083343f
};
constexpr size_t kKernelSize = sizeof(kKernel) / sizeof(kKernel[0]);

// Recurrent kernel weights: shape (hidden_size, 4 * hidden_size)
constexpr float kRecurrent[] = {
    0.20438306f, -0.32720265f, 0.07941107f, -0.03671761f, 0.28677788f, -0.00412163f, -0.26752689f, -0.23569712f,
    0.04597824f, 0.10858073f, 0.17578293f, 0.12026343f, 0.18534081f, 0.34916541f, -0.71864659f, 0.16264972f,
    0.25651696f, 0.30407494f, -0.01371199f, -0.44144469f, 0.21367624f, 0.49639606f, -0.27153489f, 0.23997016f,
    0.44789410f, -0.27060345f, 0.38366267f, -0.23561785f, 0.22045390f, -0.17059076f, 0.27185246f, -0.12698600f,
    0.19311577f, 0.53922147f, -0.12301159f, 0.12632389f, -0.00849914f, 0.02370272f, 0.22952934f, 0.05195076f,
    0.14494810f, 0.09096996f, -0.04275771f, 0.15648524f, 0.28188935f, 0.10517193f, 0.00986567f, 0.40330076f,
    0.08298531f, 1.28679693f, 0.14361088f, 0.25624475f, -0.20231575f, 0.00131821f, -0.20469017f, -0.24981545f,
    -0.50162894f, 0.32456470f, 0.03724431f, -0.23580977f, 0.05777510f, -0.29912016f, -0.44514063f, -0.59431976f,
    0.30658239f, -0.25464696f, 0.47599003f, 0.09886155f, -0.17372993f, 0.29482612f, -0.18386704f, 0.09927958f,
    0.23880702f, 0.68514442f, -0.01679007f, -0.24599209f, -0.68235189f, 0.04647798f, 0.06209396f, 0.08146251f,
    0.20618963f, 1.72933960f, 0.55093807f, -0.58620447f, -0.07186572f, 0.53345954f, -0.17837146f, 0.36139047f,
    0.10424939f, -0.04502772f, 0.60750312f, 0.03463281f, 0.35817572f, 0.30836725f, 0.24819101f, -0.26798970f,
    -0.20650904f, -0.01646023f, 0.38443443f, 0.05595100f, -0.17109264f, 1.33739841f, 0.09282006f, -0.07931448f,
    -0.44946748f, -0.11235435f, 1.07373559f, 0.88286167f, 0.04366662f, 0.18536282f, -0.03031802f, 0.13239060f,
    -0.09908426f, -0.32016993f, -0.04834913f, 0.17029341f, -0.05206086f, 0.16733785f, -1.50191569f, 0.77500647f,
    -0.22132756f, -0.08472470f, -1.07232952f, 0.09274727f, -0.19021963f, -1.58459091f, 0.02281206f, -0.23494609f,
    0.05224986f, 0.05667011f, -0.91884041f, 0.48570946f, -0.07325894f, 0.04038927f, 0.74129552f, 0.33292487f,
    0.18910508f, -1.59793735f, 0.20218158f, 0.01669029f, 0.38966596f, -0.19584790f, 0.17280251f, -1.38227534f,
    -0.25013441f, -0.67671579f, -0.00826705f, -1.00245523f, 0.27858716f, 0.29672393f, -0.02519980f, -0.28269503f,
    0.97423542f, -0.24987285f, -0.15782423f, 0.32818517f, 0.15756607f, 0.37076396f, 0.47735599f, -0.18206860f,
    0.55251431f, -0.10691547f, 0.26090381f, 0.45135441f, 0.32687664f, -0.58189237f, 0.00453820f, -0.05937564f,
    0.12490197f, 0.89096189f, -0.48083594f, 0.10314306f, 1.12439013f, -0.27739394f, 0.41220465f, -0.01986977f,
    0.37685329f, 0.83972192f, -0.02967415f, 0.43489388f, 0.02118989f, 0.47585526f, -0.13275926f, 0.18152516f,
    0.03375598f, -0.03601852f, 0.01376112f, -1.15143788f, -0.72228342f, -0.19716828f, 0.14317708f, 0.56993574f,
    0.24605218f, -0.24106139f, 0.08194666f, 0.10807753f, 0.49664369f, 0.24189450f, 0.16480881f, 0.14690414f,
    0.19518614f, -0.02506869f, 0.05713143f, -0.03202368f, -0.34185964f, -0.29116523f, -0.32431823f, -0.74644279f,
    0.54266495f, 0.29139504f, 0.49071154f, 0.11659206f, 0.06060977f, -0.18787232f, 0.20245034f, 0.00743876f,
    0.43179613f, 0.05449574f, -0.10183814f, -0.18209325f, 0.46691582f, 0.46895298f, -0.67510760f, -0.25281164f,
    -1.59921718f, -0.23950644f, 0.06836527f, -0.41224664f, 0.27772954f, 0.44768634f, -0.09029993f, -0.36050814f,
    0.25575611f, 0.18242019f, 0.00888617f, -0.58613229f, -0.15252495f, -0.32366922f, 0.54823160f, -0.02444513f,
    -0.30186856f, 0.07780246f, -0.17435563f, 0.11289662f, 0.57529795f, -0.47920430f, 0.04577111f, -0.05834637f,
    0.29381439f, 0.39453372f, 0.73770797f, -0.26128995f, 0.47395721f, 0.09316737f, -0.05328982f, 0.08281151f,
    -0.17024507f, -0.84605074f, -0.25727662f, 0.28702599f, 0.04055487f, 0.09096581f, -0.42887834f, 0.80953705f,
    -0.10330266f, -0.06417596f, -0.63353157f, 0.05447105f, -0.22490752f, -0.75472355f, -0.05316490f, -0.18661742f,
    -0.24159029f, 0.05745465f, -1.14410281f, -0.35974383f, -0.02364011f, 0.01569890f, -0.19746588f, 0.38692489f,
    0.02264340f, -1.50239921f, 0.01015865f, 0.09346793f, -0.09258781f, 0.36726305f, -2.22875190f, 0.56893420f,
    -0.29116222f, -0.02968109f, 0.09994559f, -0.07953978f, -0.14777333f, 0.44889101f, -0.06676853f, 0.01786902f,
    0.49779636f, -0.08397916f, 0.01204054f, -0.27194425f, 0.10126173f, -0.18356864f, 0.37117153f, 0.14116320f,
    -0.45761582f, 0.55513084f, -0.12790775f, -0.06235405f, -0.21725383f, -0.41273361f, -0.31099510f, -0.16470771f,
    -0.54387510f, -0.52780908f, -0.33831897f, 0.29068813f, 0.20799272f, -0.45475402f, 0.02474879f, -0.19172394f,
    -0.62969780f, 0.57622498f, 0.03178805f, -0.06469493f, 0.33765072f, -0.24628522f, 0.03816102f, -0.37022915f,
    -0.04005897f, 0.43870032f, 0.01575245f, 0.37108803f, -0.26661849f, -0.05138798f, 0.25594598f, -0.26679704f,
    -0.02983185f, 0.40569592f, 0.09250920f, -0.51679802f, -0.37584889f, -0.37440011f, -0.73069137f, 0.40253377f,
    -0.97671205f, 0.22815284f, 0.20344134f, -0.09346254f, -0.24710305f, 0.24647813f, -0.93290967f, 1.09992599f,
    0.02157137f, 0.28198755f, -0.06296577f, -0.46093494f, -0.15355305f, 0.37351474f, 0.32445237f, 0.03982374f,
    0.46513897f, 0.91061860f, -0.69550341f, -0.49692976f, 0.87838227f, -0.49917632f, -0.07639501f, 0.58949041f,
    -0.40859258f, 0.22116394f, 0.21621871f, 0.29575551f, -0.06193691f, -0.38526025f, 0.14726962f, 0.09927163f,
    0.02008275f, 0.00388586f, -0.18097146f, -0.45092958f, 0.73878330f, 0.15340930f, -0.34106833f, -0.45750871f,
    0.05800983f, 0.00689548f, 0.21855660f, -0.09938709f, -0.25195554f, 0.27652234f, -0.06428456f, 0.03133383f,
    0.56293708f, 0.02271650f, 0.09981270f, 0.48587769f, 0.55415863f, 0.18711430f, -0.03872080f, 0.03990762f,
    -0.16243298f, -0.15348525f, -0.36303315f, 0.50640821f, -0.32841527f, 0.05707288f, 0.32669693f, -0.06592425f,
    0.12640338f, -0.02192153f, -0.52527964f, -0.06507774f, 0.46854758f, 0.39288771f, 0.12138390f, 0.29643866f,
    1.90419781f, -0.11344153f, 0.21979147f, -0.52967858f, 0.08113364f, -0.18493181f, 0.33708403f, -0.06659556f,
    -0.10873896f, -0.15238677f, 0.23051725f, 0.10617047f, -0.48019710f, -0.11833748f, 0.55037355f, 0.22110844f,
    -1.17990565f, 0.37143970f, -0.12172776f, -0.51441294f, 0.21178347f, -0.18455417f, -1.27942812f, -0.24730341f,
    0.29418573f, 0.09655994f, 0.07863913f, 0.62044042f, -0.41439342f, 0.37526780f, 0.00601027f, -0.39662918f,
    -0.26006696f, -0.46104458f, 0.04879233f, 0.14601503f, 0.44765145f, -0.24902339f, -0.10109863f, -0.18365905f,
    -0.85329908f, -0.36880332f, -0.14435160f, -0.52110630f, 1.24243939f, -0.55287921f, -0.78975165f, -0.34087098f,
    0.13743080f, -0.06846581f, -0.43862918f, 0.94059843f, -0.35907486f, 0.14308633f, 0.13262400f, -0.01175790f,
    -0.02380150f, -0.51620531f, -0.30883762f, 0.58299589f, 0.12915576f, 0.13426141f, -0.11240167f, 0.36941266f,
    0.07196897f, -0.00020766f, -0.23194763f, -0.18556644f, -0.24841665f, 0.60138977f, -0.35222685f, 0.17153627f,
    -0.03492088f, -0.10774321f, 1.36016834f, 0.47291589f, 0.02845423f, -0.00044104f, 0.33010069f, -0.00503776f,
    0.08862476f, -0.99152118f, -0.02221655f, 0.28325477f, -0.02056752f, 0.05163347f, -0.13062450f, -0.36501029f,
    0.04538575f, 0.09118426f, 2.44510055f, -0.10160094f, 0.44927984f, 1.24341774f, 0.05577274f, 0.13567403f,
    0.25483814f, -0.11168935f, 0.82760733f, -0.83376241f, -0.14514601f, -0.06227710f, 0.02125828f, -0.20986329f,
    -0.05652973f, 0.18502305f, -0.12604234f, 0.23687226f, 0.23228641f, -0.01984250f, -0.87325948f, 0.68411469f,
    0.31032404f, -0.26495776f, -0.34379601f, 0.10780556f, -0.16191144f, -0.13917845f, 0.42243761f, 0.00320930f,
    -0.20428509f, -0.01397451f, 1.84937859f, -0.61150938f, -0.37702745f, 0.00229805f, -0.06983610f, -0.08896064f,
    0.12216209f, 0.10142940f, 0.02272155f, 0.10531344f, -0.15458098f, -0.15569234f, 0.54285473f, -0.80395716f,
    -0.04117508f, -0.02607348f, -1.89649224f, 0.05542880f, -0.17443052f, 0.30286476f, -0.01277352f, -0.31476411f,
    0.06896576f, 0.00670977f, 1.06252909f, 1.27639580f, 0.10986908f, 0.22128780f, -0.56150419f, -0.04199506f,
    -0.10921594f, 0.85074264f, -0.05221900f, -0.30834103f, -0.08764566f, 0.06917467f, -0.99115855f, 1.10862231f
};
constexpr size_t kRecurrentSize = sizeof(kRecurrent) / sizeof(kRecurrent[0]);

// Bias: shape (4 * hidden_size,)
constexpr float kBias[] = {
    -3.46482801f, 0.51829636f, 2.22696209f, -0.79443681f, 0.80408937f, 0.28278512f, -1.73874795f, -4.03298664f,
    0.68489283f, 1.62476051f, 0.68921542f, 0.34739614f, 4.17533255f, -0.60739148f, 0.02851113f, 2.09684324f,
    -0.10445316f, 0.70859379f, 2.06123614f, 4.83029127f, -0.59859550f, -0.10695821f, 0.54268372f, 0.73863232f,
    0.04431552f, 0.00787371f, 0.16870326f, 0.13118450f, -0.14853202f, 0.31504157f, 0.04963614f, 0.03577123f,
    -0.04067345f, -0.42909467f, -0.00701620f, -0.00300831f, 0.35370082f, 1.53154349f, 1.93831122f, 1.65407634f,
    1.54579902f, 0.69413567f, 0.81519914f, 1.01265049f, 1.10097575f, 1.92486882f, 0.72562510f, 1.40106249f
};
constexpr size_t kBiasSize = sizeof(kBias) / sizeof(kBias[0]);

// Dense output weights: shape (hidden_size, output_size)
constexpr float kDenseW[] = {
    0.05221428f, 0.03264408f, -0.47537214f, -0.08335893f, -0.01966443f, -0.35342458f, -0.08959912f, -0.12858960f,
    -0.07919946f, -0.05599713f, 0.01217645f, -0.34235340f
};
constexpr size_t kDenseWSize = sizeof(kDenseW) / sizeof(kDenseW[0]);

// Dense output bias: shape (output_size,)
constexpr float kDenseB[] = {
    0.02002346f
};
constexpr size_t kDenseBSize = sizeof(kDenseB) / sizeof(kDenseB[0]);

} // namespace bandmaster_high_gain
} // namespace EmbeddedModels
