#pragma once
// Auto-generated from AIDA-X model: bandmaster clean
// Architecture: LSTM-12
// DO NOT EDIT - regenerate using convert_aidax_to_cpp.py

#include <cstddef>

namespace EmbeddedModels {
namespace bandmaster_clean {

constexpr const char* kName = "bandmaster clean";
constexpr const char* kArchitecture = "LSTM";
constexpr int kHiddenSize = 12;
constexpr int kInputSize = 1;
constexpr int kOutputSize = 1;

// Input kernel weights: shape (input_size, 4 * hidden_size)
constexpr float kKernel[] = {
    0.20894063f, 0.06338080f, -0.58750278f, -0.00019480f, 0.00101937f, 0.00081944f, 0.06080636f, 0.07322030f,
    0.15061152f, 0.22015662f, -0.03597761f, 0.09261370f, 0.17948392f, -0.06918269f, -0.15111482f, -0.00015871f,
    0.00106428f, 0.00068353f, 0.04449140f, 0.19424838f, 0.07361098f, 0.12287246f, -0.03818357f, 0.12812001f,
    -0.46857136f, 0.20140889f, 0.84078747f, -0.04221222f, 0.00724360f, 0.04050218f, -0.12884225f, -0.55032402f,
    0.25802243f, -0.39349157f, -0.02049165f, -0.72249037f, 0.22887009f, 0.05727077f, -0.38334420f, 0.00117517f,
    0.00095487f, 0.00127504f, 0.01221469f, 0.03101365f, 0.00442560f, 0.24842796f, -0.03786930f, 0.08641441f
};
constexpr size_t kKernelSize = sizeof(kKernel) / sizeof(kKernel[0]);

// Recurrent kernel weights: shape (hidden_size, 4 * hidden_size)
constexpr float kRecurrent[] = {
    -0.00470952f, -0.00155959f, -0.03896467f, 0.00217948f, 0.00023816f, 0.00009395f, -0.01350852f, -0.04536227f,
    -0.34228307f, -0.05118166f, 0.01206697f, -0.00704123f, 0.09900412f, -0.38721883f, -0.09938981f, 0.00211537f,
    0.00023798f, 0.00027330f, -0.45848265f, 0.07772901f, -0.22778362f, -0.03685287f, 0.01589301f, 0.07380076f,
    -1.20935321f, -0.57918209f, 0.23350985f, 0.04517254f, 0.03817634f, 0.01700141f, -0.37884456f, -1.48822820f,
    0.51289326f, 0.12315650f, -0.24617507f, 0.10694788f, 0.00556551f, -0.00492536f, -0.04330363f, 0.00227007f,
    0.00031392f, 0.00004992f, -0.34441963f, 0.04373552f, 0.02613378f, -0.06135102f, 0.01000737f, 0.00880688f,
    0.00208228f, 0.04669189f, -0.41612276f, 0.00122162f, 0.00014338f, 0.00016655f, -0.09612651f, 0.07756736f,
    0.18048450f, -0.00562745f, 0.00894770f, 0.00521151f, 0.00943910f, 0.09195734f, -0.38045263f, 0.00125119f,
    0.00013762f, 0.00019061f, -0.00701368f, -0.02774807f, 0.21022382f, -0.00305087f, 0.00986110f, 0.00534869f,
    0.43554473f, 0.79685497f, 0.62827569f, -0.00214632f, -0.01207375f, -0.01491404f, -0.69768065f, -0.15466785f,
    -0.07118864f, -0.02937080f, 0.06905814f, 0.92691088f, 0.00151523f, 0.17638473f, -0.39693472f, 0.00122263f,
    0.00014311f, 0.00017260f, -0.03679232f, 0.03686311f, 0.16877054f, -0.00524374f, 0.00883145f, 0.00255040f,
    -0.01016587f, -0.19037712f, -0.29198012f, 0.00362632f, -0.00006367f, 0.00019912f, -0.33953035f, -0.60019678f,
    -0.33310765f, -0.01066617f, 0.00250028f, 0.01520172f, 0.01063910f, -0.23185368f, -0.32189667f, 0.00530098f,
    0.00004322f, 0.00012394f, -0.18487272f, 0.17744720f, -0.42667034f, -0.00143238f, 0.00540074f, 0.10141630f,
    0.44697714f, 0.33541295f, 0.17044260f, 0.06276239f, -0.01354048f, -0.03925745f, 0.27851239f, 0.99578440f,
    -0.24876411f, 0.62120634f, -0.04480465f, 0.23387246f, -0.01294270f, -0.03741569f, -0.30910885f, 0.00324070f,
    -0.00007255f, 0.00027452f, -0.39335737f, -0.13381404f, -0.37350333f, -0.00789383f, 0.00006455f, 0.02008096f,
    -0.00479832f, -0.00375392f, -0.01027858f, 0.00167847f, 0.00009795f, 0.00031633f, -0.04595337f, -0.01291337f,
    0.00236060f, -0.00139423f, 0.00414545f, -0.00509170f, 0.01122929f, -0.09540546f, -0.01200595f, 0.00183696f,
    0.00013103f, 0.00022506f, -0.07694730f, -0.00666828f, 0.00632415f, -0.00141507f, 0.00494620f, 0.00649412f,
    -0.03800005f, -0.02937431f, 0.09939613f, -0.00561154f, 0.00833884f, 0.01638829f, -0.07598731f, -0.21855766f,
    0.02522611f, -0.08404125f, 0.00874900f, -0.02140613f, -0.00433434f, -0.06408638f, -0.00820817f, 0.00165500f,
    0.00010043f, 0.00025071f, -0.08570664f, -0.02085022f, 0.02461280f, -0.00144975f, 0.00393050f, -0.00420078f,
    -0.00138656f, 0.02942264f, -0.00764519f, 0.00068475f, 0.00001937f, 0.00013838f, 0.00601280f, 0.00194726f,
    0.00016411f, -0.00058797f, 0.00095778f, -0.00305690f, -0.00060609f, 0.02030729f, -0.00590660f, 0.00070790f,
    0.00001279f, 0.00012321f, 0.00379004f, 0.00242385f, -0.00271671f, -0.00089263f, 0.00099440f, 0.00004094f,
    0.02934090f, 0.01658493f, -0.02333852f, 0.00428023f, -0.00749098f, -0.00247747f, 0.00702883f, 0.03802400f,
    -0.02663245f, -0.00212275f, -0.00379155f, 0.01718181f, -0.00089740f, 0.01892357f, -0.00684769f, 0.00070100f,
    0.00001949f, 0.00014641f, 0.00381470f, -0.00428269f, -0.00669461f, -0.00069410f, 0.00099417f, -0.00243805f,
    -0.00212079f, 0.00545565f, 0.00841590f, -0.00088456f, -0.00008218f, -0.00017268f, 0.01999918f, 0.00735646f,
    -0.00521748f, 0.00058807f, -0.00278139f, -0.00298482f, -0.00523805f, 0.04462566f, 0.01055651f, -0.00089212f,
    -0.00004727f, -0.00010981f, 0.03744719f, 0.00434548f, -0.01672235f, 0.00109413f, -0.00339431f, -0.00255379f,
    0.02128738f, 0.00995439f, -0.07399012f, 0.01003679f, -0.00499991f, -0.01221122f, 0.02744140f, 0.09191135f,
    -0.01814582f, 0.03840901f, -0.01866491f, 0.04402687f, -0.00175480f, 0.03681021f, 0.00757499f, -0.00087117f,
    -0.00008411f, -0.00016104f, 0.05099129f, 0.00565909f, -0.02787844f, 0.00053211f, -0.00273020f, -0.00276735f,
    0.00912101f, 0.10014799f, 0.42842770f, -0.00058822f, -0.00004696f, 0.00015056f, -0.25191507f, 0.21692149f,
    -0.06838967f, 0.01877927f, -0.02022695f, -0.00330228f, -0.00959755f, -0.12513897f, 0.39675927f, -0.00052741f,
    -0.00005600f, 0.00014656f, -0.39372173f, 0.17132555f, -0.06860936f, 0.01017050f, -0.02048114f, -0.03681744f,
    0.38470867f, 0.38977370f, -0.46225807f, 0.05940295f, 0.01414134f, -0.02494619f, 0.66897142f, -0.49178800f,
    0.23915592f, -0.00128142f, -0.14892305f, 0.96584958f, 0.00785560f, -0.06015123f, 0.41348132f, -0.00061502f,
    -0.00004827f, 0.00014970f, -0.55009621f, 0.08928215f, -0.07324747f, 0.01892954f, -0.02032824f, -0.00369938f,
    -0.01984416f, 0.23442416f, 0.14678177f, -0.00091156f, 0.00039469f, -0.00091554f, 0.39211360f, -0.11743429f,
    0.07251546f, -0.04142046f, -0.00550668f, 0.04158323f, 0.03486272f, -0.45390469f, 0.01382262f, -0.00208613f,
    0.00032722f, -0.00079359f, -0.45744359f, -0.16890821f, -0.32433289f, -0.01194153f, -0.00948163f, 0.06954964f,
    0.82649702f, -0.64406073f, -0.36826760f, 0.07028145f, -0.02420235f, -0.03237083f, -0.28762195f, 0.31365490f,
    0.11035455f, 0.06557246f, -0.00284510f, 1.08856344f, -0.02422391f, 0.05363733f, 0.09307058f, -0.00157655f,
    0.00037457f, -0.00078184f, 0.32301685f, -0.18745844f, -0.10337698f, -0.03920043f, -0.00777141f, 0.03003030f,
    -0.00193705f, 0.09083931f, -0.44282225f, 0.00728287f, 0.00044065f, 0.00110102f, -0.00473787f, 0.14541587f,
    0.16807164f, -0.02407494f, 0.01310682f, 0.00505534f, 0.08233114f, -0.08078314f, -0.39584351f, 0.00704618f,
    0.00041373f, 0.00125034f, -0.19573328f, 0.08278927f, 0.16317171f, 0.01241108f, 0.01750252f, 0.11232372f,
    0.30789244f, 0.09359588f, 0.43581197f, 0.09641007f, -0.01135401f, -0.07358901f, -0.13671221f, 0.06461176f,
    0.82551527f, 0.24596794f, -0.19123051f, 0.46123058f, -0.00449077f, -0.02838700f, -0.42034003f, 0.00734207f,
    0.00044793f, 0.00104293f, -0.32875466f, 0.08708724f, 0.20961684f, -0.02500509f, 0.01261880f, -0.00055800f,
    -0.03006418f, 0.05205898f, -0.10916532f, 0.00197504f, 0.00020444f, 0.00030081f, 0.11597381f, -0.22789134f,
    -0.19575654f, -0.02925571f, 0.01209186f, -0.05491580f, 0.04967242f, -0.32256755f, -0.10771964f, 0.00185668f,
    0.00019274f, 0.00040255f, -0.22994871f, 0.01857862f, -0.21072172f, -0.01908517f, 0.01402322f, 0.03401026f,
    -0.15561576f, -0.11890917f, 0.29425040f, 0.00240388f, 0.02184668f, 0.03254426f, -0.15287602f, -0.70945573f,
    0.19788076f, -0.14790279f, -0.12677225f, -0.50065607f, -0.02148902f, -0.06770904f, -0.09797964f, 0.00145304f,
    0.00022516f, 0.00020326f, -0.14860377f, -0.10399636f, -0.02199465f, -0.03402071f, 0.01114310f, -0.04235454f,
    0.00260591f, -0.03778072f, 0.01368450f, -0.00293221f, -0.00006005f, -0.00059775f, 0.06991959f, -0.01276923f,
    -0.00198543f, 0.00061700f, -0.00677837f, 0.00558027f, -0.01333788f, 0.16667403f, 0.01300524f, -0.00313735f,
    -0.00007950f, -0.00056731f, 0.11365270f, -0.02184863f, 0.00502711f, -0.00069994f, -0.00776367f, -0.00912803f,
    -0.02759592f, -0.06714926f, -0.15162306f, -0.02079463f, -0.01541937f, -0.01308306f, 0.11383845f, 0.18392295f,
    0.04438899f, 0.11200110f, 0.03582026f, -0.08682352f, 0.00193854f, 0.09536290f, 0.00917330f, -0.00288710f,
    -0.00006554f, -0.00051036f, 0.17296691f, 0.03126545f, -0.03270344f, 0.00093767f, -0.00654119f, 0.00431178f,
    -0.00296170f, -0.01340146f, 0.06709744f, 0.00152031f, 0.00013580f, 0.00012577f, -0.07793076f, 0.01185188f,
    -0.24196157f, -0.04323379f, 0.00984711f, -0.00521598f, 0.07895489f, -0.19526815f, -0.00320570f, 0.00194712f,
    0.00011972f, 0.00026617f, -0.30358326f, 0.03766644f, -0.07721640f, -0.02928475f, 0.01252162f, 0.04435194f,
    1.26624393f, -0.23083647f, -0.39742866f, 0.08085514f, 0.00851323f, -0.01080962f, -0.10936299f, -1.12918973f,
    0.46284199f, 0.24782260f, -0.15987962f, -0.93352067f, 0.00636901f, 0.02229896f, 0.05694847f, 0.00030852f,
    0.00020080f, -0.00026532f, -0.26454923f, 0.01728511f, 0.10191389f, -0.05202935f, 0.00850751f, 0.00204288f
};
constexpr size_t kRecurrentSize = sizeof(kRecurrent) / sizeof(kRecurrent[0]);

// Bias: shape (4 * hidden_size,)
constexpr float kBias[] = {
    1.63076067f, -3.66692638f, -0.16663441f, -0.04365889f, -0.01831856f, -0.02454091f, -3.66189384f, -1.29020298f,
    -1.02000177f, 0.29161650f, -0.05522306f, 1.32923734f, -1.00754905f, 4.82730436f, -0.21029198f, -0.01516841f,
    -0.01554247f, -0.02474279f, 4.68391418f, 2.22181320f, 2.13112259f, -0.25483030f, 0.07067350f, -0.95615846f,
    0.01991777f, -0.05108391f, 0.11339760f, 0.00759455f, 0.00005994f, -0.00334560f, -0.03247241f, -0.08069262f,
    0.01913472f, -0.01781243f, -0.00606961f, 0.04800309f, 1.80278063f, -1.12902594f, 0.17088279f, -0.04361710f,
    -0.01831556f, -0.02453669f, -0.58373910f, 0.56839019f, -0.37741864f, 0.32355660f, -0.05405628f, 1.54135728f
};
constexpr size_t kBiasSize = sizeof(kBias) / sizeof(kBias[0]);

// Dense output weights: shape (hidden_size, output_size)
constexpr float kDenseW[] = {
    -1.14320695f, -0.50781149f, 0.61406207f, -0.06640102f, 0.04431732f, 0.03294623f, 0.58518797f, -0.68974811f,
    0.30752730f, -0.34652993f, -0.12675814f, -0.74331874f
};
constexpr size_t kDenseWSize = sizeof(kDenseW) / sizeof(kDenseW[0]);

// Dense output bias: shape (output_size,)
constexpr float kDenseB[] = {
    -0.06746048f
};
constexpr size_t kDenseBSize = sizeof(kDenseB) / sizeof(kDenseB[0]);

} // namespace bandmaster_clean
} // namespace EmbeddedModels
