#pragma once
// Auto-generated from AIDA-X model: bandmaster med gain
// Architecture: LSTM-12
// DO NOT EDIT - regenerate using convert_aidax_to_cpp.py

#include <cstddef>

namespace EmbeddedModels {
namespace bandmaster_med_gain {

constexpr const char* kName = "bandmaster med gain";
constexpr const char* kArchitecture = "LSTM";
constexpr int kHiddenSize = 12;
constexpr int kInputSize = 1;
constexpr int kOutputSize = 1;

// Input kernel weights: shape (input_size, 4 * hidden_size)
constexpr float kKernel[] = {
    0.04786613f, -0.13136651f, -0.10502575f, 0.01428761f, 0.00092993f, -0.10905505f, 0.75049257f, -0.12747292f,
    0.01198053f, 0.16382843f, 0.50007540f, -0.04218918f, -0.18658277f, 0.06444722f, 0.29609635f, -0.32310760f,
    0.31346646f, 0.14051099f, 0.20168632f, -0.07759307f, -0.05987603f, -0.17687146f, 0.54391450f, -0.28925428f,
    -0.49841249f, 0.98161614f, -1.05675006f, 0.14557704f, -0.72115576f, -0.52355796f, -0.62115765f, -2.50333309f,
    -0.11395891f, -0.16340932f, 1.53592765f, 0.31017312f, -0.17777047f, -0.19374537f, 0.23562025f, -0.18437523f,
    -0.07751997f, -0.07194793f, 0.03002272f, -0.01944937f, -0.03500725f, 0.05699917f, 0.09983174f, -0.13884565f
};
constexpr size_t kKernelSize = sizeof(kKernel) / sizeof(kKernel[0]);

// Recurrent kernel weights: shape (hidden_size, 4 * hidden_size)
constexpr float kRecurrent[] = {
    -0.09956302f, 0.37365276f, 0.66209465f, 0.18614443f, -0.17618442f, -0.24829119f, 0.13107318f, -0.93983227f,
    -0.19068708f, 1.41197193f, 0.29157308f, -0.37521178f, 0.20282766f, -0.14889674f, -0.38224003f, 0.62303209f,
    -0.05742685f, -0.20350459f, -0.28748807f, 0.01606241f, 0.18386060f, -0.18246603f, -0.46314439f, 0.16821885f,
    0.44426140f, 0.42325178f, 0.40079471f, 0.39027143f, -0.16921541f, -0.03574429f, -0.16959180f, -0.08166229f,
    0.05105314f, -0.24264002f, 0.29498485f, -0.19896603f, -0.10003117f, 1.28954232f, 0.32459351f, 0.55147821f,
    0.04387891f, -0.17102014f, 0.14461814f, -0.49377495f, 0.01549363f, 1.28546166f, 0.04848840f, 0.00931437f,
    -0.02706157f, 0.10264555f, 0.30633241f, -0.34466434f, 0.14520374f, 0.11094956f, -0.51434731f, 0.14198704f,
    0.15739869f, 0.16302703f, 0.28479931f, 0.13110799f, -0.04558617f, 0.51511371f, 0.05202938f, 0.00872908f,
    0.12944853f, -0.10283505f, 0.43416297f, -0.02776483f, -0.05226656f, 0.11793596f, -0.21320862f, 0.42773131f,
    0.50302958f, -0.11111151f, -0.71749163f, 0.34646997f, 0.00902252f, -0.07789364f, -0.19309902f, 0.09947989f,
    -0.14007322f, 1.34978032f, 0.12734929f, -0.39660758f, 0.50768858f, 0.44494191f, 0.12134960f, -0.33727908f,
    -0.05357564f, 0.06597728f, -0.34039119f, -0.34921229f, -0.10589975f, 0.55178070f, 0.06507712f, 0.04273896f,
    0.22419365f, 0.11333856f, 0.28067359f, -0.77226824f, -0.13206923f, -0.23599292f, 0.18030073f, -0.32836595f,
    0.06469460f, 0.03542279f, -0.31549710f, -0.45738956f, -0.49567795f, 0.31286684f, 0.63717175f, -0.30337930f,
    0.01969993f, -0.02496248f, -0.12025996f, -0.00931040f, -0.07168318f, 0.24385487f, 0.36143023f, 0.20430829f,
    -0.22633968f, 1.82715619f, -0.36976808f, 0.96557862f, -0.09148579f, -0.11308362f, -0.85042804f, 0.21722999f,
    0.01520778f, 0.51762265f, 0.23352960f, -1.05393481f, -0.97136617f, -0.11123313f, -0.20297351f, -0.18158062f,
    -0.13391799f, -0.20974846f, 0.61204731f, 0.08570867f, 0.12673761f, 0.08851565f, -0.97961527f, 0.14700343f,
    0.40362108f, -0.27203575f, 0.01300452f, 0.77296227f, 0.06598722f, 0.05867508f, 0.27430114f, -0.00090658f,
    0.02698957f, 0.43420905f, -0.10236839f, 0.21725357f, 0.19653404f, -0.80514294f, 0.16912311f, 0.13595703f,
    -0.09032886f, 0.01896616f, 1.02587736f, -0.02761590f, -0.03204116f, -1.04303849f, -0.25425777f, 0.00140405f,
    -0.05595559f, -2.00167084f, -0.85512793f, 1.24998987f, -0.04591228f, -0.04382309f, 0.31102026f, 0.12837856f,
    -0.14792880f, 0.01412773f, 0.31379113f, -0.71835363f, 0.25676930f, -0.06397782f, 0.30388340f, 0.25404531f,
    -0.00063785f, -0.00246914f, 0.19160526f, -0.12935857f, -0.01964148f, 0.40732354f, 0.60159928f, -0.24269511f,
    0.01974407f, 0.06943412f, 0.16243263f, -0.00229828f, 0.03032108f, 0.01535716f, -0.11496193f, -0.59078336f,
    0.09295224f, -0.20795175f, 0.35345781f, 0.06376149f, 0.24205522f, 0.24282937f, 0.18248750f, 0.05809743f,
    -0.00719852f, 0.07142515f, -0.34581229f, -0.09180824f, 0.03063353f, 0.00211649f, 0.07691866f, -0.05388849f,
    0.28772706f, -0.14120404f, 0.11743478f, 0.23637979f, -0.60022461f, -0.22092460f, 0.22487676f, -1.34467673f,
    -0.65382713f, 0.01548440f, 0.88713652f, -0.39547884f, 0.02476630f, -0.25220084f, -0.11075345f, 0.18891501f,
    0.00713985f, 0.01541406f, 0.26036569f, 0.56959403f, 0.05731826f, -0.10590026f, 0.02059933f, 0.11046643f,
    0.35508144f, -0.02088617f, 0.00319212f, -0.61515540f, 0.02028988f, 0.05103048f, 0.83704197f, 0.31043369f,
    0.03780755f, 0.28996697f, -0.13186131f, 0.22261575f, -0.32722095f, -0.08349749f, -0.37062040f, -0.00546641f,
    -0.08466519f, 0.02310998f, 0.68368351f, -0.02065552f, 0.13912593f, 0.22659458f, -0.23543632f, -0.10957343f,
    -0.22413974f, 1.17131138f, -1.26559556f, -0.32518244f, 0.54100531f, 0.06595269f, -0.54188919f, 0.56406844f,
    -0.60000944f, -0.23331647f, -0.41448057f, 0.46599001f, -0.41514710f, 0.18673313f, -0.03570975f, -0.17039798f,
    -0.06811288f, 0.09675141f, 0.10876656f, -0.35936353f, 0.08014119f, 0.32633308f, -0.68121326f, 0.12979594f,
    -0.12934755f, -0.14505388f, -0.62773073f, 0.25617555f, 0.09303418f, 0.06851824f, -0.14334801f, -0.14386703f,
    -0.19555187f, -0.41694054f, -0.16336247f, -0.10907099f, -0.43739936f, -0.12914231f, -1.08183348f, 0.30884302f,
    0.06231226f, -0.18642424f, -0.15573569f, -0.14146465f, -0.18803778f, 0.20588756f, 0.27312657f, -0.24665460f,
    -0.01647803f, 1.29449821f, -0.59432584f, 0.38777208f, -0.07079772f, 0.16645764f, 0.37167421f, 0.22329344f,
    0.08559616f, -0.16462184f, 0.06272481f, -0.78632694f, -0.06599960f, -0.05637789f, -0.47685689f, 0.05594717f,
    0.01457085f, 0.05609562f, 0.01631215f, 0.09584330f, -0.11582218f, -0.47475895f, -0.02131662f, -0.01296926f,
    0.67856759f, -0.10501879f, 0.35936001f, 0.03424453f, -0.01013535f, -0.04935096f, 0.64407998f, -0.84202534f,
    0.06750954f, 0.03873243f, -0.01214076f, 0.09439664f, 0.23118736f, -0.03811312f, 0.06631272f, -0.28256139f,
    0.22311968f, -0.09600137f, -0.08997295f, 0.11552797f, 0.13550329f, 0.09991866f, -0.01907858f, -0.16115606f,
    0.00660194f, 0.49039659f, -0.78751427f, -0.19746211f, 0.71348935f, -0.94049329f, -0.30810788f, 1.61478305f,
    0.47448915f, -0.23595002f, 0.17935759f, 0.41705507f, -0.09085408f, -0.08931646f, -0.25999188f, -0.04919403f,
    0.41109875f, -0.04474312f, 0.14807411f, 0.69022250f, 0.07269908f, 0.07112550f, -0.05469899f, -0.06212168f,
    -0.21106149f, 0.06996833f, 0.26286536f, -0.12704360f, 0.23843016f, 0.01211608f, -0.10216696f, -0.36152285f,
    0.01353896f, 0.12549402f, -0.01935282f, 0.00321437f, -0.06011996f, -0.18829478f, 0.22873218f, -0.05425260f,
    0.09226053f, -0.03132762f, 0.01834516f, 0.04533927f, 0.06637323f, 0.03713670f, 0.02612667f, 0.04849238f,
    0.08701670f, 0.08842288f, -0.15791062f, -0.24680033f, -0.04055916f, 1.78009987f, 0.03505908f, -0.65850627f,
    -0.05648523f, 0.19742896f, 0.44918844f, 0.32461342f, -0.10042517f, 0.20516425f, 0.04459471f, 0.09507407f,
    0.03134391f, -0.00636482f, 0.10488451f, 0.10559779f, 0.01274677f, 0.16684216f, 0.21089585f, 0.06023570f,
    0.07238791f, -0.00512653f, -0.07911287f, -0.26120648f, -0.06245119f, 0.04065840f, 0.29736686f, 0.30448958f,
    -0.20710453f, -0.20365748f, -0.23205602f, -0.12825437f, 0.17652459f, 0.28270254f, -0.12942430f, 0.36043811f,
    -0.29114509f, 0.04151352f, 0.61755055f, 0.05390967f, 0.09550571f, -0.26730511f, -0.33930361f, -0.44238889f,
    -0.36439836f, -0.02193531f, 0.81363839f, -0.12534419f, -0.05540873f, 0.24351098f, 0.29137293f, -0.09293516f,
    0.15772404f, -0.56421828f, 0.02685965f, 0.20801172f, 0.16810487f, 0.98117495f, -0.20673488f, -0.05913327f,
    -0.26045778f, 0.04270445f, 0.30138716f, -0.17014740f, -0.09974758f, -0.00636122f, -0.38685423f, -0.06298864f,
    -0.25045711f, 0.31970796f, -0.07984954f, 0.42980540f, 0.11915399f, -0.00549202f, -0.94644701f, 0.21254286f,
    0.00958818f, 0.55591565f, 0.16229029f, -0.00862630f, 0.33802587f, 0.37578395f, 0.16960377f, -0.24146283f,
    0.22702830f, 0.25247699f, -0.56043476f, -0.01440447f, -0.20750219f, -0.03370505f, -0.02459960f, 0.37833691f,
    0.00264759f, -0.31664646f, 0.68309218f, -0.62140167f, 0.18085665f, 0.34611562f, 0.04092249f, 0.29334795f,
    -0.18509385f, -0.18355979f, 0.19334659f, -0.09120764f, -0.02272513f, 0.24174093f, 0.00416416f, 0.26679626f,
    0.33721110f, 0.05884397f, -0.35875186f, 0.07325424f, 0.03048355f, 0.20400174f, 0.28376073f, 0.00015845f,
    0.32309592f, -0.02657150f, -0.57500613f, 0.00158128f, -0.13834974f, 0.01599097f, -0.48713976f, 0.21526530f,
    -0.18040116f, -0.48301831f, -0.17212786f, -0.34132606f, 0.43143904f, 0.46379742f, -0.03552058f, 0.28631717f,
    0.16114834f, -0.08626920f, -0.24910840f, -0.13421190f, 0.17422047f, -0.17511781f, -0.25180614f, 0.01906553f,
    -0.21929063f, 0.21417275f, 0.29903087f, 1.51762092f, 0.04946706f, -0.02751761f, -0.20150314f, 0.20832784f,
    -0.17151171f, 0.44246584f, 0.67080820f, 0.09541041f, 0.09082271f, -0.11500647f, -0.41176066f, -0.21256988f,
    -0.04704123f, 0.00272573f, -0.40221432f, -0.05765669f, 0.03765775f, -0.08416184f, -0.47687605f, -0.19527532f
};
constexpr size_t kRecurrentSize = sizeof(kRecurrent) / sizeof(kRecurrent[0]);

// Bias: shape (4 * hidden_size,)
constexpr float kBias[] = {
    -3.55998969f, 2.34651089f, 0.96539748f, 0.88365340f, -0.74315798f, 1.46387613f, -3.10495281f, 1.41531157f,
    0.04403009f, -0.23148391f, -1.17489493f, -0.30019653f, 4.54324245f, 0.96620333f, 0.11480738f, -0.15915987f,
    2.16872501f, -0.16306479f, 3.88517857f, -1.82551217f, 0.81091779f, -0.40950823f, 2.27539849f, 0.79914844f,
    -0.04618719f, 0.16644473f, -0.19895989f, 0.06182191f, -0.00555584f, -0.01584471f, -0.04514055f, -0.01041804f,
    0.09606213f, -0.04161763f, 0.04398282f, -0.01453336f, 0.90184963f, -0.84445161f, 1.36490095f, 1.60553646f,
    0.99174905f, 1.74267983f, 0.66285431f, 1.34711480f, 1.39091730f, 0.19021344f, 0.07052041f, 1.32994723f
};
constexpr size_t kBiasSize = sizeof(kBias) / sizeof(kBias[0]);

// Dense output weights: shape (hidden_size, output_size)
constexpr float kDenseW[] = {
    0.28057751f, -1.20764947f, -0.15533186f, -0.13925542f, -0.00554806f, -0.04991549f, 0.03640613f, 0.01394895f,
    -0.11035272f, 1.17020822f, 0.03763060f, -0.01103565f
};
constexpr size_t kDenseWSize = sizeof(kDenseW) / sizeof(kDenseW[0]);

// Dense output bias: shape (output_size,)
constexpr float kDenseB[] = {
    0.05020425f
};
constexpr size_t kDenseBSize = sizeof(kDenseB) / sizeof(kDenseB[0]);

} // namespace bandmaster_med_gain
} // namespace EmbeddedModels
