#pragma once
// Auto-generated from AIDA-X model: tw40_california_clean_deerinkstudios
// Architecture: LSTM-12
// DO NOT EDIT - regenerate using convert_aidax_to_cpp.py

#include <cstddef>

namespace EmbeddedModels {
namespace tw40_california_clean_deerinkstudios {

constexpr const char* kName = "tw40_california_clean_deerinkstudios";
constexpr const char* kArchitecture = "LSTM";
constexpr int kHiddenSize = 12;
constexpr int kInputSize = 1;
constexpr int kOutputSize = 1;

// Input kernel weights: shape (input_size, 4 * hidden_size)
constexpr float kKernel[] = {
    -0.05898863f, 0.05630207f, -0.01088635f, -0.03907707f, -0.01957677f, -0.00049061f, 0.04394367f, 0.03217808f,
    0.06010797f, -0.03107385f, 0.04744715f, 0.02611625f, -0.06898219f, 0.06051253f, 0.02031611f, 0.11878474f,
    0.01120940f, -0.08722781f, 0.00750890f, 0.01189996f, 0.03165969f, 0.07981367f, -0.07961058f, -0.02836544f,
    0.01812619f, 0.75474215f, 0.07785287f, -0.02092124f, 0.17396133f, -0.02892882f, -0.76125419f, 0.09544290f,
    0.08657907f, -0.40953392f, 0.12415181f, -0.37970352f, -0.03348652f, 0.07236624f, -0.00558893f, -0.04463245f,
    -0.00594841f, 0.04233152f, 0.04752858f, 0.04987810f, 0.10823323f, 0.00016080f, -0.00303770f, 0.01228737f
};
constexpr size_t kKernelSize = sizeof(kKernel) / sizeof(kKernel[0]);

// Recurrent kernel weights: shape (hidden_size, 4 * hidden_size)
constexpr float kRecurrent[] = {
    -0.07931881f, -0.02705242f, 0.01168086f, -0.23332308f, -0.08691033f, 0.14434385f, -0.07432237f, -0.04311472f,
    0.06548870f, 0.01606661f, 0.04734612f, -0.01363897f, -0.13298997f, -0.07051332f, 0.04048029f, 0.08481722f,
    -0.03788358f, -0.14510013f, -0.10443750f, -0.00739792f, 0.07510305f, -0.05152790f, 0.04347002f, -0.03557546f,
    0.58235234f, -0.21963149f, 0.29549038f, 0.34767586f, -0.01017883f, 0.03154238f, -0.34173208f, -0.27863899f,
    -0.22743124f, 0.08011166f, -0.13963123f, -0.16942814f, -0.06949443f, -0.00123841f, 0.00909843f, -0.05693915f,
    -0.09114541f, 0.01983445f, 0.00363379f, -0.01495061f, 0.11897773f, 0.02929772f, 0.08119626f, -0.00155552f,
    -0.01946433f, -0.00244054f, 0.01934759f, 0.15640742f, 0.01041491f, -0.17440559f, 0.00132552f, -0.00234032f,
    -0.00762883f, 0.01559371f, 0.01611705f, -0.00715013f, 0.02935241f, -0.02487021f, -0.02017388f, 0.07293161f,
    0.02435140f, -0.02937122f, 0.01466727f, 0.03998352f, 0.02777844f, 0.02509368f, 0.00168872f, 0.02627069f,
    -0.02092951f, 0.01008708f, -1.07259369f, -0.26107979f, -0.28118789f, -0.44559851f, -0.32627326f, -0.32235888f,
    0.06710756f, -0.10433804f, -0.02746082f, 0.37806135f, 0.00988482f, -0.01038023f, 0.02426254f, 0.05168254f,
    0.02287480f, -0.09369008f, 0.01218719f, 0.00515159f, -0.00387999f, 0.01431848f, -0.02248925f, -0.00776834f,
    -0.05902744f, 0.06631450f, 0.02067491f, -0.08170862f, -0.02526425f, 0.13590015f, 0.02331666f, 0.02601736f,
    -0.02293135f, 0.07141393f, 0.04379406f, 0.01950482f, -0.11317358f, 0.07406723f, 0.06245593f, -0.03867951f,
    -0.06187525f, 0.06895348f, 0.00919549f, -0.02296904f, -0.05703977f, 0.04113314f, 0.06875574f, 0.02464452f,
    -0.22950602f, 0.27110547f, 0.01823259f, 0.56301522f, -0.22019941f, 0.61897719f, 0.33046550f, -0.81895548f,
    -0.52476835f, -0.22545236f, -0.02480813f, -0.47057429f, -0.06392115f, 0.09076843f, 0.03010497f, -0.07646241f,
    -0.03874567f, 0.09235645f, 0.04577822f, 0.04847465f, -0.04494232f, 0.05028893f, 0.09222145f, 0.01661495f,
    0.07328817f, -0.07174578f, 0.07740603f, 0.02678252f, 0.01181684f, 0.20387794f, -0.03463915f, 0.07074513f,
    -0.10770378f, -0.08828005f, 0.10177630f, 0.10082787f, 0.12903062f, -0.05503969f, 0.18648675f, 0.08111458f,
    0.21206027f, 0.16782391f, 0.13008796f, 0.53155911f, -0.12364197f, -0.02909103f, 0.16430858f, 0.02591221f,
    -0.49543709f, 0.06318090f, -0.28297135f, 0.54293787f, 0.46787658f, -0.06334687f, 0.12588853f, 0.60121381f,
    -0.10658932f, 0.13190427f, 0.13047788f, 0.04547362f, 0.09923042f, -0.10203798f, 0.10309150f, 0.04848608f,
    0.00103357f, 0.17158628f, -0.01670540f, 0.20085584f, -0.07271116f, 0.00673535f, 0.18975222f, 0.11765561f,
    0.01841960f, -0.04349665f, -0.00810052f, 0.07445575f, 0.03721780f, -0.06303670f, -0.01834412f, 0.04578923f,
    0.01491758f, -0.02836746f, -0.01690776f, -0.00611926f, 0.01887888f, 0.00454313f, 0.01308139f, -0.11758123f,
    0.04571486f, -0.00823556f, -0.05555355f, 0.05147087f, 0.03049492f, -0.06598185f, -0.08549959f, -0.01011817f,
    0.15712433f, -0.03968240f, -0.05862974f, -0.08918931f, 0.26146543f, 0.03867585f, 0.22643100f, 0.45918271f,
    0.29727662f, 0.17578636f, -0.17842495f, -0.22381404f, 0.04616568f, -0.05058154f, -0.00353811f, 0.02756470f,
    0.05486016f, -0.03494506f, 0.00341767f, 0.07733222f, 0.02614296f, 0.02607606f, 0.00742774f, -0.00253326f,
    -0.03604131f, 0.05865994f, -0.10791130f, -0.15994617f, 0.02415269f, 0.12165537f, -0.04606065f, 0.11544187f,
    0.19784470f, 0.09827840f, -0.18537542f, -0.01772130f, -0.19055341f, 0.03692358f, -0.11515706f, -0.21412681f,
    -0.18552920f, 0.16081029f, -0.09767715f, -0.47085863f, 0.11756255f, 0.06059033f, -0.30719948f, -0.03635034f,
    -0.25452885f, -0.08724755f, -0.32560536f, -0.03332322f, 0.14931534f, 0.61800659f, 0.19153555f, 0.48976007f,
    -0.25133434f, 0.04459723f, 0.19219615f, -0.05924700f, -0.04287482f, 0.08530719f, -0.11028828f, -0.11299682f,
    0.05438675f, 0.08714636f, -0.01920048f, -0.09835448f, 0.18006393f, 0.08711525f, -0.17238209f, -0.01306635f,
    0.09592802f, -0.00570168f, 0.04577364f, 0.17280510f, 0.06746101f, -0.09060688f, -0.02776776f, 0.01651775f,
    0.02240608f, 0.02274560f, -0.09105998f, 0.02790325f, 0.13367637f, 0.02321669f, -0.06273629f, -0.05357843f,
    -0.00297793f, 0.18671727f, 0.03510786f, -0.11223505f, 0.06709991f, 0.04043671f, -0.04564660f, 0.06574060f,
    -0.50379276f, 0.50544947f, 0.18351312f, 0.04914127f, 0.21141803f, -0.20771749f, 0.22908804f, 0.05944270f,
    -0.15441962f, 0.28815770f, -0.56390220f, -0.62807965f, 0.08166795f, 0.00297976f, 0.04486353f, 0.04863193f,
    0.04466655f, 0.00028609f, -0.02004047f, -0.02972210f, -0.01684295f, -0.03435367f, -0.07932363f, 0.03030124f,
    -0.10204288f, -0.00808873f, -0.01187128f, 0.11562185f, 0.01014384f, -0.12020894f, 0.03467831f, 0.05984649f,
    -0.01270649f, 0.10655916f, 0.04997298f, 0.02596457f, -0.07615010f, 0.01075755f, 0.02519560f, -0.17616118f,
    -0.04083950f, 0.13021773f, -0.06181877f, -0.02353087f, 0.01699038f, 0.07330319f, -0.04886794f, 0.05784911f,
    -0.03556215f, 0.23685326f, 0.64072216f, -0.10358147f, 0.06774328f, -0.07717033f, -0.25445345f, 0.38241434f,
    0.31171042f, -0.19959514f, -0.31277910f, 0.26900691f, -0.01768630f, -0.02801755f, 0.00287454f, -0.03820722f,
    0.07780727f, -0.06684273f, 0.07587195f, 0.00134936f, -0.01199331f, 0.12963872f, 0.04555285f, 0.02678868f,
    -0.01903312f, 0.04145347f, 0.02278456f, 0.04424156f, 0.01871630f, -0.08443691f, -0.05151227f, 0.03541351f,
    0.03333033f, -0.00233805f, 0.03580097f, -0.00525769f, -0.04381934f, 0.07208229f, -0.03015867f, -0.03026005f,
    -0.00227602f, -0.12203274f, -0.06132945f, 0.00952908f, 0.07395824f, -0.00080138f, 0.03122758f, 0.03059654f,
    0.45125589f, -0.26420712f, 0.00037808f, -0.15876040f, 0.01464467f, -0.13844948f, 0.28685161f, -0.43424502f,
    0.26660502f, 0.17747153f, 0.36476520f, -0.32609928f, -0.00914549f, 0.03071030f, 0.02567005f, 0.01071944f,
    0.03943468f, -0.03764194f, -0.00384997f, 0.06749792f, 0.04030610f, 0.02334681f, 0.03968048f, -0.00232604f,
    0.02882037f, -0.15549825f, -0.08275094f, 0.04465260f, 0.02295121f, -0.15962738f, -0.02493128f, 0.00044078f,
    -0.06653971f, -0.07732965f, -0.11310313f, -0.08153321f, 0.03469300f, -0.08560244f, -0.00158939f, -0.04210370f,
    0.07477640f, -0.12379424f, 0.01353488f, 0.22499970f, -0.04302451f, -0.18596956f, -0.09137721f, -0.05108801f,
    0.01965203f, 0.46708629f, 0.30244398f, -0.29388705f, -0.08350889f, -0.05714864f, -0.36294186f, -0.11729610f,
    -0.29326141f, 0.12060926f, -0.12440315f, -0.28951523f, 0.01064728f, -0.16823213f, -0.09827839f, 0.00376729f,
    -0.00047819f, -0.09170120f, -0.07186887f, 0.09979112f, -0.08722002f, -0.13202591f, -0.11409640f, -0.08364791f,
    0.02294102f, 0.09413577f, -0.03267002f, -0.12206536f, 0.01553438f, 0.20875439f, 0.07650471f, 0.07686893f,
    -0.00029186f, -0.07806680f, 0.03906555f, 0.00530608f, -0.03437413f, 0.13308506f, 0.03367114f, 0.05259151f,
    0.01498146f, -0.02481674f, 0.08277340f, 0.07681667f, -0.05792653f, 0.06260365f, 0.04077454f, -0.05051802f,
    0.07286728f, -0.31548202f, 0.35106349f, 0.41691756f, -0.00087317f, 0.53958189f, -0.20628311f, -0.05944072f,
    0.02677966f, -0.25716895f, 0.21911874f, -0.06484011f, -0.00917774f, 0.08583218f, -0.03520501f, 0.03870776f,
    0.00556214f, 0.11912722f, -0.01072830f, 0.12060316f, 0.00298908f, -0.03157398f, 0.04331956f, -0.00040016f,
    -0.08342464f, 0.04013412f, 0.00465137f, 0.01418420f, -0.05750136f, 0.03173866f, 0.00528174f, -0.05222274f,
    -0.08152566f, -0.01392614f, 0.03573122f, -0.00221402f, -0.06242383f, -0.00346426f, 0.00507296f, 0.10622960f,
    -0.03439038f, 0.03390576f, -0.00157040f, 0.04450132f, -0.09931269f, -0.02364704f, 0.12393776f, 0.00020015f,
    0.15822081f, -0.29326493f, 0.72919643f, -0.02298042f, -0.55151200f, -0.18896537f, 0.02416443f, -0.09977369f,
    -0.26667398f, 0.07306834f, 0.43064374f, 0.33100432f, -0.07436531f, 0.01633747f, 0.00548957f, -0.03308271f,
    -0.05309234f, 0.05220922f, -0.01324424f, -0.08853582f, -0.09445608f, -0.05719991f, 0.03926706f, -0.01876893f
};
constexpr size_t kRecurrentSize = sizeof(kRecurrent) / sizeof(kRecurrent[0]);

// Bias: shape (4 * hidden_size,)
constexpr float kBias[] = {
    0.41986120f, 0.69146681f, 1.21993804f, 0.40471035f, 0.19120669f, 0.35054821f, 0.31509122f, 1.02123547f,
    0.24655281f, 0.34246394f, 0.50174177f, 0.80690038f, 0.49960816f, 0.47252998f, 0.02034083f, 0.91440737f,
    0.17965619f, 0.59101629f, 0.62079006f, 0.13599640f, 0.74562776f, 0.70580077f, 0.43212587f, 0.42299390f,
    0.17080341f, 0.01211334f, 0.07701905f, 0.07245366f, -0.11601302f, -0.08694204f, -0.00744416f, -0.12086378f,
    -0.04483747f, -0.17769338f, 0.00465716f, -0.03556705f, 0.45678145f, 0.82414955f, 1.27227259f, 0.54860824f,
    0.40375155f, 0.53884113f, 0.90258628f, 0.85967278f, 0.57098472f, 0.62455606f, 0.68151462f, 0.87764782f
};
constexpr size_t kBiasSize = sizeof(kBias) / sizeof(kBias[0]);

// Dense output weights: shape (hidden_size, output_size)
constexpr float kDenseW[] = {
    -0.17564376f, 0.09274559f, 0.89208436f, -0.17358807f, 0.33243975f, -0.17394134f, -0.37989929f, 0.65870219f,
    -0.15090828f, -0.25001922f, -0.47294778f, -0.08216180f
};
constexpr size_t kDenseWSize = sizeof(kDenseW) / sizeof(kDenseW[0]);

// Dense output bias: shape (output_size,)
constexpr float kDenseB[] = {
    0.00702466f
};
constexpr size_t kDenseBSize = sizeof(kDenseB) / sizeof(kDenseB[0]);

} // namespace tw40_california_clean_deerinkstudios
} // namespace EmbeddedModels
