/**
 * @file nam_pico_weights.h
 * @brief NAM Pico model weights converted to constexpr arrays
 *
 * Auto-generated from Mercury's nam_model_data.h
 * Source: https://github.com/GuitarML/Mercury
 * License: MIT
 */
#pragma once

#include <cstddef>

#if defined(DAISY_SEED_BUILD) && defined(HAS_RTNEURAL) && HAS_RTNEURAL

namespace nam_wavenet
{

    // Matchless SC30
    constexpr float kMatchlessWeights[] = {
        -0.81672895f, 0.64091372f, 0.14022797f, -1.12665188f, -0.08751023f, -0.24485539f, 0.61089492f, 0.46908072f,
        -0.05520780f, -0.66120726f, -0.07212710f, -0.01750400f, 0.17192449f, -0.08522258f, 0.13064966f, 0.07243184f,
        0.56569958f, 0.81141269f, -1.17041385f, -1.20848989f, 0.68903679f, 0.97168756f, 0.08331628f, 0.49240792f,
        0.28201115f, 0.21899895f, -0.18336000f, -0.24567547f, -0.10670380f, 0.58625996f, -1.02982926f, 0.48383987f,
        0.50348181f, 0.34058234f, -0.31093132f, -0.72382885f, 0.06264188f, 0.58733982f, 0.75743437f, 0.41215318f,
        -0.80920088f, -0.14007503f, -0.57612449f, -0.81989795f, -0.29732084f, -0.23067398f, 0.46973220f, 0.72074521f,
        -0.99200922f, -0.52358437f, -0.09219761f, 1.60550892f, 0.34736142f, -0.59198177f, -0.01457336f, -0.09771787f,
        0.56926870f, -0.27401343f, -0.13396730f, -0.14954202f, 1.51040280f, 0.41269925f, -0.85055339f, 0.35282138f,
        0.43617329f, -0.52065027f, 0.14834096f, 0.39555272f, 0.12457235f, -0.38530877f, -0.04630579f, 0.46811575f,
        -0.19088519f, -0.03532397f, 0.24153082f, 0.74960500f, -0.06214735f, -0.52249551f, 0.90023124f, 0.13624398f,
        -0.23132358f, 0.07464239f, -0.14456159f, 0.18213700f, 0.67312616f, -0.04945833f, 0.04655608f, -0.61871254f,
        0.66324055f, -0.42830801f, -0.05718417f, -0.27261856f, 0.64340931f, -0.02525397f, -0.11406435f, 0.03466764f,
        -0.22344874f, 0.22859445f, 0.15714474f, -0.51425642f, 0.27445081f, 0.42425340f, -0.11865267f, 0.08344219f,
        -1.09445035f, -0.73327708f, -0.62348723f, -0.87970072f, -0.75200814f, -0.17287596f, -0.02780499f, 0.11838496f,
        -0.03868126f, -0.27162063f, 0.48911464f, -0.25125569f, -0.03532637f, 0.28351927f, 0.80582261f, 0.40109536f,
        0.03614875f, 0.74599838f, -0.76558191f, 0.12682468f, -0.16644388f, -0.15825585f, -0.06651197f, -0.73226297f,
        -0.74449581f, -0.46665150f, 0.01873804f, 0.04025049f, -0.23315325f, 0.06638459f, -0.36421701f, -0.57822543f,
        -0.03217471f, -0.24412315f, -0.04053589f, 0.06695656f, 0.80353874f, 0.90837282f, -0.10134885f, 0.58085644f,
        -0.39154211f, 0.03068436f, -0.03064155f, 0.04488495f, -1.01302171f, -0.71441060f, -0.98058188f, -0.54006815f,
        -0.12915133f, -0.05380750f, 0.46302980f, -0.51663095f, -0.55714828f, -0.39280501f, -1.22003508f, -0.03886337f,
        0.00499742f, -0.23469892f, -0.67916048f, -0.28962943f, 0.07531907f, 0.26475188f, -0.23836991f, 0.31467366f,
        -0.26236832f, -0.00471978f, -0.19377375f, -0.72678035f, -0.08653446f, -0.08215210f, -0.32969436f, 0.78962868f,
        0.06019390f, 0.05336725f, 0.56159580f, -1.07305801f, -0.06900336f, 0.04005265f, 0.74817449f, 0.59295332f,
        0.34676918f, 0.20277132f, 0.24942383f, -0.01695369f, -0.18527524f, 0.01103568f, 0.21416491f, 0.24300836f,
        -0.08234346f, 0.06647182f, -0.18280898f, 0.04198830f, -0.34885448f, 0.23610838f, -0.09287333f, 0.06366342f,
        -0.54388046f, -0.23147170f, -0.34810755f, -0.26104909f, -0.28447479f, 0.12892781f, -0.11885591f, 0.49820310f,
        0.00080400f, -0.08224198f, -0.66323036f, -0.00147194f, -0.02822188f, 0.40625572f, 0.04420855f, 0.09683409f,
        -0.13691735f, 0.03410513f, 0.05969216f, 0.22829087f, 0.00560001f, 0.08315121f, 0.73445445f, 0.91848338f,
        -0.54747450f, 0.17113414f, -1.06224549f, 0.00396202f, -0.12193468f, -0.20420760f, 0.18261896f, 0.31306836f,
        -0.17618108f, 0.57460904f, 0.59660298f, -0.41519478f, -0.41818467f, -0.53776532f, -0.03425000f, 0.14284900f,
        0.30422202f, 0.05367818f, -0.28795132f, 0.16157097f, 1.06332898f, -0.99513227f, 0.00595169f, -0.76538688f,
        1.03015471f, -0.12784348f, -0.09799767f, -0.03933180f, 0.33332708f, -0.36346135f, -0.06087930f, -0.18778375f,
        -0.22351786f, 0.34159386f, -0.10702977f, -0.19138604f, 0.21981424f, 0.55553734f, 0.17944789f, -0.25580865f,
        0.11132766f, -0.04274113f, 0.21128565f, 0.34975395f, 0.59664905f, -0.37504455f, -1.31524491f, -0.16665068f,
        -0.46087340f, 0.02360487f, -0.76466435f, -0.01927817f, 0.25774238f, 0.25197884f, -0.03912344f, -0.13366508f,
        0.03700028f, -1.22522962f, -0.28387973f, 0.45382321f, -0.46708062f, 0.37740621f, -0.23084772f, -0.51541662f,
        -0.17744412f, -0.40382704f, -0.75993460f, 0.29916343f, 0.30683151f, -0.28739390f, 0.04642491f, -0.28424335f,
        -0.13825879f, -0.06075501f, 0.12485458f, 0.28462037f, 0.22523892f, -0.16499759f, -0.49954435f, -0.28723970f,
        0.20112836f, -0.15212756f, 0.62677008f, -0.36202309f, -0.01975320f, -0.10691275f, -1.78643203f, -0.37027887f,
        0.34900802f, -1.34514689f, 0.78479385f, 0.68284369f, -0.16551413f, 0.22142977f, 0.01164870f, -0.79751623f,
        -0.02284270f, 0.43721840f, -0.73563367f, 0.13479009f, -0.10049286f, 0.03391413f, -0.34215137f, 0.09232624f,
        0.40929362f, -0.38862461f, -0.37987334f, -0.18183614f, 0.30758563f, -0.65942121f, -1.24891233f, 2.35588121f,
        1.32660961f, 0.75824732f, 0.54604971f, 0.47842315f, -0.43542790f, -0.48354885f, 0.35403916f, -0.23863342f,
        -0.75427610f, 1.04105008f, 0.39106983f, -0.33270010f, -0.15707892f, -0.81003898f, -0.54881889f, 0.90182376f,
        0.14630900f, 0.27094856f, 0.68258315f, 1.47899735f, -0.05518925f, 0.30046982f, -0.54787582f, -0.26506427f,
        -0.50910604f, -0.49845383f, -0.04439293f, 0.15438671f, -0.87474424f, 0.29397979f, 0.23609337f, 0.45201120f,
        0.15274698f, -0.13781825f, -0.19206019f, 0.24538754f, -0.15118913f, 0.25939050f, -0.25297290f, 0.03411774f,
        4.20472574f, 0.22840276f, -0.14012106f, 0.71930629f, 0.27924651f, 0.68578428f, 0.18091899f, 0.70104331f,
        0.12348263f, 0.00473157f, 0.01740851f, 0.14232489f, -0.38556081f, 0.03629016f, 0.32779244f, -0.79671484f,
        -0.04664125f, 0.30667743f, -0.24470322f, 0.10395496f, 0.15230553f, -0.17429703f, -0.09609938f, -0.18876942f,
        -1.41755569f, -1.07582366f, 0.16593716f, 0.21053435f, 0.08056850f, -0.41402245f, -0.01059089f, 0.18286718f,
        -0.02591118f, 0.00074978f, 0.28961340f, 0.37360013f, -0.02800323f, 0.10028575f, -0.93840224f, 0.01677035f,
        0.40022984f, -0.17245260f, -0.02390449f, -0.03755473f, -1.14498341f, -0.08905462f, 0.29974604f, 0.91060251f,
        -1.12428331f, -0.63974267f, -0.30954209f, -0.29987451f, 0.02214378f, 0.21520589f, -0.74560177f, 0.01086431f,
        -0.06704878f, -0.05040335f, -0.09107541f, -0.22785325f, -0.67263693f, -0.03998852f, 0.22269005f, 0.04788351f,
        -0.21267156f, -0.26525173f, -1.05933785f, -0.02806372f, -0.66926169f, 0.58773810f, -0.28285888f, 0.20710033f,
        0.03224611f, -0.63761169f, 2.84368873f, 2.45584345f, 0.03450494f, 0.02000000f};
    constexpr size_t kMatchlessWeightsCount = sizeof(kMatchlessWeights) / sizeof(float);

    // Twin Reverb
    constexpr float kTwinReverbWeights[] = {
        -0.39104033f, 0.62278712f, -0.86543089f, -0.25466141f, 0.29576269f, 0.57678407f, -0.05556986f, -0.00788659f,
        -1.03065133f, -0.47709188f, 0.07890807f, 0.71907055f, 0.09414590f, -0.38566238f, -0.18652141f, -0.05891180f,
        0.07426371f, 0.50235260f, -0.67933095f, -0.58297938f, 0.42522958f, 0.73202366f, -0.02441551f, 0.49196351f,
        0.72686172f, -0.14462018f, 0.09935424f, -0.43015477f, 0.00304564f, 0.16560660f, 0.08145666f, 0.17122583f,
        -0.30285943f, -0.33474714f, -0.30036846f, -0.43888274f, -0.21532613f, 0.38760021f, 0.38845026f, 0.86540627f,
        -0.07514005f, -0.47242504f, 0.06357035f, -0.52795392f, -0.39406216f, -0.39110050f, -0.04462931f, 0.40858102f,
        -0.37316996f, 0.17530726f, -0.29720640f, 0.05900796f, 0.09098910f, -0.37169188f, 0.06302584f, -0.98892021f,
        1.11453354f, 0.22783302f, -0.18254581f, -0.07403307f, 1.04745817f, 0.42862514f, -0.66264337f, 0.71589929f,
        0.46537590f, 0.00717294f, 0.08219521f, 0.13688827f, -0.13384517f, 1.43114913f, -0.21983603f, -0.29877314f,
        0.69682288f, -0.16470668f, 1.05976510f, -0.21715838f, 0.58603823f, -0.64288896f, -0.45201340f, 0.52457958f,
        -0.01550793f, 0.32428160f, 0.14512648f, -0.52888614f, 1.82788432f, -0.54855841f, 0.07047663f, -0.49452168f,
        0.36283442f, -0.46006647f, 0.34943780f, 0.10974588f, 0.64374828f, -0.17902957f, -0.34410474f, -0.05962324f,
        0.33886722f, 0.31149036f, -1.13094425f, -0.31509531f, 0.00920675f, -0.11615109f, -0.24139351f, -0.32373923f,
        -0.89434290f, -0.83287990f, -0.24755391f, -0.73924994f, -0.60627985f, 0.51080090f, -0.15852700f, 0.37100634f,
        -0.16003485f, -0.41552347f, 0.21579282f, -0.10076821f, -0.67692894f, -0.19599541f, -0.09580978f, -0.38480768f,
        -0.74004251f, -0.13114698f, -0.24092315f, 0.10145047f, -0.36540398f, -0.16627809f, -1.90301478f, -0.88555259f,
        -0.35190564f, -1.08008468f, -0.77417117f, -0.23850793f, -0.29529661f, -0.01669811f, -0.00411411f, -0.25868824f,
        -0.39653453f, -0.65922576f, -1.27901399f, -0.01661401f, -0.01665326f, -0.14982967f, -0.51770753f, -0.02774611f,
        -0.28540218f, -0.02867253f, 0.38717416f, -0.07887533f, -1.05528259f, -1.46219563f, -0.41923428f, -0.96385807f,
        0.27802292f, 0.06466877f, 0.40809998f, -0.64823806f, 0.78905445f, -0.36875328f, 0.21897092f, -0.05738682f,
        -0.60424405f, -0.10584936f, -0.41497833f, -0.68467432f, 0.24177636f, 0.45895234f, -0.49720502f, 0.07968762f,
        0.05484286f, -0.31258816f, 0.06245618f, 0.09002715f, 0.18495615f, 0.03510220f, -0.23225118f, -0.15326086f,
        -0.60442030f, -0.51320416f, -0.00539333f, -0.98434067f, 0.04378017f, 0.02233768f, -0.09571056f, 0.43690893f,
        0.24878852f, 0.27333182f, -0.02075220f, 0.04671894f, -0.48973924f, 0.12581000f, 0.26118976f, 0.18326086f,
        0.03590763f, -0.05489537f, -0.14936496f, -0.11754964f, -0.23866248f, 0.16522960f, -0.29856148f, 0.16593370f,
        -0.17920040f, 0.15478568f, -0.37536174f, -0.45804617f, 0.16207808f, 0.20008178f, -0.35211477f, 0.64771867f,
        0.00552790f, -0.01085213f, 0.26409686f, -0.00563649f, 0.01562806f, -0.25928533f, -0.00737854f, -0.06182517f,
        -1.14382446f, 0.00967731f, 0.07852729f, -0.32113454f, -0.05126952f, 0.68688250f, 0.53086698f, -0.47734591f,
        -0.54783541f, 0.37912905f, -0.69107324f, 0.33238232f, -0.30437982f, -0.04862557f, 0.22240189f, 0.18044738f,
        0.57073438f, 0.04028000f, -0.09140509f, -0.43415752f, -0.12355059f, -1.15988398f, 0.20456564f, -0.09344219f,
        -0.17909895f, 0.07818311f, -0.46011406f, -0.03105195f, -0.28082448f, -1.04115927f, 0.55707729f, -1.07952869f,
        0.11094464f, 0.32647032f, -0.53048897f, 0.07794457f, 0.29938760f, -0.49410999f, 0.03889212f, -0.53282672f,
        -0.34511229f, 0.14279513f, -0.01758552f, -0.99233186f, 0.21256886f, 0.30226335f, 0.09929629f, 0.00446805f,
        0.30849975f, -0.57079768f, 0.56823015f, 0.82180518f, 0.27764320f, -0.30502936f, -0.30438426f, -0.00446723f,
        -0.77967709f, 0.16394818f, -0.07544235f, -0.34194210f, 0.15602526f, -0.36131671f, -0.02194424f, 0.20813946f,
        -0.21225961f, -0.56808513f, 0.72383702f, 1.29912066f, -0.22406137f, 0.31335461f, -0.07510462f, 0.72667789f,
        -0.04490276f, 1.41038752f, -1.27388000f, 0.12044474f, -0.00859652f, 0.06497690f, -0.23889211f, -0.52780706f,
        0.52093554f, -0.30922481f, -0.19647694f, -0.97294086f, -0.77680922f, -0.20015161f, -0.11165205f, -0.20340502f,
        0.21238440f, -0.20822336f, -0.16386525f, 0.32089826f, 0.01207580f, 0.16675547f, -1.10647106f, 0.91759181f,
        0.07845492f, -0.91041791f, -0.02063737f, 0.16720982f, -0.44016144f, -0.13905881f, -0.00340207f, -0.03201884f,
        0.01103755f, 0.25693551f, -0.67711085f, 0.09501746f, 0.55736721f, 0.44319993f, -0.71095747f, -0.00206551f,
        -0.32322520f, 0.01376040f, -0.07714546f, -0.61302888f, 1.18134105f, 0.43649977f, -0.91892076f, 0.53440613f,
        0.29618436f, 1.01406348f, 0.54504740f, 0.70144409f, -0.19839561f, -0.84793681f, -0.28146213f, 0.20669343f,
        -0.20664282f, 0.31573042f, -0.10493480f, -0.02939522f, -0.54874903f, -0.50797212f, -0.43263343f, 0.25962973f,
        0.66310167f, 0.27985269f, 0.82494110f, -0.18017869f, 0.14832920f, 0.18057595f, -0.88401639f, -0.54448003f,
        -0.33858988f, -0.69796699f, 0.00183646f, 0.50712043f, -0.30048418f, 0.01014449f, 0.00364696f, -0.19927801f,
        -0.62909663f, -0.34039748f, -0.53263074f, 0.02977650f, -0.26163101f, -0.73132312f, -0.91974461f, -0.17117658f,
        0.20644134f, 0.93789792f, 0.62972862f, 0.56877500f, 0.88005584f, -0.32933044f, 0.41618153f, 0.49196911f,
        0.01342363f, 0.23107484f, -0.45252669f, 0.06647056f, 0.22003466f, 0.81416488f, -0.03906301f, -0.16405831f,
        -0.33228922f, -0.04059661f, -0.03733737f, 0.42521027f, -0.04060206f, -0.15982127f, 0.30175197f, 1.87642097f,
        0.79579753f, -0.40055692f, -0.68862647f, -0.60333353f, 0.41854766f, -0.61810589f, 0.11874867f, -0.07213619f,
        -0.55277479f, -0.01092818f, 0.07877637f, -0.08646863f, 0.02031503f, -0.07955490f, -1.51685739f, -0.08492215f,
        0.14896086f, -0.01060583f, -0.14172290f, 0.58932924f, 0.06477325f, -1.04975355f, 0.47621053f, 0.28946653f,
        0.28384748f, -0.81465536f, 0.04638271f, -0.71117967f, -0.03927803f, -0.10513777f, -0.82601601f, 0.09239990f,
        0.04726808f, -0.08104105f, -0.01112733f, -0.09701056f, -0.37844524f, -0.03455879f, 0.11149514f, -0.56524682f,
        -0.58253276f, -0.32308507f, -1.30540943f, 1.43468964f, -0.66926169f, 0.58773810f, -0.28285888f, 0.20710033f,
        0.03224611f, -0.63761169f, 1.12009001f, 1.22583389f, 0.28651008f, 0.02000000f};
    constexpr size_t kTwinReverbWeightsCount = sizeof(kTwinReverbWeights) / sizeof(float);

    // Dumble Low Gain
    constexpr float kDumbleLowWeights[] = {
        -0.21672961f, 0.66807538f, -0.85418433f, -1.42165482f, 0.50070155f, 0.68611109f, 1.12928069f, -0.25371480f,
        -0.17103390f, -0.43029189f, -0.07381531f, 0.12931965f, 0.16701047f, -0.26984054f, 0.00185844f, 0.03392714f,
        -0.15406524f, 0.62696737f, -0.65265191f, 0.31865960f, 0.19387002f, 0.43479922f, 0.02157755f, 0.50952876f,
        1.06979096f, 1.68033910f, -1.08662713f, -1.30110145f, 0.44281167f, 0.41281247f, 0.58644766f, 0.73768502f,
        -0.44938084f, -0.08798795f, -0.50993544f, -0.44908929f, 0.11903826f, 0.29248291f, -1.56285155f, 0.39838010f,
        0.33976689f, 0.34509271f, 0.28765583f, -0.67097485f, -0.29656836f, -0.39970347f, -0.31013888f, 0.20272051f,
        0.29987782f, 0.47804508f, -0.02577194f, 0.05845089f, 0.02299174f, -0.16484742f, 0.37744811f, -0.93567443f,
        0.40246570f, -0.45169377f, -0.05816763f, -0.05583447f, -0.00512865f, -0.42897481f, -0.24965598f, -0.90569657f,
        0.48076859f, -0.62515491f, 0.05348602f, 0.00681295f, 0.26066762f, 0.83436286f, -0.48457167f, -0.56459320f,
        -0.23245025f, 0.73376352f, 1.23235095f, 1.21833396f, 0.49743429f, -1.23214746f, 0.36719620f, 0.26201975f,
        0.29017934f, 0.37666187f, 0.82128739f, -1.90234053f, -0.88937849f, -0.31839386f, -0.28325218f, -0.45091817f,
        0.32612985f, -0.55705780f, 0.24397317f, 1.23311794f, -0.91802216f, 0.91731811f, -0.37291458f, -0.28263706f,
        -0.60635459f, -2.53222394f, 0.91278553f, -1.13251424f, 0.48978242f, 0.48491919f, -0.18441793f, 0.51414174f,
        -1.89551270f, 0.55864620f, 0.17730990f, -1.55659485f, -1.23986030f, 0.41595545f, 0.00540035f, 0.37228379f,
        0.13349263f, -0.09388837f, 0.66760200f, 0.04504779f, -0.35122615f, 0.59997445f, -0.56980073f, -0.42522031f,
        0.24306354f, -0.11806514f, 0.13920483f, 0.01807255f, -0.06005145f, -0.04099697f, -0.23207641f, -0.08716719f,
        0.27006367f, -1.19453347f, -1.27484667f, 0.20422725f, -0.21176308f, -0.07530213f, -0.02438457f, -0.12467490f,
        0.39543819f, -0.14028689f, -0.01232872f, 0.39154750f, 0.33804351f, -0.15130591f, 0.13537624f, 0.17046478f,
        -0.34296948f, 1.10910213f, 0.12332044f, 0.05408489f, -0.29053167f, -3.22769952f, -1.34702146f, -1.00330186f,
        0.60780704f, 1.05711210f, 0.52257681f, -0.54818636f, 0.87154818f, 0.05666497f, 0.29670525f, 0.33427307f,
        -0.27628121f, -0.23915637f, -0.30965847f, -0.42040998f, -0.78447580f, -0.14252889f, -0.51666540f, 0.18550517f,
        -0.09671409f, -0.78981262f, 0.21335246f, 0.62840867f, 0.91482466f, -0.02126037f, -0.49058229f, -0.22921294f,
        0.21489029f, -0.12740725f, -0.01893209f, -0.73736000f, 0.29690573f, -0.98315108f, 1.10349488f, 0.64645630f,
        0.29173884f, 0.26717740f, -0.06781621f, 0.43611288f, -0.26731920f, -0.06082604f, 0.28464234f, 0.25965497f,
        0.04995875f, -0.34422180f, -0.35237941f, 0.04371286f, -0.16426371f, -0.03709054f, -0.04698152f, 0.12660138f,
        0.89793140f, 0.87094229f, -1.06005931f, -1.08076012f, -0.96184248f, 0.12410673f, -0.21810851f, 0.56259489f,
        0.00445005f, 0.16159281f, 0.26898089f, -0.01500023f, 0.13050298f, -0.15022054f, -0.10213010f, 0.20126724f,
        -0.81297499f, -0.12054133f, 0.21557435f, -0.40578097f, -0.01459859f, 0.32859445f, -0.32029450f, 1.76834011f,
        -0.16998802f, 0.12277602f, -0.76619184f, 0.34448224f, -0.19993284f, -0.14197312f, 0.25952375f, 0.32838845f,
        0.14877023f, 0.15639126f, 0.06133141f, -0.37677523f, -0.87927824f, -0.27287889f, 0.31394169f, -0.02528549f,
        -0.00546694f, -0.17591293f, -0.31017727f, 0.16727510f, 1.08919919f, -0.73540467f, 0.66592538f, -0.73323321f,
        -0.04897891f, 0.29135969f, -0.12533684f, 0.03603128f, 0.61493158f, -0.20101576f, 0.20021255f, -0.57008862f,
        -0.07096871f, 0.22131383f, -0.17029119f, 0.83714390f, -0.14128244f, 0.92855883f, -0.10139285f, 0.18749318f,
        0.07153152f, 0.28580949f, -0.49791625f, -1.45806980f, 1.11278546f, 0.49991366f, -0.66656953f, 0.18071337f,
        -0.36363769f, -0.06314156f, 0.11740582f, -0.13331150f, 0.13477662f, -0.54982650f, -0.01735678f, 0.42556036f,
        0.98088932f, -0.10327828f, -0.30096832f, 0.26432812f, 0.08574212f, 0.13794963f, -0.01550977f, -0.13921514f,
        0.15430081f, -0.35632527f, -0.43377510f, 0.41723365f, -0.66016489f, 0.38981485f, 0.20696498f, -0.63811612f,
        0.42839611f, 0.00211558f, -0.35071295f, 0.29234290f, -0.10237618f, -0.07837877f, -0.07807934f, 0.25557053f,
        0.44225103f, -0.15065368f, -0.98499382f, 0.11919003f, 0.19738156f, 0.54701012f, -0.11187720f, -0.31488696f,
        1.09993815f, -0.08999565f, 0.43682197f, -0.02743350f, -0.20026349f, -0.04388294f, 0.71690351f, 0.06593845f,
        -0.78335088f, 0.24472925f, -0.48364386f, 1.32527423f, 0.28885368f, -0.08079714f, 0.32224244f, 0.01824625f,
        0.39286190f, -0.20008811f, -0.09487344f, 0.05658405f, 0.91816461f, 0.01994366f, -0.28578538f, 0.43305182f,
        0.68083709f, 1.38670421f, 0.62348402f, 0.33335701f, 0.19110210f, -0.26697049f, 0.27343997f, 0.03452782f,
        -0.50498742f, 0.29177558f, 0.45422760f, 0.37297603f, -0.59382027f, 0.22831412f, -0.03277294f, 0.30715248f,
        -0.14257233f, 0.14653842f, -0.14808080f, -0.55822521f, -1.28858876f, -0.41010457f, -0.13411351f, 0.60204977f,
        -0.67501181f, -0.70219254f, -0.19728023f, 0.42768809f, 0.27057371f, -0.04518661f, 0.40542161f, 0.35975605f,
        -0.32656893f, -0.24750911f, 0.25412956f, -0.22542265f, -0.25043067f, 0.32527083f, -0.04371681f, -0.25782275f,
        0.88700879f, 0.08070732f, 0.67428023f, -0.75677305f, 0.78360945f, -1.45305240f, 0.15189986f, 0.66018391f,
        -0.28992021f, -0.37563521f, -0.19505562f, -0.18285364f, -0.38870314f, -0.25670061f, 0.05823181f, -0.38074309f,
        0.23850279f, 0.16029784f, -0.42489803f, 0.33354616f, 0.43840227f, -0.05850613f, -0.56075197f, 0.14193115f,
        0.59782833f, -1.02427197f, 1.00324512f, -0.14769441f, 0.11585787f, -0.33355433f, -0.01241644f, -0.27879485f,
        -0.26538420f, 0.03969859f, -0.62917352f, -0.11119858f, -0.23609224f, -0.68185872f, -0.56998736f, -0.15092729f,
        -1.00263882f, 0.58487988f, 0.05223455f, 1.09947026f, -0.01332723f, -0.16795127f, -0.32656822f, 0.84170341f,
        0.67666489f, -0.56198525f, -0.12301889f, -0.20444006f, 0.14319517f, 0.42004302f, -0.08720978f, 0.13083437f,
        -0.01226265f, 0.61060923f, 0.00332873f, -0.08119990f, -0.86245978f, -0.02358975f, 0.40754068f, 0.14557137f,
        -0.24613249f, -0.14392090f, -0.29232946f, -0.05591170f, -0.66926169f, 0.58773810f, -0.28285888f, 0.20710033f,
        0.03224611f, -0.63761169f, 3.28192139f, 3.24772549f, 0.86630386f, 0.02000000f};
    constexpr size_t kDumbleLowWeightsCount = sizeof(kDumbleLowWeights) / sizeof(float);

    // Dumble High Gain
    constexpr float kDumbleHighWeights[] = {
        -0.67690295f, 0.66024733f, -0.57964963f, -1.14274108f, 0.21598037f, 0.35398680f, 0.75494707f, 0.03947765f,
        -0.24745023f, -0.91322476f, -0.00772929f, 0.11480403f, 0.49784312f, -0.33044249f, -0.26585588f, -0.10380408f,
        0.13981788f, 0.56876522f, -0.91409445f, -0.77610397f, 0.46166840f, 0.71898484f, -0.01535160f, 0.51376164f,
        -0.71782726f, 0.17940578f, 0.40874800f, 0.64470899f, 0.20546709f, 0.39389300f, 0.20390590f, 0.85693157f,
        0.08799949f, -0.24445800f, -0.37955081f, -0.42381021f, 0.18251404f, 0.47028521f, 0.31746003f, -0.25257897f,
        0.23001559f, -0.36009192f, 0.24750969f, -0.96362823f, -0.42557046f, -0.25510865f, -0.08881562f, -0.33571938f,
        -0.32591695f, -1.18372595f, 0.61485845f, 0.84630698f, 0.75877202f, -0.37679657f, -0.07729806f, -0.00507912f,
        -0.30904794f, 0.04794407f, -0.17505231f, 0.26548392f, 1.35705292f, 0.24964118f, -0.50643486f, 1.36242652f,
        0.51069331f, 0.09470630f, -0.11468131f, 0.28673336f, -0.42304298f, 0.24214008f, 0.47923422f, 0.34394994f,
        0.47827581f, -0.16345663f, 1.59206557f, 0.51353306f, -0.45916808f, -1.97007048f, 0.33813223f, -0.14030944f,
        -0.23870972f, 0.07006956f, 0.73933101f, -2.79873085f, -0.31762832f, -0.60028452f, 0.91958493f, -0.29845983f,
        0.24807410f, -0.27996513f, -0.14221022f, 1.11382544f, -0.53526932f, 0.69900388f, -0.89452219f, -0.47695059f,
        -0.17088132f, 0.75443399f, -0.24067332f, 0.53777570f, 0.43175977f, -0.10561998f, -0.08660419f, 0.03630256f,
        0.36542034f, 2.56946206f, -0.86371011f, -0.41982204f, 0.12109514f, 1.06890845f, -0.29876986f, 0.58125126f,
        0.13398439f, 0.14914885f, 0.40750358f, 0.34296116f, 0.02033209f, -0.54203063f, 0.30156016f, 0.07806447f,
        -0.15253098f, 0.04086008f, 0.49155822f, -0.22393815f, -0.68771601f, -0.12298983f, -1.09568763f, 0.84158123f,
        -0.34943166f, -0.70484686f, 0.89959270f, 0.43553966f, -0.45986724f, 0.00955876f, 0.06744618f, -0.03729359f,
        -0.22567697f, 0.18799284f, 0.21991184f, 0.13322921f, 0.32105350f, 0.70348620f, 2.17092419f, 0.01005698f,
        -0.76372677f, -0.38599628f, -0.22877167f, -0.26737607f, -1.12107825f, 0.63081247f, -1.00156951f, -0.22822160f,
        -0.25701779f, 1.00152099f, 0.63595533f, -0.41619781f, 0.39658153f, -0.14474520f, -0.17956814f, 0.17178252f,
        -0.19186775f, -0.15919824f, -0.77646786f, -0.50251019f, -0.00184838f, -0.50834531f, -0.26191083f, -0.00530821f,
        0.14724283f, -0.30914235f, 0.27445659f, -1.95567882f, 0.52183318f, -0.26317447f, -3.54308248f, -0.15909913f,
        0.12418676f, -0.05585821f, 0.38480026f, 0.43080062f, -0.26156956f, -0.24642235f, 0.72109979f, 0.09440425f,
        0.34975284f, 0.06159271f, -0.27102387f, 0.45639804f, 0.22196262f, 0.12284198f, -0.15628409f, 0.54700339f,
        0.28742874f, -0.08696866f, -0.27888912f, -0.11302598f, -0.05528115f, -0.11690053f, -0.09918389f, -0.04742269f,
        -0.36256149f, -0.09438724f, -0.82975829f, -0.06164613f, -1.20883489f, 0.85626805f, -0.17211355f, 0.31332061f,
        -0.02489530f, 0.01806852f, 0.63145292f, -0.01989098f, -0.00013187f, 0.09853632f, -0.07230021f, 0.10577413f,
        -0.20973119f, -0.03789684f, -0.03282104f, -0.45645013f, 0.07590237f, 0.65040112f, 0.53385180f, -0.68657339f,
        -0.42958277f, 0.73478252f, -2.10074854f, 1.39167118f, -0.16600053f, -0.15445393f, 0.52519071f, 0.06297591f,
        0.29167172f, 0.15876800f, -0.23200843f, -0.11673397f, -0.08898436f, -1.25687861f, 0.05170287f, 0.54120058f,
        -0.01582494f, 0.20217961f, -0.11707479f, 0.03497017f, -0.04420707f, -1.34696043f, -0.60423863f, -0.59730804f,
        -0.49010605f, -0.21880321f, -0.13883026f, 0.04590977f, -0.01954386f, -0.08132805f, 0.27440172f, -0.37433720f,
        0.17726237f, 0.11098450f, -1.89129245f, -0.62073326f, 0.00887426f, -0.07238878f, -0.15937838f, 0.41954169f,
        0.16717374f, 0.02568251f, -0.34517589f, 1.84815645f, 0.52441192f, -0.21862718f, -0.55827916f, -0.53394431f,
        -0.38880512f, 0.51533985f, -0.10217017f, -1.32788229f, -0.10232920f, 0.48441157f, -0.36409697f, -0.52471262f,
        0.92465919f, -0.53070277f, 0.31604359f, 0.23835729f, 0.05482091f, -0.26913950f, -0.54263550f, 0.17786726f,
        -0.98261392f, 0.87058276f, -0.42161861f, 0.89526230f, -0.14593069f, -0.47664002f, -0.11956473f, -0.39844012f,
        0.21651314f, 0.07264020f, -0.23662843f, 0.02156036f, 0.18324575f, -0.59200484f, -0.32060051f, 0.21037674f,
        0.85338318f, 0.09609415f, 0.09586145f, -0.69002271f, 0.00969710f, -0.46842861f, 0.02043370f, -0.71255064f,
        -0.10655244f, -0.44032359f, 1.81898391f, 0.43995360f, -0.37975669f, 0.02275899f, 0.50760847f, 0.77979863f,
        -0.11499060f, -0.14955042f, 0.37208554f, -0.98279279f, 0.19877645f, 0.01231280f, -0.10878058f, 0.37301791f,
        0.07968481f, -0.37832555f, -0.04750277f, -0.02528961f, -0.97203189f, -0.43588814f, -0.00833168f, 0.61338878f,
        0.14675415f, 1.16721201f, 0.41279823f, 0.60799384f, 0.16992834f, -0.00354326f, 0.25440621f, 0.31815970f,
        -0.02978666f, 0.43757445f, 0.33877507f, 0.06153249f, -1.03130078f, 0.40971097f, 0.12376695f, 1.42445159f,
        -0.66487652f, 0.40606648f, -0.05835417f, 1.15721035f, -1.91443515f, 0.33797699f, -0.25451577f, -0.23126338f,
        -0.52116328f, -0.28977185f, 0.09692589f, 0.14213176f, -0.11576058f, 0.16972524f, 0.26133898f, -0.24097663f,
        0.25011891f, 0.48711368f, 1.09958553f, 0.30254734f, 0.81188470f, 0.93261510f, -0.13486691f, -1.00638616f,
        0.09644371f, -0.57265425f, 2.00440264f, 0.75086570f, 2.09873867f, 0.07803082f, 0.65196401f, 0.56011194f,
        -0.11474188f, -0.07857426f, 0.01379930f, -0.49022797f, -0.28923938f, -0.22022814f, -0.25942105f, 0.27527821f,
        0.09983916f, -0.35874930f, 0.71016830f, -0.31742075f, 0.08550920f, -0.09894557f, 0.47453877f, 1.17591059f,
        0.92211425f, -0.60430533f, -1.88502204f, 0.64264691f, 0.80234081f, -0.86326218f, -0.05220485f, -0.11211309f,
        -0.00832937f, 0.25546533f, -0.57789987f, -0.12333654f, 0.12440894f, -0.33562395f, 0.15267041f, 0.44632086f,
        -0.56639439f, 0.62959993f, 0.13916300f, 0.14924788f, -0.07232957f, -0.10407142f, 1.87931085f, -0.14976329f,
        0.92846060f, -0.12744339f, 0.44407067f, -0.40331277f, 0.06633744f, 0.33274630f, -0.06404962f, -0.03837120f,
        0.94881988f, 0.07915346f, -0.00454925f, -0.03337666f, 0.63382167f, 0.01439644f, 0.11625344f, -0.82668990f,
        -0.06654249f, 0.41624472f, -1.88716578f, -0.11842807f, -0.66926169f, 0.58773810f, -0.28285888f, 0.20710033f,
        0.03224611f, -0.63761169f, 3.47249627f, 3.37454009f, 0.69988608f, 0.02000000f};
    constexpr size_t kDumbleHighWeightsCount = sizeof(kDumbleHighWeights) / sizeof(float);

    // Ethos Lead
    constexpr float kEthosLeadWeights[] = {
        -0.56266844f, 0.67828184f, 0.36572331f, -1.11769128f, -0.39702612f, -0.52008957f, 0.78276765f, 0.59087628f,
        0.21028028f, -1.13182771f, -0.57162642f, -0.30213895f, 0.76703888f, 0.18643710f, -0.06862163f, 0.00877999f,
        0.69067359f, 1.08400166f, -0.82191128f, -0.60496700f, 0.35273516f, 0.56986576f, 0.11683160f, 0.39689514f,
        0.28912112f, 0.91014421f, 1.89937150f, -0.40482092f, -0.55022639f, -0.79459345f, -0.21471529f, 0.85432792f,
        0.19861421f, -0.21878432f, -0.91831076f, -0.94972610f, 0.11940550f, 0.29035997f, -0.93438500f, 0.18453188f,
        0.08870196f, -0.54727507f, 0.32206362f, -0.62775892f, -0.42035401f, -0.41333938f, -0.66624540f, 0.57322884f,
        0.43673244f, 0.29618716f, 0.34922430f, -0.09208003f, 0.26250660f, 0.17643595f, -0.26710442f, -0.26089585f,
        -0.52198005f, 0.26322567f, -0.19404671f, 0.00824441f, 0.15954877f, 1.03845096f, -1.19977319f, 1.26037860f,
        0.79590583f, 1.14001572f, -0.00461545f, 0.22176136f, 0.36648142f, 1.22485662f, -0.50041085f, -0.83275044f,
        0.52768213f, 0.59660959f, 0.30145091f, 1.07216668f, -0.15374009f, -0.15392499f, 0.37398338f, 0.02003394f,
        0.11795484f, 0.19475821f, 1.27404308f, -0.28983095f, -0.57650769f, -0.40602657f, -0.00608739f, -0.73179615f,
        0.40924257f, -0.46442348f, -0.26271501f, 0.37246835f, -0.14909813f, 0.54935223f, -0.57574886f, -0.23949152f,
        -0.07662181f, -0.12462014f, -0.97837007f, 0.01013496f, 0.20947029f, 0.28233090f, -0.26805648f, 0.23501445f,
        -1.24383330f, 0.47040027f, -0.42545772f, -0.74394161f, -0.18236329f, 0.46043357f, -0.12685683f, 0.25859141f,
        -0.29762283f, 0.17352171f, -0.40003616f, -0.63258290f, -0.30626729f, 0.01412384f, 0.32095468f, 0.01419874f,
        -0.28488123f, 0.01906263f, -0.37715349f, 0.04975975f, -0.03018400f, -0.08404911f, -0.02944859f, -0.46730012f,
        -0.59629726f, -0.97083306f, -0.05913451f, 1.04454720f, -0.38983309f, 0.19209403f, -0.18625280f, -0.25583860f,
        -1.32768106f, -0.07789081f, 0.20624605f, 0.11929242f, 0.62963521f, 1.46962941f, -0.01789886f, 0.73437697f,
        -0.78562433f, 0.06617364f, -0.09090235f, 0.07049508f, -0.86840576f, 1.26444054f, -1.28462112f, -0.24968043f,
        0.61662656f, -1.35558033f, 0.39390582f, -0.17208126f, 0.31828943f, -0.11724181f, -0.35118440f, 0.21490756f,
        0.19395597f, -0.06531400f, -0.26822600f, -0.06114274f, -0.36007503f, 0.15880619f, -0.21380669f, -0.27153790f,
        -0.47254711f, -0.33104706f, -0.17316371f, -0.70624107f, 0.87741452f, -0.13657570f, -0.34761316f, -0.58085698f,
        0.03506176f, -0.12995462f, 0.81308508f, -0.88259482f, 0.02127768f, 0.56662244f, 0.31122735f, 0.34503451f,
        0.15084548f, 0.16336541f, -0.02603270f, 0.04675949f, 0.47586587f, -0.03518066f, 0.06740925f, -0.54640675f,
        -0.00822964f, -0.06885138f, -1.22872353f, 0.01843767f, -0.12833574f, 0.71801949f, 0.10051133f, 0.29788876f,
        -0.56159389f, 1.92813754f, -1.04323733f, -0.50925225f, -0.25250155f, 0.94085801f, -0.05760872f, 0.44278723f,
        -0.03823002f, 0.03932754f, -0.79738170f, -0.02157274f, -0.01209743f, 0.44603193f, 0.03703690f, 0.02625317f,
        0.55115277f, 0.02279306f, 0.02520738f, -0.33890119f, -0.14037153f, -0.48494342f, 0.97628772f, -0.74439353f,
        -0.65289259f, -0.67630917f, -0.18434648f, 0.17977439f, -0.01757811f, -0.21397999f, 0.12830503f, 0.37341553f,
        0.21790734f, 0.54243624f, 0.46864682f, -0.13413857f, -0.19583423f, -0.64088821f, 0.12545514f, 0.54237360f,
        0.27142134f, 0.11601391f, -0.25757360f, -0.04624908f, 0.93741727f, -2.49498487f, 0.74078101f, -0.89521354f,
        -0.03313893f, 0.56391561f, -0.10856514f, 0.00916240f, -0.07924201f, -0.14303070f, -0.77795839f, 0.29358277f,
        -0.77172410f, 0.20550239f, 0.23372406f, -0.56348199f, 0.27952969f, 0.56643414f, 0.70067722f, 0.00205269f,
        0.30452177f, -0.30129653f, 0.25733364f, 0.83658600f, 0.63648593f, 0.05890863f, -0.50061959f, -0.48261538f,
        -0.26027387f, 0.11722340f, -0.30926603f, -0.85609245f, 0.25558382f, 0.55631363f, -0.18836853f, 0.35683444f,
        0.10122935f, -0.74272507f, -0.80629510f, 0.15189824f, 0.45204729f, -0.42303142f, -0.29623625f, -0.11202385f,
        -0.33728585f, -0.80086923f, -0.66953462f, -0.06476247f, -0.15567072f, 0.06840355f, 0.00364106f, -0.33937559f,
        0.27873820f, 0.18959446f, -0.24985202f, 0.35613900f, 0.24419744f, -0.29645264f, 0.14351781f, -0.34444943f,
        0.06961925f, 0.01035796f, -0.32966655f, 0.22121060f, 0.03596833f, 0.00949929f, -0.78022492f, -0.03668366f,
        0.72562116f, -0.46996295f, 1.30165410f, -0.84502113f, -0.04315257f, 0.08239783f, 0.21008910f, 0.20315340f,
        0.77231497f, 0.23336080f, 0.13853721f, 0.33408302f, 0.10469837f, 0.18789363f, -0.10157827f, 0.14086239f,
        0.16067697f, -0.32752910f, -0.01271751f, 0.03355157f, 0.43464860f, 0.25436652f, -0.32317010f, 0.31261200f,
        -0.25019738f, 2.40346599f, 0.59027445f, 0.44440928f, -0.00905062f, 0.32433695f, -0.01549922f, -0.03059109f,
        0.38855129f, -0.21132614f, 0.13766509f, 0.05138939f, -0.60448736f, 0.33309963f, 0.12515920f, 0.20886816f,
        -0.30794024f, -0.19307375f, 0.56978554f, -0.58417934f, 0.67346877f, 0.98236060f, 0.51624578f, 0.59988952f,
        -0.38259661f, -0.66767281f, -0.60367113f, 0.30184191f, 0.59813631f, -0.13148497f, 0.55778068f, -0.01185113f,
        -0.54474545f, 0.58649904f, 0.38861367f, -0.27620810f, -0.56480515f, 0.32108572f, -0.10087003f, -0.11956581f,
        0.72926420f, -0.41959211f, 0.48749954f, 0.37539405f, -0.63461763f, -0.41865948f, 0.34982264f, 0.59161979f,
        -0.12363552f, -0.21661697f, 0.20584211f, -0.12853846f, -0.12476467f, 0.13394982f, -0.29352853f, -0.35086945f,
        0.23805022f, -0.04458735f, 0.05321738f, 0.42357501f, 0.16053805f, -0.10624103f, 0.70209575f, -1.76199841f,
        -1.42514336f, -1.23684156f, -0.30646199f, 1.06746519f, 0.08638152f, -0.43851632f, 0.16808277f, -0.37288058f,
        0.01625040f, 0.21207531f, -0.29834846f, 0.11136514f, 0.52297354f, -0.32975468f, 0.01678633f, 0.28126523f,
        0.16931430f, 0.59016705f, 0.21386395f, -0.37480900f, 0.82189536f, 0.49571624f, -0.32656929f, -0.45519820f,
        0.30801609f, -0.68176174f, -0.09413449f, -0.24396333f, 0.02115927f, 0.19514929f, 0.10309157f, 0.02922016f,
        0.13197769f, 0.52692544f, -0.02753158f, 0.00267210f, 0.66906816f, -0.04409429f, -0.01882328f, 0.42156371f,
        -0.13890676f, -0.20174569f, -1.07916641f, 1.17371500f, -0.66926169f, 0.58773810f, -0.28285888f, 0.20710033f,
        0.03224611f, -0.63761169f, 2.67414594f, 2.40138817f, 0.10374881f, 0.02000000f};
    constexpr size_t kEthosLeadWeightsCount = sizeof(kEthosLeadWeights) / sizeof(float);

    // JCM800
    constexpr float kJcm800Weights[] = {
        -0.97832042f, 0.72355908f, -0.40354776f, -0.79815441f, 0.84436405f, 0.13484646f, 0.40923420f, -0.32738641f,
        -1.42932367f, -0.72279966f, 0.50684792f, 0.98496258f, 0.20582901f, -0.59360522f, -0.40709722f, 0.13616642f,
        -0.24530411f, 0.29900271f, -1.17340219f, -1.41799545f, 0.61633456f, 1.05681896f, 0.15168709f, 0.40404645f,
        1.07413590f, -0.96578020f, -0.36380035f, -0.93022251f, 0.39045680f, 0.37166017f, -1.07245386f, 0.85127652f,
        -0.06303293f, 0.27839994f, -0.60721719f, -0.48787907f, -0.24898940f, 0.43457258f, 1.18010783f, 0.80754101f,
        0.78695923f, -0.52588314f, 0.60761797f, -1.62589908f, -0.01107406f, -0.51006591f, 1.11324608f, -0.12889028f,
        -0.05314538f, -0.45041755f, -0.49602216f, 0.99364340f, -0.56103778f, -0.95920414f, 0.42438444f, -1.04063129f,
        -0.60885030f, 0.10854869f, -0.02322948f, 0.25184160f, 0.61649960f, -0.13754971f, -1.28289700f, -0.47570118f,
        1.04872823f, 0.27045044f, 0.12955059f, 0.22742698f, -0.26591969f, -0.26490852f, -0.05017797f, -0.45372975f,
        1.84531772f, 0.17976455f, 1.13143063f, 0.31993830f, 0.82621104f, -2.36535215f, 0.02228509f, 0.44874203f,
        -0.37556720f, 0.29177156f, -1.29668820f, -0.71014327f, 0.09474617f, -1.20563495f, -0.45038718f, -0.73205894f,
        0.27784938f, -0.16115752f, 0.08501024f, 0.47130397f, 0.25043106f, -0.04978707f, -0.66344267f, -0.14292063f,
        0.60601586f, 0.43823305f, 0.40094593f, -0.39068896f, 0.18642463f, -0.50483716f, -0.31833899f, -0.20675990f,
        0.65735519f, 4.08661652f, -1.49691200f, -0.38561273f, 0.73592240f, 1.82062519f, -0.12761624f, 0.36755243f,
        0.18832754f, 0.09544992f, -1.03435493f, -0.48730183f, -0.10299026f, -1.37977958f, -0.25029227f, -0.27636507f,
        -0.00036098f, 0.01381306f, 0.42504069f, -0.19817588f, 0.05008924f, 0.02333072f, -2.70385909f, 1.28932023f,
        -0.18528134f, -0.35954291f, 0.18836892f, 1.17558241f, -0.37253910f, 0.11146344f, 0.02582114f, 0.02543397f,
        -0.10914740f, 0.07946899f, 0.28401315f, 0.41065359f, 0.27213988f, -0.01722443f, -0.28879803f, 0.12405001f,
        0.03846921f, -0.20737560f, 0.15964626f, 0.03880643f, -1.14885211f, 0.31240678f, -1.12327647f, -1.26222920f,
        -0.12830570f, -0.20248421f, 0.47628754f, -0.56825745f, 0.33714908f, -0.10722918f, -0.27139923f, 0.30440420f,
        -0.51145673f, -0.23602544f, -1.00688946f, -0.68572205f, -0.52921319f, -0.08703512f, -0.60337186f, 0.18000665f,
        -0.34734961f, -0.35462669f, 0.19132486f, 0.95837426f, 0.13754451f, -0.06902415f, -0.17438318f, 0.38775915f,
        -0.00594708f, -0.39688444f, -1.12284505f, 0.51921892f, -0.25835922f, 0.44543761f, -0.76234454f, 0.74595988f,
        0.17411464f, 0.18167168f, -0.39764327f, -0.00876776f, -1.22825658f, 0.03152164f, 0.44874966f, -0.90955371f,
        -0.19113514f, 0.07392231f, -1.21326983f, 0.02192589f, -0.15229692f, -0.49048451f, 0.16359313f, 0.11230148f,
        1.91558945f, -1.14735234f, -0.07372751f, -0.58760053f, -0.08721306f, -0.65521890f, -0.23247829f, 0.41506085f,
        0.17621587f, 0.15660137f, -0.50057918f, -0.09296167f, 0.14682749f, -0.41759264f, 0.04659608f, 0.02074067f,
        -0.76469755f, -0.01691883f, 0.05875873f, -0.79746664f, 0.14507608f, 0.40022361f, -0.10423186f, 1.34267628f,
        -0.20056593f, 0.35185644f, -0.23361722f, 0.33335307f, -0.20089136f, -0.17910635f, -1.55432451f, -0.64654201f,
        -0.15807860f, -0.31341055f, -0.02794904f, -0.01820631f, -0.04821429f, -0.32239342f, -0.06391920f, -0.05237518f,
        -0.12547980f, 0.01313868f, -0.08877328f, 0.15091902f, -1.89867330f, -1.39771330f, 0.13749166f, -1.72567809f,
        0.27144104f, -0.99085021f, -0.28542790f, -0.03830500f, 0.48503828f, -0.31700650f, 0.05105184f, -0.28952259f,
        -0.98542613f, 0.50242299f, -0.52067053f, -0.19466043f, -0.38412362f, 0.25910050f, 0.12673578f, 0.67626089f,
        0.17587177f, -0.18414162f, 0.22541693f, 1.20817232f, -0.24569736f, -0.69944686f, -0.56695294f, -0.73624551f,
        -0.53015196f, 0.11339670f, 0.11530347f, -0.24492547f, 0.04585083f, -0.22100019f, -0.86223942f, 0.22489241f,
        -0.27166015f, -0.13038610f, -1.33427656f, 0.12168448f, -0.67657894f, 0.01503718f, 0.03808534f, 0.42217585f,
        0.58573246f, -1.66641223f, -0.01695125f, -0.07317506f, 0.46022871f, -0.12540208f, 0.01870075f, -0.39486781f,
        0.21123658f, -0.14491478f, 0.16336301f, -0.07348880f, -0.18352158f, -0.69725144f, -0.05623277f, -0.31497526f,
        0.01975837f, -0.05467468f, 0.16941279f, -0.13010809f, 0.15707254f, -0.92645013f, 5.18334007f, -0.03610339f,
        0.18775304f, -0.70788562f, 0.66353285f, 1.03105843f, -0.23737787f, -0.05407315f, 0.06765047f, -0.20139588f,
        -0.22359185f, -0.04894530f, 0.03039058f, 0.01738716f, -0.21568221f, -0.17570889f, -0.15851475f, 0.23912741f,
        0.39212981f, -0.03232912f, 0.57133627f, -0.16534023f, -0.19545075f, 0.41481879f, -1.24331355f, -0.92498714f,
        0.66351187f, 0.54828972f, 0.92356825f, 0.68324244f, 0.06928831f, -0.08402771f, -0.92375064f, -0.34495094f,
        -0.53903216f, -0.08749716f, 0.18541749f, 0.21247862f, -0.46412057f, -0.19995016f, -0.30028206f, 0.58524901f,
        -0.24556695f, 0.07934478f, 0.00466743f, -0.66422141f, 0.23625463f, -0.10831126f, 0.49970528f, -1.49924159f,
        -0.03519565f, -0.37923694f, 0.28467184f, -0.24866123f, -0.37307906f, -0.38254514f, 0.08496282f, -1.12000287f,
        0.12322060f, 0.42468566f, -0.64439613f, -0.36864153f, -1.07601976f, -1.57846534f, -0.53956735f, -0.30710781f,
        1.43730521f, 1.21722877f, -0.07140828f, 0.45021558f, 0.68693119f, -0.32826903f, 0.59259075f, 0.69680804f,
        0.08675269f, 0.39262560f, -1.06057525f, -0.17708392f, -0.57766467f, 0.27021569f, 0.16004169f, 0.22597472f,
        0.12338154f, -0.20924491f, -0.36588416f, 0.55829978f, -0.05617983f, -0.35553518f, -1.89908290f, -0.66634321f,
        0.00961253f, -1.30780542f, -1.27212417f, -0.49280477f, 0.73870331f, -0.52496916f, 0.07217553f, -0.01824063f,
        -1.62994754f, -0.07484104f, 0.01841659f, 0.62104785f, -0.00275375f, -0.28984976f, -1.10167205f, 0.00410764f,
        0.17939366f, -0.14757426f, -0.12328590f, 0.20088147f, -1.53114295f, 1.62400758f, -0.79265952f, 0.52733976f,
        0.81124705f, 1.42514944f, 0.33617920f, -1.05033970f, -0.00787458f, -0.03906902f, -0.42937613f, 0.04332886f,
        0.12211940f, 1.36900020f, -0.00351632f, 0.01443625f, -1.33115983f, -0.06383207f, -0.00441501f, -1.29580927f,
        -0.90379727f, -0.51719058f, 1.95335484f, -0.51724088f, -0.66926169f, 0.58773810f, -0.28285888f, 0.20710033f,
        0.03224611f, -0.63761169f, 1.47497046f, 1.77967942f, -0.31688237f, 0.02000000f};
    constexpr size_t kJcm800WeightsCount = sizeof(kJcm800Weights) / sizeof(float);

    // Mesa Mark III
    constexpr float kMesaWeights[] = {
        -0.11427420f, 0.82617825f, -0.53208160f, -0.80926895f, 0.39325920f, 0.37025335f, 0.56331944f, -0.16291542f,
        -0.32463863f, -0.81162322f, 0.05005663f, 0.24308079f, 0.58837986f, -0.39217144f, -0.19343764f, -0.00440621f,
        -0.03721064f, 0.51618558f, -0.57181513f, 0.26174796f, 0.51046616f, 0.86021620f, 0.02154905f, 0.50564480f,
        0.19335140f, 0.30143043f, 0.39685047f, -0.44719112f, -0.29186466f, 0.07451091f, 0.02712182f, 0.63309556f,
        -0.24940300f, -0.33073577f, -0.49634951f, -0.42668486f, -0.24034864f, 0.38748387f, 0.42227268f, 0.65154105f,
        -0.01382367f, -0.15700462f, -0.14641017f, -1.15411484f, -0.30005026f, -0.35417986f, 0.01797721f, -0.09248150f,
        -0.01071122f, 0.18497854f, 0.28755671f, 0.00192247f, 0.32702273f, 0.02915635f, -0.25209004f, -0.58131421f,
        -0.36287320f, 0.37564123f, -0.20953433f, -0.03383975f, -0.60131800f, 1.88525927f, -0.98106259f, 1.00265074f,
        0.40312067f, 1.05670524f, 0.20658746f, 0.14279540f, 0.85174060f, 0.65593129f, -0.48673561f, -0.59306425f,
        0.47276717f, 0.52037376f, 0.01980338f, 0.48916712f, -0.11674150f, -0.16893809f, 0.44269127f, -0.40445191f,
        -0.08652488f, 0.45345214f, 0.07144575f, -1.59600067f, -1.10717189f, -0.32603925f, 0.87106645f, -0.20750877f,
        0.20479052f, -0.37586215f, -0.09094162f, 0.39848956f, -0.28053573f, 0.14264239f, -0.65035570f, 0.08015718f,
        0.31003505f, 0.49314436f, -1.00506675f, -0.56799370f, -0.09361535f, 0.59520483f, -0.28164095f, -0.05218272f,
        -0.23815006f, 0.27848545f, -0.66141522f, -1.24733412f, -0.03960257f, 0.37814626f, -0.26728725f, 0.29316735f,
        -0.21844324f, -0.26236787f, 0.62844992f, -0.36606494f, -0.89427555f, 0.34564921f, 0.10730560f, -0.39031437f,
        -1.12252510f, 0.23221077f, -0.89881706f, 0.66370088f, -0.26539215f, 0.04706514f, -0.23198748f, -0.18570934f,
        -0.30028149f, -1.23802197f, -0.34946957f, 0.67753446f, -0.49851611f, 0.03150192f, 0.31753695f, 0.16190113f,
        -0.41561818f, 0.17573728f, 0.27448475f, 0.05781077f, 0.20512056f, 0.41520932f, -0.08435132f, 0.32775852f,
        0.73160750f, 0.59879988f, -0.01551493f, -0.24955449f, -1.09491432f, 0.68076813f, -0.69068062f, -0.49251562f,
        -0.05980723f, 0.52382517f, 0.60588306f, -0.43047559f, 0.28010890f, -0.17875759f, -0.30768666f, 0.11748930f,
        -0.32625756f, -0.14755529f, -0.78839076f, -0.42194206f, -0.18957543f, -0.58540076f, -0.31775451f, -0.08090239f,
        -1.10703278f, -0.27630967f, -0.06862766f, -1.29114258f, 0.40850538f, -0.32463545f, -1.51226425f, 0.24408175f,
        0.06411005f, 0.01210160f, 0.70345086f, -0.92518109f, -0.43611678f, -0.87121767f, 0.58926487f, -0.49419525f,
        0.33946851f, 0.14403221f, -0.02986769f, -0.02816143f, -0.29216990f, -0.00923174f, 0.00824804f, 0.76046932f,
        0.00929962f, -0.03210410f, -0.55398244f, 0.01234617f, 0.03045631f, -0.16381325f, -0.11021782f, 0.04135386f,
        0.47820273f, 0.71667576f, -1.20790505f, -0.44874680f, -1.33424640f, 0.85930037f, -0.19599411f, 0.44880930f,
        -0.00232417f, -0.00085174f, 0.25950450f, 0.00867666f, -0.02387820f, -0.20177771f, -0.00216028f, -0.00535302f,
        0.37806833f, -0.00266063f, 0.04942716f, -0.42295882f, -0.02746594f, 0.41599646f, 0.29522514f, -0.09772969f,
        -0.35920846f, 0.34632242f, -0.09636904f, 0.23583643f, -0.18285237f, -0.23676382f, -0.05465826f, 0.11441021f,
        0.28041995f, 0.08182871f, -0.08824167f, -0.49056071f, -0.42349052f, -1.44445372f, -0.88968015f, 0.35484785f,
        0.58952779f, 0.43854782f, -0.17754129f, 0.06599922f, 0.21600294f, -0.45708281f, 0.05158812f, -1.45204604f,
        1.21131682f, 0.42401642f, -0.22505823f, -0.06743369f, 0.93621355f, 0.07562945f, -0.18633181f, -0.14097922f,
        -0.25260302f, -0.28685492f, -0.23160149f, -0.97792381f, -0.47516713f, 0.82554567f, 0.82293302f, 0.18995817f,
        0.02559196f, -0.01422504f, 0.32172385f, 0.37202466f, 0.07792192f, 0.86054265f, -0.56452632f, 0.95828265f,
        -0.41552386f, -0.12571558f, 0.32145977f, -1.00011408f, -0.48841822f, -0.50715566f, 0.87050956f, 0.68973601f,
        1.04573333f, -1.65492463f, -0.35465282f, 0.18341467f, 0.20762594f, 0.43820497f, -0.44633421f, -0.35295877f,
        -0.63753748f, 0.45395312f, -0.66724080f, 0.39774159f, 0.23423634f, 0.27713579f, -0.04192355f, -0.28078094f,
        -0.03467511f, 0.06956670f, 0.24105778f, -0.02790440f, -0.22090252f, 0.23905914f, -0.00567787f, -0.45705247f,
        -0.62584436f, 0.02709159f, -0.01681926f, 0.53378141f, 0.08914144f, -0.17998061f, -0.16501577f, -0.81315863f,
        -0.76540828f, 0.33022943f, -2.82153010f, 0.37132964f, -0.31669563f, 0.28469890f, 0.04434158f, 0.00185362f,
        0.21625249f, 0.01366333f, 0.09399788f, 0.02590653f, -0.04755705f, 0.07856153f, 0.17198527f, 0.04728317f,
        0.08088735f, -0.04124142f, 0.20851636f, 0.19976671f, -0.07122955f, -0.02659272f, -3.03144813f, -1.60510802f,
        2.28604269f, 3.18935513f, 0.84077388f, 0.19979574f, -0.02108752f, -0.07719771f, 0.25768533f, -0.00274576f,
        0.03741811f, 0.07389660f, 0.17671154f, 0.08566282f, -0.08157372f, -0.15634531f, 0.03679169f, -0.01984810f,
        -0.02702963f, 0.03689877f, -0.06473981f, 0.16763057f, -2.87717795f, 0.41860950f, -2.00655556f, -0.55377984f,
        -0.16909601f, -0.81196874f, 0.05969796f, 0.71653855f, 0.16468358f, 0.02831745f, 0.24736851f, 0.05572332f,
        0.11320447f, 0.31667736f, -0.26848906f, 0.01874645f, 0.01169505f, -0.08376741f, 0.34357658f, 0.02627652f,
        -0.40921387f, -0.50052226f, 0.12678406f, 0.98677659f, 1.26806176f, 0.11906965f, -0.05725816f, 0.50450820f,
        0.05075769f, 0.35139921f, -0.00679100f, 0.02721949f, 0.12145624f, 0.00646831f, 0.03144938f, 0.15587664f,
        -0.09023913f, -0.01176665f, -0.09500200f, -0.02658870f, 0.08468576f, 0.02920584f, 0.24444360f, 0.21345735f,
        1.84435833f, 0.92883867f, 1.58922172f, 0.93584341f, 0.05675234f, -0.26715618f, -0.09805402f, -0.17045763f,
        0.45998070f, -0.02000862f, -0.02701223f, 0.13886507f, -0.16548777f, -0.27965418f, 0.19321428f, -0.06673064f,
        -0.08716377f, 0.09348979f, 0.07298565f, -0.02715057f, -0.04107732f, -0.45856071f, -1.59908676f, 0.48708051f,
        -1.43921316f, -1.52371001f, -0.43519410f, -0.24094033f, 0.04048618f, -0.25758773f, 0.33535454f, 0.01337496f,
        -0.04422662f, 0.14095795f, 0.05385664f, -0.15673074f, 0.40321773f, 0.01158665f, -0.03818787f, 0.21519627f,
        0.34638730f, 0.19245552f, -1.36793888f, 1.37441647f, -0.66926169f, 0.58773810f, -0.28285888f, 0.20710033f,
        0.03224611f, -0.63761169f, 2.65244102f, 2.27931857f, 0.37358999f, 0.02000000f};
    constexpr size_t kMesaWeightsCount = sizeof(kMesaWeights) / sizeof(float);

    // Splawn Lead
    constexpr float kSplawnWeights[] = {
        -0.25868356f, 1.24738228f, -0.83072269f, -1.38149667f, -0.12444640f, 0.54431969f, 1.02516663f, 0.31053919f,
        -0.55708992f, -1.13916349f, -0.05906660f, 0.25557801f, 0.65604007f, -0.41690114f, -0.30614930f, -0.00380681f,
        0.44925416f, 0.48196048f, -0.45824379f, 0.15408404f, 0.69858199f, 1.84969568f, -0.08057333f, 0.61081731f,
        -1.23019445f, 0.07636452f, 0.71228349f, 0.53313816f, -0.17929995f, -0.24903364f, -1.07004845f, 1.04601431f,
        0.13597672f, 0.27809522f, -0.63703787f, -0.58234596f, -0.29651457f, 0.27456766f, 0.37701803f, 0.82221276f,
        -0.80586040f, -0.89944088f, 0.14523745f, -0.94860226f, -0.39294192f, -0.35320997f, -0.24311493f, 0.16536251f,
        0.42080477f, 0.34787282f, 0.05999111f, -0.13106105f, 0.48622939f, -0.33961716f, -0.36087695f, -0.52974755f,
        0.18225420f, 0.48433170f, -0.02992097f, -0.05591508f, 0.32476664f, 0.81714767f, -1.50044501f, 1.05879462f,
        1.17859900f, 0.74614382f, 0.01416332f, 0.01833304f, 1.19231594f, 0.97357368f, -0.49543923f, -0.97910279f,
        0.89895916f, 0.35905430f, -1.94021118f, 0.29710603f, -0.73030108f, -0.34806535f, -0.05035304f, 0.11590792f,
        0.08982564f, 0.30195719f, 0.25342861f, -0.07082839f, -2.33152890f, -0.19275585f, -0.20821679f, -0.62889749f,
        0.27495408f, -0.42720094f, 0.40243971f, 2.12638736f, -0.41873658f, 1.06597197f, -0.53403801f, -0.02069981f,
        0.19202672f, -0.13952732f, -1.75088406f, -0.53738928f, -0.42245892f, 0.32062194f, -0.33696291f, 0.26198977f,
        -0.71401578f, -0.40946493f, -0.35495326f, -0.81515265f, -0.28988540f, 0.54138702f, -0.05986090f, 0.34228307f,
        -0.01078101f, -0.06590497f, -0.96605152f, -0.18699369f, -0.74122703f, 0.42318642f, 0.15237996f, -0.04655358f,
        -0.13119078f, 0.60196465f, 0.04838525f, 0.25913483f, -0.25099584f, -0.53411722f, -0.04491690f, 1.39922786f,
        -1.45169151f, -0.40873435f, -1.40838766f, 1.64085150f, -0.35309005f, 0.11186627f, 0.42119199f, -0.00659231f,
        -0.10002746f, 0.18142374f, -0.13120073f, 0.03510927f, -0.69007546f, 0.43157616f, -0.54977477f, 1.00608492f,
        0.18475138f, -1.13264835f, -0.35805121f, -0.22005445f, -0.78513205f, -0.27338299f, -1.07596159f, -0.28017381f,
        0.03230348f, 0.14998642f, 0.36833426f, -0.46452504f, 0.32040983f, -0.15945613f, -0.33550808f, 0.16783492f,
        -0.31746987f, -0.07860139f, -0.20663954f, -0.07627460f, 0.48872718f, 1.29233778f, -0.51352662f, -0.24179156f,
        0.50081325f, 0.25670671f, 0.08596946f, -1.33105743f, 0.22513737f, -0.68999660f, -1.05742097f, 0.39344233f,
        -0.04961626f, 0.12662907f, 0.67561030f, -0.92706352f, 0.83169127f, 0.59796232f, 0.21003343f, 0.17899264f,
        0.27653384f, 0.29341921f, -0.04250928f, -0.11948647f, -0.18111737f, 0.08096060f, 0.17421567f, 0.66664642f,
        0.21110997f, 0.22203875f, 0.36689818f, -0.15680444f, -0.31156021f, -0.57749885f, -0.05855259f, 0.04207794f,
        -0.25811079f, 0.47437483f, -0.37642494f, 0.08340228f, -1.08362710f, 0.04712728f, -0.18919195f, 0.45227221f,
        0.00018819f, 0.03882316f, -3.92473316f, -0.00874574f, -0.11560053f, -0.39996237f, -0.09599546f, -0.29524067f,
        -0.55886501f, 0.25188160f, 0.60610420f, -0.72367883f, 0.13232765f, 0.04569268f, 1.21273363f, 0.02506538f,
        -0.64324498f, 0.47009364f, -0.53530824f, -0.31318241f, -0.12079879f, -0.16886210f, 0.39609310f, 0.96575552f,
        0.92685926f, 0.73694170f, 0.61218822f, 0.14862265f, 0.59973139f, 0.81569058f, -0.41567984f, 0.18836373f,
        0.41261578f, -0.08045661f, -0.42276376f, 0.06442161f, -1.85432696f, -2.95551205f, 0.38339123f, -0.85859442f,
        0.00050252f, -0.73245531f, 0.09970108f, 0.11768667f, 0.94900352f, 1.57846904f, 0.14946522f, -0.06156147f,
        -0.48150527f, -0.19326018f, -0.10793875f, -0.15716650f, -0.36756450f, -0.01956654f, -0.39666247f, 0.66145653f,
        0.62456191f, -0.53007513f, 2.21687508f, 0.63080573f, 1.07784188f, 0.26428580f, 0.35018808f, -0.31713980f,
        -0.49355105f, 0.11177879f, -0.20335940f, -0.47642702f, 0.15559274f, 0.09542914f, 0.33743420f, -0.21973923f,
        0.07587504f, 0.42577523f, -0.28292713f, 0.17034221f, -0.42448699f, 0.55063403f, -0.42996237f, -0.06026050f,
        0.30872163f, -0.27128443f, 0.04240631f, 0.61924320f, 0.10935304f, -0.44360754f, -0.07403746f, -0.40532357f,
        0.05725173f, 0.33506873f, -0.24668072f, -0.26917398f, -0.57129776f, 0.32408106f, 0.09889072f, -0.63045752f,
        1.24647379f, 0.63328719f, 1.13818038f, 1.34302759f, 0.22061284f, -0.25898546f, -0.08816843f, -1.05474770f,
        1.28452873f, 0.10469563f, -0.68614137f, -0.00517601f, -0.25797689f, 0.02692051f, 0.10144249f, 0.25614810f,
        0.08580717f, -0.06135615f, -0.30716646f, 0.14582904f, 0.05527651f, 0.14646387f, -0.22533126f, -0.07440864f,
        -0.19208042f, 0.34475368f, 0.47023016f, -0.06133830f, 0.05585909f, 0.00156306f, -0.45961303f, 1.52740049f,
        -0.48333168f, -1.05400598f, 0.60381413f, 0.43659547f, -0.02946735f, 0.07454792f, -0.14592615f, 0.05238213f,
        -0.17347600f, 0.12880996f, 0.08412531f, 0.07445611f, -0.11261787f, -0.13466020f, -0.07322247f, 0.20744415f,
        -0.02901827f, -0.01050584f, -0.14901394f, 0.11672183f, 0.31590202f, 0.67073226f, -1.47771943f, -2.01023817f,
        -0.37073463f, -0.59523344f, -0.15507011f, -0.18303271f, 0.00644568f, 0.11797759f, 0.26426667f, -0.09641639f,
        -0.08296301f, -0.23737291f, -0.02333083f, 0.27872184f, 0.33664191f, -0.14748172f, -0.26140559f, -0.33984825f,
        -0.00872207f, -0.00639767f, 1.44475806f, 1.36256456f, 2.28971553f, 1.78854382f, 0.36334422f, 0.27996725f,
        0.17379946f, -0.17249975f, 0.00699949f, -0.02084333f, 0.32653809f, 0.31746668f, 0.26237553f, -0.25395855f,
        -0.09384263f, -0.32874611f, 0.52860719f, 0.01447401f, -0.42683098f, -0.14719383f, 0.92283583f, 0.42125261f,
        -1.54745722f, 2.96275878f, -0.40270972f, 1.34282839f, 0.32439637f, -0.37087104f, 0.14791533f, -0.26496851f,
        0.00556216f, -0.17310092f, -0.21126042f, 0.07233135f, 0.31288767f, -0.57862246f, -0.05128888f, -0.48985955f,
        0.29665121f, 0.26711413f, 0.08682515f, 0.00035959f, -1.00083399f, -1.04410326f, -1.12528968f, 1.41351199f,
        1.85874879f, -1.77102435f, 0.14942931f, -0.14315744f, -0.03536531f, -0.22271615f, -0.24711928f, 0.02160911f,
        0.12270854f, 0.74618006f, 0.02417146f, -0.01684105f, 0.61643666f, 0.02936753f, 0.19943497f, 0.25286913f,
        -0.00521974f, -0.26665178f, 0.07638368f, 0.83310884f, -0.66926169f, 0.58773810f, -0.28285888f, 0.20710033f,
        0.03224611f, -0.63761169f, 3.25811005f, 3.12855220f, 0.30544522f, 0.02000000f};
    constexpr size_t kSplawnWeightsCount = sizeof(kSplawnWeights) / sizeof(float);

    // PRS Archon
    constexpr float kPrsArchonWeights[] = {
        -0.07047388f, 1.12656832f, -0.03722587f, -0.63761163f, 0.39647496f, -0.10848364f, 0.52670246f, -0.17139259f,
        -0.33606583f, -0.55831420f, 0.27096841f, 0.40265051f, 0.54607457f, -0.56912798f, -0.13008143f, 0.00304592f,
        -0.04183855f, 0.37368694f, -0.63857538f, 0.05301018f, 0.54340988f, 1.22832155f, -0.04730269f, 0.53349286f,
        -0.13066824f, -1.17116117f, 1.15036643f, 0.25051507f, 0.08535334f, -0.45059210f, -0.35939476f, 0.78594774f,
        -0.70272958f, -0.39066556f, -0.37061486f, -0.25897685f, -0.14698055f, 0.30805731f, 0.95851201f, 0.42842531f,
        -0.30432338f, -0.08565088f, 0.40226951f, -0.98210627f, -0.36333001f, -0.36162782f, 0.19450700f, 0.06370746f,
        0.01946266f, 0.16066779f, 0.65490568f, -0.15878309f, -0.02743075f, -0.07250109f, -0.17306584f, -0.60800272f,
        0.02529527f, 0.49403468f, -0.10814773f, -0.07011946f, 0.04648251f, 0.43098682f, -1.17490470f, 1.15155780f,
        -0.21482389f, -0.36276186f, 0.12526318f, 0.01925666f, 0.68822432f, 1.05890024f, -0.55228060f, -0.51983094f,
        0.45107532f, 0.69273251f, 0.27221113f, 0.52108848f, -0.76902324f, -0.62137604f, 0.25829941f, 0.38683292f,
        -0.15786336f, 0.13859192f, 0.95176208f, -0.62029868f, -0.83363414f, 0.16408360f, 0.04788724f, -0.45012766f,
        0.36702323f, -0.44373155f, -0.33353773f, 0.65602142f, -0.04729381f, 0.46606141f, -0.59811175f, -0.01789872f,
        0.54356402f, 0.24522530f, -0.68212038f, -0.59511870f, -0.35883197f, 0.57868129f, -0.16133529f, -0.09588394f,
        -0.65521604f, 0.30006742f, -0.57743245f, -0.41483966f, -0.21422459f, 0.51090920f, -0.16404398f, 0.17557801f,
        -0.19817667f, 0.42297500f, 0.20886807f, 0.35502458f, -0.53610498f, -0.24581318f, 0.01693471f, -0.01318892f,
        -0.40570074f, -0.03789077f, -0.87099099f, 0.44089505f, -0.18479130f, -0.07721050f, 0.07189528f, -0.12874688f,
        -0.27292985f, -1.15196979f, -0.08723935f, -0.96443343f, -0.37820658f, -0.11498955f, -0.06817149f, 0.04790504f,
        -1.42881393f, 0.45534849f, 0.59895390f, -0.18580435f, -0.32254761f, 0.79260182f, -0.63794142f, 0.18002746f,
        -0.30803615f, -0.00092533f, 0.11760049f, 0.28027833f, -0.31877455f, -0.06875204f, -1.14656627f, -0.53179067f,
        -0.29366195f, 0.11300445f, 0.41650483f, -0.56400365f, 0.40322855f, -0.14643170f, -0.22322705f, 0.13359004f,
        -0.73813647f, 0.01825144f, -0.70996845f, -0.53205800f, -0.20450455f, 0.16301320f, 0.19502087f, 0.18080302f,
        -0.15515006f, 0.59911996f, 0.12376563f, -0.32091963f, 0.77613318f, -0.09518225f, 0.36507335f, 1.42252731f,
        -0.08622722f, -0.11404246f, 0.77582580f, -0.34070259f, 0.62882310f, 0.41030979f, -0.21617308f, 0.68163925f,
        0.28317040f, 0.05022329f, -0.20560837f, -0.24269742f, -0.68851113f, 0.12633827f, 0.27268252f, -0.26333225f,
        0.02308730f, -0.00844894f, 0.44122544f, -0.03041169f, -0.00271757f, -0.43755656f, -0.07659341f, 0.00603367f,
        -0.46675560f, 0.08467042f, -0.30789343f, -0.44113195f, -0.44261187f, 1.33731699f, -0.26738238f, 0.43554664f,
        -0.00227780f, 0.11986253f, -0.36986578f, 0.00267685f, -0.05771285f, -0.36901543f, -0.13433549f, 0.46284914f,
        1.14823055f, 0.13854690f, -0.44911715f, 0.19129874f, 0.19757758f, 0.30741343f, 0.89711642f, 0.00513723f,
        -0.75278807f, 0.31763691f, -0.43124631f, -0.02498233f, -0.27077061f, -0.24320340f, -0.15272777f, 0.79811245f,
        1.28078687f, 0.11714245f, 0.34926501f, 0.18073156f, 0.42353231f, -1.33557582f, -2.26506424f, -0.14347471f,
        -0.36454105f, -0.42521679f, -0.17338037f, 0.04227578f, 0.38002253f, -0.75729138f, 0.31859550f, -0.19183747f,
        -0.19520925f, -0.92421740f, -0.21162573f, 0.01049003f, -0.11038367f, -0.06318542f, -0.89478004f, -0.45308658f,
        -0.67872578f, -0.59773040f, -0.43902007f, -0.33461717f, 0.03397025f, 0.06563818f, -0.04003967f, 0.19779031f,
        0.43083337f, -0.46378338f, -0.16689363f, -2.06972861f, 0.27048749f, 0.74996477f, -0.33670938f, 0.31846046f,
        -0.48001730f, 0.20089372f, -1.03018570f, -0.86215967f, 0.39988551f, -0.81123716f, -0.79590040f, -0.19772843f,
        0.14002487f, 0.56151289f, -0.42552871f, 0.12101600f, -0.58995754f, 0.70724070f, -0.15141557f, 0.17725024f,
        -0.75957757f, 0.25255603f, -0.41331303f, -0.75421083f, -0.66914064f, -0.89088649f, 0.23492023f, -0.44506890f,
        -0.01336937f, -0.55649710f, -0.14870206f, -0.01835147f, 0.12106350f, -0.26546007f, 0.05527898f, 0.26783374f,
        -0.40211901f, -0.04678326f, -0.29556462f, 0.40728837f, -0.44554022f, -0.05504190f, -0.14064969f, -0.15734559f,
        0.52363342f, 0.23598991f, 0.30967551f, -1.62376058f, -0.17728704f, -0.17229490f, 0.05788342f, 0.16030012f,
        -0.36021602f, -0.03367504f, -0.18060905f, 0.36171350f, 0.18120880f, 0.23932253f, -0.25008970f, -0.22233994f,
        -0.24332660f, 0.17234679f, -0.12916480f, 0.17027040f, -0.14589934f, 0.27666309f, -0.14275999f, 0.00160160f,
        -1.95431960f, -0.74930423f, 0.74447316f, 0.54220843f, 0.06486642f, 0.15641038f, -0.22967008f, -0.06517893f,
        -0.15810280f, 0.19347720f, -0.11108742f, -0.03448720f, -0.34029609f, 0.11866140f, 0.04136705f, 0.02902027f,
        0.01018920f, -0.06201236f, 0.02308754f, -0.26656196f, 1.03935015f, 0.84650332f, -2.30467319f, 0.98385489f,
        -0.41006762f, -0.65245390f, -0.04842000f, -0.52462935f, -0.00204383f, 0.07593871f, 0.45647445f, -0.09551029f,
        -0.21895839f, -0.29431641f, 0.21802856f, 0.19194883f, 0.26722017f, -0.05880149f, -0.28780934f, -0.14943491f,
        -0.29822057f, 0.02709460f, 0.09947099f, -2.11144137f, 0.97177625f, -0.13823035f, 0.28880325f, 0.18352188f,
        -0.12009092f, -0.26832050f, -0.01335254f, 0.09021872f, 0.19077279f, 0.13786122f, -0.02166750f, -0.40925130f,
        -0.05416125f, -0.13160992f, 0.26952410f, 0.03560105f, -0.14595035f, -0.18220191f, -0.08276975f, -0.09209671f,
        -1.39528620f, -2.06880569f, -3.86448145f, -0.72732615f, 0.01725848f, -0.43021014f, 0.05600268f, 0.01275585f,
        -0.04158529f, -0.04208561f, 0.21210977f, 0.05916222f, 0.10499530f, -0.09446590f, -0.44507501f, -0.05621864f,
        0.40507898f, 0.39064288f, 0.06722295f, 0.15276375f, -0.08385990f, -0.22736239f, -2.65871048f, 1.40783596f,
        1.56958199f, -1.21294737f, -0.26906788f, -0.95049316f, 0.07167298f, 0.29940239f, -0.52762985f, -0.06431469f,
        -0.28917509f, 0.25220197f, 0.02300084f, 0.20967856f, -0.48965985f, -0.01653549f, -0.25612113f, 0.31848812f,
        0.43228623f, -0.51707780f, -0.31342465f, 0.24625367f, -0.66926169f, 0.58773810f, -0.28285888f, 0.20710033f,
        0.03224611f, -0.63761169f, 3.32186604f, 4.14403343f, -0.08026478f, 0.02000000f};
    constexpr size_t kPrsArchonWeightsCount = sizeof(kPrsArchonWeights) / sizeof(float);

    // Model registry
    struct NamPicoModelEntry
    {
        const char *name;
        const float *weights;
        size_t weightCount;
    };

    constexpr NamPicoModelEntry kNamPicoModels[] = {
        {"Matchless SC30", kMatchlessWeights, kMatchlessWeightsCount},
        {"Twin Reverb", kTwinReverbWeights, kTwinReverbWeightsCount},
        {"Dumble Low Gain", kDumbleLowWeights, kDumbleLowWeightsCount},
        {"Dumble High Gain", kDumbleHighWeights, kDumbleHighWeightsCount},
        {"Ethos Lead", kEthosLeadWeights, kEthosLeadWeightsCount},
        {"JCM800", kJcm800Weights, kJcm800WeightsCount},
        {"Mesa Mark III", kMesaWeights, kMesaWeightsCount},
        {"Splawn Lead", kSplawnWeights, kSplawnWeightsCount},
        {"PRS Archon", kPrsArchonWeights, kPrsArchonWeightsCount},
    };

    constexpr size_t kNamPicoModelCount = 9;

    inline const NamPicoModelEntry *GetNamPicoModel(size_t index)
    {
        return (index < kNamPicoModelCount) ? &kNamPicoModels[index] : nullptr;
    }

} // namespace nam_wavenet

// C-style accessor functions for neural_amp.h compatibility
inline const float *GetPicoModelWeights(int index)
{
    const auto *model = nam_wavenet::GetNamPicoModel(static_cast<size_t>(index));
    return model ? model->weights : nullptr;
}

inline const char *GetPicoModelName(int index)
{
    const auto *model = nam_wavenet::GetNamPicoModel(static_cast<size_t>(index));
    return model ? model->name : nullptr;
}

inline size_t GetPicoModelWeightCount(int index)
{
    const auto *model = nam_wavenet::GetNamPicoModel(static_cast<size_t>(index));
    return model ? model->weightCount : 0;
}

#endif // DAISY_SEED_BUILD && HAS_RTNEURAL
