#pragma once
/**
 * GRU-9 Embedded Model Weights
 *
 * Converted from Mars project all_model_data_gru9_4count.h
 * Architecture: GRU hidden_size=9, input_size=1, output_size=1
 */

#include <cstddef>

namespace gru9_fender57 {
    constexpr const char* kName = "Fender 57 G5";
    constexpr int kHiddenSize = 9;
    constexpr float kLevelAdjust = 0.9f;

    // Input-to-hidden weights [1 x 3*hidden] = [1 x 27]
    constexpr float kWeightIH[] = {
        0.010945625603199005f, -0.050199560821056366f, -0.06624435633420944f, -0.1976807862520218f,
        0.1158326119184494f, -0.06330181658267975f, -0.0030009972397238016f, 0.010331690311431885f,
        0.04662841558456421f, 0.050783343613147736f, -0.14239542186260223f, -0.146307110786438f,
        -0.0151847954839468f, 0.025679081678390503f, -0.1442670226097107f, 0.06651495397090912f,
        0.1271495223045349f, 0.13272543251514435f, -0.43817561864852905f, -1.1551047563552856f,
        -0.03793826326727867f, 0.8241645097732544f, 0.842648446559906f, 0.8103972673416138f,
        -0.01621781662106514f, -1.3673923015594482f, 0.8390907645225525f
    };
    constexpr size_t kWeightIHSize = sizeof(kWeightIH) / sizeof(float);

    // Hidden-to-hidden weights [hidden x 3*hidden] = [9 x 27]
    constexpr float kWeightHH[] = {
        0.2660585641860962f, -0.06399577111005783f, 0.1198706179857254f, 0.11052851378917694f,
        0.20094873011112213f, -0.2052612602710724f, -0.21146216988563538f, -0.12754301726818085f,
        0.32190588116645813f, 0.14035136997699738f, -0.07555074989795685f, 0.21440546214580536f,
        0.41187435388565063f, 0.0024969112128019333f, 0.29178300499916077f, 0.24995334446430206f,
        -0.2648366689682007f, -0.3174993395805359f, 0.9455024600028992f, 0.5280759334564209f,
        -0.06975415349006653f, -0.5438200235366821f, 0.3096756339073181f, -0.07702699303627014f,
        0.7434556484222412f, -0.7418537735939026f, 0.2919408679008484f, 0.20359723269939423f,
        -0.0020075237844139338f, 0.07313552498817444f, 0.08402300626039505f, 0.04145404323935509f,
        -0.1683993637561798f, 0.06027502194046974f, -0.1064407229423523f, 0.17345184087753296f,
        0.28747838735580444f, 0.1693194955587387f, -0.003262239508330822f, 0.12429770827293396f,
        0.17810338735580444f, 0.2705853283405304f, -0.17416897416114807f, 0.06282186508178711f,
        0.08296966552734375f, 0.09632748365402222f, 0.331215500831604f, -0.8628224730491638f,
        -1.292256474494934f, 0.016151534393429756f, 0.11461299657821655f, 0.07012607902288437f,
        -0.5104307532310486f, 0.19750377535820007f, 0.09782777726650238f, 0.07248488068580627f,
        -0.05732868239283562f, 0.20161516964435577f, 0.23006261885166168f, -0.01485269796103239f,
        -0.09755771607160568f, 0.03590284287929535f, 0.7590547800064087f, 0.1708788126707077f,
        0.2563200294971466f, 0.43259501457214355f, 0.01640007272362709f, -0.011161443777382374f,
        0.46529996395111084f, -0.08638856559991837f, 0.16832393407821655f, -0.9919414520263672f,
        -0.17448554933071136f, -0.0019847825169563293f, 0.6101245880126953f, 0.5585080981254578f,
        -0.08212166279554367f, -0.4574209451675415f, 0.3841796815395355f, 0.005214073695242405f,
        -0.4805544316768646f, -0.06693984568119049f, -0.056720852851867676f, 0.36993783712387085f,
        -0.15704692900180817f, -0.0539880134165287f, -0.021962974220514297f, 0.14042580127716064f,
        0.024964187294244766f, -0.29775166511535645f, 0.16849516332149506f, -0.01088637299835682f,
        -0.06409332156181335f, -0.0541389025747776f, 0.1942768096923828f, 0.497659832239151f,
        0.593319833278656f, -0.35418015718460083f, 0.656356692314148f, 0.051126692444086075f,
        0.7387368083000183f, -1.2711644172668457f, 1.1626670360565186f, -0.09727691859006882f,
        -0.8460386991500854f, -0.7294226288795471f, 0.4267534017562866f, -0.32049477100372314f,
        0.23080605268478394f, -0.023852309212088585f, 0.06141763925552368f, -0.0897858589887619f,
        0.0008013206534087658f, 0.0015967594226822257f, 0.10881839692592621f, 0.03357997536659241f,
        0.2687319219112396f, -0.22535589337348938f, -0.11510293185710907f, 0.03981808200478554f,
        -0.07750838249921799f, 0.2620641887187958f, -0.2039710283279419f, 0.2531137466430664f,
        -0.4612753391265869f, 0.18919694423675537f, -0.6777820587158203f, -0.014094461686909199f,
        0.10291419923305511f, 0.7329023480415344f, 1.211446762084961f, -0.22394385933876038f,
        -0.17840255796909332f, -0.25102508068084717f, -0.3324175477027893f, 0.010435167700052261f,
        0.0015351967886090279f, -0.11401131004095078f, 0.10941295325756073f, -0.20254464447498322f,
        0.06844368577003479f, 0.19721657037734985f, -0.042450353503227234f, 1.1021711826324463f,
        0.5912654995918274f, 0.15679602324962616f, -0.25755587220191956f, -0.09800519794225693f,
        -0.23541662096977234f, -0.5667105913162231f, -0.31713664531707764f, 0.884737491607666f,
        -0.04421587660908699f, -0.0474378727376461f, 0.7063164710998535f, 0.27078723907470703f,
        0.08647460490465164f, 0.08097056299448013f, 0.8081551194190979f, -0.7168897986412048f,
        0.6118642091751099f, -0.3913593590259552f, -0.15396474301815033f, 0.0874485895037651f,
        -0.056291550397872925f, 0.13632695376873016f, -0.12412504106760025f, -0.044237688183784485f,
        -0.33462369441986084f, 0.041841473430395126f, -0.24818828701972961f, 0.08980405330657959f,
        0.08572498708963394f, 0.13920283317565918f, -0.022645220160484314f, 0.044136106967926025f,
        0.08737717568874359f, 0.17118299007415771f, 0.15596453845500946f, -0.032321106642484665f,
        -0.16145028173923492f, 0.20161674916744232f, 0.850139319896698f, 0.2032565474510193f,
        0.11183350533246994f, 0.6000909805297852f, 0.8753060102462769f, 0.07564043998718262f,
        -0.5152859687805176f, -0.48853522539138794f, 0.14787669479846954f, 0.05383075028657913f,
        0.3275996744632721f, -0.3504670560359955f, 0.24404102563858032f, 0.16333617269992828f,
        0.11575686931610107f, -1.1896531581878662f, -0.0010165077401325107f, 0.12097855657339096f,
        -0.07844194024801254f, -0.5467158555984497f, -0.18892334401607513f, -0.03226330131292343f,
        -0.5207664966583252f, 0.6195607781410217f, -0.07094912976026535f, -0.36437997221946716f,
        -0.06256914138793945f, 0.3451904356479645f, -0.4454503357410431f, -0.3952321708202362f,
        0.10144739598035812f, -0.15387959778308868f, 0.052264753729104996f, 0.8262813687324524f,
        -0.08667854964733124f, 0.07401089370250702f, -0.09816570580005646f, 0.013334207236766815f,
        0.09177997708320618f, 0.1842576116323471f, 0.28860995173454285f, 0.017341729253530502f,
        0.05852165073156357f, 0.343151718378067f, 0.16545747220516205f, -0.6271731853485107f,
        -0.22290657460689545f, -0.18057112395763397f, -0.12936334311962128f, -0.7296581268310547f,
        0.45515164732933044f, -0.04487355053424835f, -0.45728376507759094f, -0.19084632396697998f,
        -0.2084663063287735f, -0.26941245794296265f, 0.0866464152932167f, 0.9208748936653137f,
        0.08087804168462753f, 0.8704594373703003f, 1.3329368829727173f
    };
    constexpr size_t kWeightHHSize = sizeof(kWeightHH) / sizeof(float);

    // Biases [2 x 3*hidden] = [2 x 27]
    constexpr float kBias[] = {
        1.1973379850387573f, -0.44106385111808777f, -0.13644300401210785f, -0.3490041494369507f,
        1.3261643648147583f, -0.380979061126709f, 0.19212310016155243f, -0.24578654766082764f,
        1.454893708229065f, 0.34279128909111023f, 0.30362242460250854f, 0.3117355704307556f,
        0.5360283255577087f, -0.018552329391241074f, 0.3106920123100281f, 0.0398116409778595f,
        -0.0714878961443901f, 0.07045018672943115f, -0.3137598931789398f, 0.06450533866882324f,
        0.0797731876373291f, 0.0582866370677948f, -0.14376848936080933f, 0.27043846249580383f,
        -0.21152986586093903f, -0.28778964281082153f, 0.2651936709880829f, 1.1973379850387573f,
        -0.44106385111808777f, -0.13644300401210785f, -0.3490041494369507f, 1.3261642456054688f,
        -0.380979061126709f, 0.19212310016155243f, -0.24578654766082764f, 1.454893708229065f,
        0.3406675457954407f, 0.30381959676742554f, 0.311753511428833f, 0.536015510559082f,
        -0.017991140484809875f, 0.3106525242328644f, 0.03981161117553711f, -0.07112261652946472f,
        0.07591364532709122f, 0.4408111870288849f, 0.13189712166786194f, 0.2187042236328125f,
        -0.040134504437446594f, 0.08460792899131775f, -0.19480018317699432f, -0.1755005568265915f,
        0.04271353408694267f, -0.5428429841995239f
    };
    constexpr size_t kBiasSize = sizeof(kBias) / sizeof(float);

    // Dense output weights [1 x hidden] = [1 x 9]
    constexpr float kDenseW[] = {
        -0.15525458753108978f, 0.5315423607826233f, 0.8522182703018188f, 0.022386819124221802f,
        0.19309879839420319f, -0.518962562084198f, 0.580614447593689f, 0.37257859110832214f,
        0.5456886887550354f
    };
    constexpr size_t kDenseWSize = sizeof(kDenseW) / sizeof(float);

    // Dense output bias [1]
    constexpr float kDenseB[] = {
        0.06967336684465408f
    };
    constexpr size_t kDenseBSize = sizeof(kDenseB) / sizeof(float);
} // namespace gru9_fender57

namespace gru9_matchless {
    constexpr const char* kName = "Matchless SC30";
    constexpr int kHiddenSize = 9;
    constexpr float kLevelAdjust = 0.9f;

    // Input-to-hidden weights [1 x 3*hidden] = [1 x 27]
    constexpr float kWeightIH[] = {
        -0.029231837019324303f, -0.3149751126766205f, -0.5631013512611389f, 0.6397935748100281f,
        -0.03381464630365372f, 0.639824390411377f, -0.22903455793857574f, 0.15575867891311646f,
        -0.30347883701324463f, 0.08316066116094589f, 0.4032779335975647f, -0.10985194146633148f,
        -0.0464772954583168f, 0.06623080372810364f, 0.3327423632144928f, 0.5125880837440491f,
        0.5497733354568481f, 1.3290865421295166f, -0.4052441120147705f, -0.297264963388443f,
        0.5754965543746948f, 0.44692426919937134f, -0.6242079734802246f, 0.815628170967102f,
        -0.20662333071231842f, -1.0047993659973145f, -1.3757998943328857f
    };
    constexpr size_t kWeightIHSize = sizeof(kWeightIH) / sizeof(float);

    // Hidden-to-hidden weights [hidden x 3*hidden] = [9 x 27]
    constexpr float kWeightHH[] = {
        0.1051379069685936f, 0.12829001247882843f, 0.2898087501525879f, -0.16671307384967804f,
        -0.036237336695194244f, 0.21648991107940674f, -0.533916711807251f, -0.22937588393688202f,
        -0.2554420232772827f, 0.4378296136856079f, 0.7202093005180359f, -0.34362006187438965f,
        -0.03987767547369003f, 0.24171796441078186f, 0.3179763853549957f, -0.08093664795160294f,
        -0.1592325121164322f, -0.8755542635917664f, 1.0315083265304565f, 0.2086344212293625f,
        0.25012683868408203f, -0.42073965072631836f, 0.6137024760246277f, -0.34524330496788025f,
        -0.11390731483697891f, 0.10597434639930725f, 0.1194741502404213f, 0.43965113162994385f,
        0.738184928894043f, 0.033683791756629944f, 1.0302988290786743f, 0.27513888478279114f,
        0.4837151765823364f, -1.6229397058486938f, -0.31622952222824097f, -0.4863312542438507f,
        0.4809456467628479f, -0.03827214986085892f, 0.11768703907728195f, 0.3078615367412567f,
        -0.40359431505203247f, -0.18817006051540375f, -0.04770904406905174f, 0.6481425762176514f,
        -0.45995381474494934f, -0.19886450469493866f, 0.5704367160797119f, -0.5202093124389648f,
        0.3056955635547638f, -0.12838459014892578f, -0.6685692667961121f, 0.16949783265590668f,
        0.8921375274658203f, 0.6648041009902954f, -0.1829013079404831f, 0.6881493926048279f,
        -0.8046470284461975f, -0.0994800254702568f, 0.4374733567237854f, -0.37969136238098145f,
        -0.16229309141635895f, -0.22432197630405426f, 0.4301200211048126f, -0.3332682251930237f,
        0.10536666959524155f, -0.25979530811309814f, 0.07235642522573471f, -0.2359481006860733f,
        0.24771596491336823f, -0.16564849019050598f, -0.1100655049085617f, 0.2774718701839447f,
        -0.30172452330589294f, -0.5792653560638428f, 1.020783543586731f, -0.5949492454528809f,
        -0.20587550103664398f, -0.9724681377410889f, 0.4123700261116028f, 0.6416595578193665f,
        0.9461540579795837f, 0.4748248755931854f, -0.16523489356040955f, -1.0247730016708374f,
        -0.4438347816467285f, -0.04162002354860306f, 0.6843292713165283f, 0.5461495518684387f,
        0.10365315526723862f, -0.12791401147842407f, 0.15804877877235413f, 0.2241111546754837f,
        0.3072376549243927f, 0.40068063139915466f, -0.17062169313430786f, -0.24424247443675995f,
        1.1446821689605713f, -0.3338185250759125f, 1.318892002105713f, -0.01969367079436779f,
        0.7913597822189331f, 0.9232466220855713f, 0.8678138852119446f, -0.11184750497341156f,
        0.9066728949546814f, -1.6418309211730957f, 1.6046421527862549f, -0.10345906764268875f,
        0.700103759765625f, -0.07411743700504303f, -0.004179314710199833f, -0.03865315392613411f,
        -0.0460720993578434f, -0.3688267171382904f, 0.19999244809150696f, 0.03791762888431549f,
        0.8113241195678711f, 0.11560288071632385f, -0.21147534251213074f, -0.12836022675037384f,
        0.13692621886730194f, 0.06355466693639755f, -0.5095589756965637f, -0.5651673674583435f,
        -0.12227161973714828f, 0.9299392700195312f, -0.787667989730835f, -0.2787342667579651f,
        0.3045952022075653f, 0.298406720161438f, 1.0309174060821533f, 0.25754573941230774f,
        0.1290983110666275f, -0.08116108179092407f, -0.4077262580394745f, 0.2238011211156845f,
        -0.22497090697288513f, 0.5864197015762329f, 0.1324375718832016f, 0.4805642366409302f,
        0.579595685005188f, 0.8301312327384949f, 0.0739465206861496f, -0.06255380064249039f,
        0.41109150648117065f, -0.34577304124832153f, 0.4047587513923645f, -0.3010903298854828f,
        0.182509183883667f, -0.07516472041606903f, -0.9580824375152588f, -0.6091054081916809f,
        -0.6514734029769897f, -0.3313848674297333f, 0.24173544347286224f, -0.003753841854631901f,
        -0.6665221452713013f, -0.10173103958368301f, 1.0094667673110962f, 0.1470104604959488f,
        -0.1860351711511612f, -0.06416574865579605f, -0.2879454791545868f, 0.033979445695877075f,
        -0.7389340996742249f, 0.6795883178710938f, -0.2216651737689972f, -0.6759085059165955f,
        -0.4337523877620697f, -0.06621197611093521f, 0.43267014622688293f, -0.24790766835212708f,
        0.22508424520492554f, -0.020133374258875847f, 0.4553159177303314f, 0.4158363342285156f,
        0.45998603105545044f, -0.6455892324447632f, 0.12036023288965225f, -0.548229992389679f,
        -0.4161085784435272f, 0.05514499172568321f, 0.5517982244491577f, 0.934627890586853f,
        -0.4454379379749298f, 0.13605183362960815f, 0.6199765205383301f, 0.5146094560623169f,
        0.05348629876971245f, 0.13508442044258118f, 1.0049550533294678f, -0.8912327289581299f,
        -0.2059440165758133f, 0.28257760405540466f, 0.36072155833244324f, -0.5177474617958069f,
        -0.7398079633712769f, -0.21730944514274597f, 0.05850783362984657f, 0.6801514625549316f,
        0.053404804319143295f, 0.2902158498764038f, 0.16145165264606476f, 0.1559475064277649f,
        0.5667146444320679f, -0.17303906381130219f, 0.14446422457695007f, -0.7537105083465576f,
        0.35898104310035706f, -0.1059722900390625f, -1.456192135810852f, -0.7127645611763f,
        -0.2942441403865814f, 0.873897135257721f, -0.369514524936676f, -0.6184043288230896f,
        0.07483966648578644f, -0.35724133253097534f, -0.13003917038440704f, 0.03692195191979408f,
        0.43310803174972534f, 0.6603528261184692f, 0.8366883397102356f, 0.03832339122891426f,
        -0.29808709025382996f, 0.20216895639896393f, 0.08641715347766876f, -0.2782328128814697f,
        -0.8476051688194275f, -0.21279795467853546f, 0.09541693329811096f, -0.24904178082942963f,
        -1.1415947675704956f, -1.593221664428711f, -0.3557261824607849f, -1.6010098457336426f,
        -0.6294101476669312f, 0.6125853657722473f, -0.07568871974945068f, -0.8783455491065979f,
        0.256775826215744f, -0.7667081952095032f, 1.3150516748428345f
    };
    constexpr size_t kWeightHHSize = sizeof(kWeightHH) / sizeof(float);

    // Biases [2 x 3*hidden] = [2 x 27]
    constexpr float kBias[] = {
        1.6665621995925903f, 0.11900100111961365f, 1.0300720930099487f, -0.6648464798927307f,
        1.8063621520996094f, 0.2966279089450836f, 0.14621761441230774f, -0.6517598628997803f,
        -0.8084750175476074f, 0.24817079305648804f, 0.30441635847091675f, 0.1947382092475891f,
        0.5575229525566101f, -0.010426747612655163f, 0.30423736572265625f, 0.30738455057144165f,
        0.3932950794696808f, 0.4195604920387268f, -0.09829548001289368f, -0.046609267592430115f,
        -0.05279914289712906f, -0.10833795368671417f, -0.0716700553894043f, -0.12667514383792877f,
        -0.16283537447452545f, 0.5098429918289185f, 0.7824194431304932f, 1.6665621995925903f,
        0.11900100111961365f, 1.0300720930099487f, -0.6648464798927307f, 1.8063621520996094f,
        0.2966279089450836f, 0.14621761441230774f, -0.6517598628997803f, -0.8084750175476074f,
        0.24812166392803192f, 0.30441638827323914f, 0.1947382092475891f, 0.5575229525566101f,
        -0.010421093553304672f, 0.30423736572265625f, 0.30738455057144165f, 0.3932950794696808f,
        0.41956254839897156f, 0.3314102292060852f, -0.14917393028736115f, -0.06163574755191803f,
        0.43613073229789734f, 0.15843312442302704f, 0.34317588806152344f, 0.2971913814544678f,
        -0.6883634328842163f, -1.0945156812667847f
    };
    constexpr size_t kBiasSize = sizeof(kBias) / sizeof(float);

    // Dense output weights [1 x hidden] = [1 x 9]
    constexpr float kDenseW[] = {
        1.3266512155532837f, 0.34957095980644226f, 0.501087486743927f, 0.21891072392463684f,
        1.2271435260772705f, 0.43608468770980835f, 1.0895591974258423f, 0.7009875774383545f,
        0.630840003490448f
    };
    constexpr size_t kDenseWSize = sizeof(kDenseW) / sizeof(float);

    // Dense output bias [1]
    constexpr float kDenseB[] = {
        -0.3153194189071655f
    };
    constexpr size_t kDenseBSize = sizeof(kDenseB) / sizeof(float);
} // namespace gru9_matchless

namespace gru9_klon_bb {
    constexpr const char* kName = "Klon BB";
    constexpr int kHiddenSize = 9;
    constexpr float kLevelAdjust = 0.6f;

    // Input-to-hidden weights [1 x 3*hidden] = [1 x 27]
    constexpr float kWeightIH[] = {
        0.10444662719964981f, -0.2509694993495941f, -0.18859492242336273f, 0.12905894219875336f,
        -0.0213624257594347f, -0.016602396965026855f, -0.029290301725268364f, -0.05750759690999985f,
        0.1664680391550064f, -0.016206733882427216f, 0.4715864360332489f, -0.31052863597869873f,
        0.49569058418273926f, -0.05896488204598427f, -0.48247647285461426f, -0.17611847817897797f,
        0.29290953278541565f, -0.05502455681562424f, -0.7477683424949646f, -0.7449806928634644f,
        -0.08731792122125626f, -0.3478814959526062f, 0.1061646044254303f, 0.34091150760650635f,
        0.49752071499824524f, -1.4278879165649414f, -0.04526274651288986f
    };
    constexpr size_t kWeightIHSize = sizeof(kWeightIH) / sizeof(float);

    // Hidden-to-hidden weights [hidden x 3*hidden] = [9 x 27]
    constexpr float kWeightHH[] = {
        0.11525661498308182f, 0.6589143872261047f, 0.16308119893074036f, -0.44736701250076294f,
        -0.03189338743686676f, -0.1479557305574417f, 0.18253415822982788f, -0.08080007135868073f,
        -0.9788373112678528f, -0.3142144978046417f, -0.09491956979036331f, -0.05581255629658699f,
        0.016370652243494987f, -0.11913515627384186f, 1.1204142570495605f, -0.038380905985832214f,
        0.1270095854997635f, -0.7609812617301941f, 1.4028677940368652f, 0.6464325189590454f,
        0.08162027597427368f, 0.0505477711558342f, 0.06483519077301025f, 0.6837432384490967f,
        2.1535584926605225f, -0.6583212614059448f, 0.4137328267097473f, 0.10434745997190475f,
        -0.07272287458181381f, 0.18175479769706726f, -0.0759267508983612f, -0.250637024641037f,
        0.1128450259566307f, 0.17650289833545685f, 0.16250360012054443f, -0.32939770817756653f,
        -0.1149883046746254f, 0.0248476043343544f, 0.16434291005134583f, -0.08872070908546448f,
        -0.05318576097488403f, 0.16114503145217896f, -0.0022610824089497328f, -0.4355228543281555f,
        0.11316967010498047f, -1.3330628871917725f, 0.7218194603919983f, -0.024220164865255356f,
        -1.2629354000091553f, -0.040130723267793655f, 0.05341748893260956f, 0.13367657363414764f,
        -1.3404124975204468f, 0.17551052570343018f, -0.16618411242961884f, 0.04352058097720146f,
        0.17979450523853302f, -0.17440755665302277f, 0.5504544377326965f, -0.1318121701478958f,
        -0.10564969480037689f, -0.08441170305013657f, -0.31306663155555725f, -0.05909747630357742f,
        0.644970715045929f, -0.044318679720163345f, 0.17413204908370972f, -0.0146641219034791f,
        0.11083924025297165f, 0.14596912264823914f, 0.052627358585596085f, -0.30600881576538086f,
        -0.20945565402507782f, 0.015016544610261917f, 0.31757766008377075f, -0.01714519038796425f,
        0.45605960488319397f, -0.32995808124542236f, 0.12178229540586472f, 0.29139474034309387f,
        -0.5006697773933411f, 0.15023282170295715f, 0.1441282480955124f, -0.056693267077207565f,
        0.07040838152170181f, -0.8772526383399963f, -0.013059881515800953f, 0.064817875623703f,
        0.042674124240875244f, 0.5842106938362122f, -0.38225069642066956f, -0.09134659171104431f,
        -0.16935187578201294f, -0.25889405608177185f, -0.09202181547880173f, 0.49170106649398804f,
        -0.2257867455482483f, 0.21876341104507446f, -0.1014292761683464f, 0.8016671538352966f,
        0.6441765427589417f, -0.28075745701789856f, 0.9095850586891174f, 0.3206409513950348f,
        0.20267000794410706f, 0.13018423318862915f, 0.12309519946575165f, -0.2045082151889801f,
        0.20832060277462006f, -0.9552814960479736f, -0.353631854057312f, 0.033666305243968964f,
        -1.8303231000900269f, 0.26324889063835144f, 0.3707353174686432f, 0.39020949602127075f,
        -0.16754700243473053f, -0.47703686356544495f, 0.12975580990314484f, -0.3626318573951721f,
        -0.42590445280075073f, -0.4810553193092346f, -0.3789706528186798f, -0.47842657566070557f,
        -0.21484975516796112f, 0.05949284881353378f, -0.8300167322158813f, 0.08073917776346207f,
        -0.04454939812421799f, 0.8361613154411316f, 1.61894690990448f, 0.0567285381257534f,
        -0.2539941668510437f, -0.7825270891189575f, -0.00472668232396245f, 1.0191640853881836f,
        -1.3472875356674194f, 0.09920547157526016f, 0.09955485910177231f, -0.6341797113418579f,
        0.11043278872966766f, 0.3385234475135803f, 0.2581668496131897f, 0.5176798701286316f,
        -0.6596070528030396f, 0.5119795799255371f, 0.30907511711120605f, 0.03278370946645737f,
        -0.16609413921833038f, -0.2623066008090973f, -0.4611562490463257f, 0.11427947878837585f,
        0.26000988483428955f, -0.07708374410867691f, 0.5731297731399536f, 0.029094316065311432f,
        -0.07273133099079132f, -0.8601401448249817f, 0.41233885288238525f, -0.5629586577415466f,
        0.16659078001976013f, -0.14073748886585236f, 0.37509506940841675f, 0.1487889140844345f,
        -0.11858949810266495f, 0.07087831944227219f, 0.2735036611557007f, -0.17716388404369354f,
        -0.09307867288589478f, 0.11613527685403824f, -0.4395287334918976f, -0.008842664770781994f,
        -0.1672339290380478f, 0.31537315249443054f, -0.03520191088318825f, -0.2674981951713562f,
        0.29866844415664673f, -0.21457263827323914f, -0.07559972256422043f, -0.29134422540664673f,
        -0.07632139325141907f, 0.16438034176826477f, 0.6953585147857666f, -0.023105358704924583f,
        0.7148849368095398f, 0.3807709813117981f, 1.2270466089248657f, 0.1187874972820282f,
        -0.23942866921424866f, 0.11136514693498611f, -0.14777833223342896f, -0.5078554749488831f,
        -0.1138380840420723f, -0.15143068134784698f, 0.011278903111815453f, 0.02197602204978466f,
        -0.005874227732419968f, -0.1660766899585724f, 0.02274477109313011f, -0.0985950455069542f,
        0.3909055292606354f, -0.23491424322128296f, 0.0843939483165741f, -0.06675313413143158f,
        0.16262459754943848f, -0.15021303296089172f, -0.26822629570961f, 1.2526988983154297f,
        0.34775397181510925f, 0.15493448078632355f, 0.21143701672554016f, 0.006029791198670864f,
        -0.0349152535200119f, -0.6845308542251587f, -0.06219467148184776f, 0.6367154121398926f,
        0.406575471162796f, -0.8065159916877747f, -0.3741682767868042f, -0.03588399663567543f,
        -1.5064218044281006f, 0.2804104685783386f, 0.48911887407302856f, 0.43128424882888794f,
        0.035927824676036835f, -0.3943980038166046f, 0.2694636285305023f, -0.17081515491008759f,
        -0.04263731464743614f, -0.16356860101222992f, -0.10777611285448074f, -0.4365864098072052f,
        -0.05461650714278221f, -0.5749713182449341f, -0.27074748277664185f, -0.06198790296912193f,
        -0.973074734210968f, 0.13153722882270813f, 0.40570488572120667f, 1.3750284910202026f,
        0.15387660264968872f, 0.4259757101535797f, 1.1943823099136353f
    };
    constexpr size_t kWeightHHSize = sizeof(kWeightHH) / sizeof(float);

    // Biases [2 x 3*hidden] = [2 x 27]
    constexpr float kBias[] = {
        -0.28041866421699524f, 1.2571043968200684f, 0.6403751373291016f, 0.08690151572227478f,
        1.4934308528900146f, -0.35028815269470215f, -0.49143001437187195f, -0.4895656108856201f,
        1.1014631986618042f, 0.4520479738712311f, -0.022474439814686775f, -0.048601340502500534f,
        0.366519957780838f, 0.3722822368144989f, 0.2166307419538498f, 0.5753155946731567f,
        0.15795785188674927f, 0.36920756101608276f, -0.8323541283607483f, -0.03967277333140373f,
        -0.1421913504600525f, 0.18015331029891968f, -0.2311353236436844f, 0.4627038240432739f,
        -0.18875837326049805f, -0.40674322843551636f, 0.16267065703868866f, -0.28041866421699524f,
        1.2571043968200684f, 0.6403751373291016f, 0.08690151572227478f, 1.4934287071228027f,
        -0.35028815269470215f, -0.49143001437187195f, -0.4895656108856201f, 1.1014631986618042f,
        0.4475357234477997f, -0.021434111520648003f, -0.04855117201805115f, 0.3662669360637665f,
        0.3732965588569641f, 0.21644414961338043f, 0.5753154754638672f, 0.15866373479366302f,
        0.37739455699920654f, -0.13255757093429565f, -0.004366916138678789f, -0.009892309084534645f,
        0.05774591863155365f, 0.024283472448587418f, 0.0388004370033741f, -0.1363939493894577f,
        -0.03807279095053673f, -0.8816646337509155f
    };
    constexpr size_t kBiasSize = sizeof(kBias) / sizeof(float);

    // Dense output weights [1 x hidden] = [1 x 9]
    constexpr float kDenseW[] = {
        0.06555154174566269f, 0.585723340511322f, 1.1993820667266846f, -0.01910593919456005f,
        -0.3254941701889038f, -0.18385043740272522f, 0.26696881651878357f, 0.7222235202789307f,
        0.28651198744773865f
    };
    constexpr size_t kDenseWSize = sizeof(kDenseW) / sizeof(float);

    // Dense output bias [1]
    constexpr float kDenseB[] = {
        -0.31255820393562317f
    };
    constexpr size_t kDenseBSize = sizeof(kDenseB) / sizeof(float);
} // namespace gru9_klon_bb

namespace gru9_mesa_iic {
    constexpr const char* kName = "Mesa IIC";
    constexpr int kHiddenSize = 9;
    constexpr float kLevelAdjust = 0.6f;

    // Input-to-hidden weights [1 x 3*hidden] = [1 x 27]
    constexpr float kWeightIH[] = {
        0.2814430296421051f, -0.10601122677326202f, -0.04945099353790283f, 0.07485648989677429f,
        -0.6961054801940918f, -0.4910812973976135f, -0.2718484401702881f, -0.01627524197101593f,
        -0.0374501496553421f, 0.3474334478378296f, 0.2117074728012085f, 0.2299647480249405f,
        -0.33109351992607117f, 0.08094002306461334f, 0.7625245451927185f, -1.2907862663269043f,
        -0.20513100922107697f, -0.10652125626802444f, 0.13559933006763458f, -0.2833845913410187f,
        -0.12616285681724548f, 0.9066472053527832f, 0.014374015852808952f, 2.100292682647705f,
        -0.8516016006469727f, 0.06624177098274231f, 0.3447319567203522f
    };
    constexpr size_t kWeightIHSize = sizeof(kWeightIH) / sizeof(float);

    // Hidden-to-hidden weights [hidden x 3*hidden] = [9 x 27]
    constexpr float kWeightHH[] = {
        -0.4776725172996521f, 0.1264982968568802f, 0.061123594641685486f, 0.17677165567874908f,
        0.3383761942386627f, 0.1352197676897049f, -0.01300827693194151f, -0.2117326408624649f,
        -0.1239427775144577f, -0.5578879117965698f, -0.2872251570224762f, 0.014583979733288288f,
        0.0511850081384182f, -0.36074841022491455f, 0.012815308757126331f, -0.14097175002098083f,
        0.2403860092163086f, -0.186992347240448f, 0.7936009168624878f, 0.1315721720457077f,
        -0.09344101697206497f, 0.41951870918273926f, -1.3414226770401f, -0.39534899592399597f,
        -0.5938615798950195f, -0.28687548637390137f, 0.24592068791389465f, 0.24202969670295715f,
        -0.2961297035217285f, -0.28924882411956787f, -1.0012589693069458f, -0.17016802728176117f,
        0.637908935546875f, 0.22267334163188934f, 0.19562414288520813f, 0.01677987165749073f,
        -0.1625237762928009f, 1.643476963043213f, -0.9622370004653931f, -0.7528542876243591f,
        0.020873602479696274f, 0.15811631083488464f, 0.4471014142036438f, -0.13245819509029388f,
        0.1663859486579895f, -1.221631407737732f, -0.6764618754386902f, -1.9000191688537598f,
        0.008442327380180359f, -1.871943712234497f, 0.13248467445373535f, 0.2753685712814331f,
        -0.2792471945285797f, -0.02284853532910347f, -0.10048265755176544f, 0.016355343163013458f,
        0.8672946691513062f, 0.4443272352218628f, 0.3368093967437744f, 0.3292061388492584f,
        -0.0592413954436779f, -0.12017639726400375f, -0.06966695189476013f, -0.022676851600408554f,
        -0.08634122461080551f, -0.5051179528236389f, -2.070610523223877f, -0.5154240131378174f,
        0.010548273101449013f, -0.0167708657681942f, -0.19948066771030426f, 0.23814602196216583f,
        0.02274813875555992f, 0.09759709239006042f, 0.7298426032066345f, -2.269831895828247f,
        0.06186548247933388f, 0.004698357544839382f, -0.02190471813082695f, -0.04125196114182472f,
        0.01881636306643486f, -0.19136415421962738f, -0.23815757036209106f, 0.6888819932937622f,
        0.7656270861625671f, -0.06635772436857224f, 0.3588086664676666f, -0.032963160425424576f,
        -0.24218307435512543f, 0.0018060131696984172f, 0.11984527111053467f, 0.13627071678638458f,
        -1.386063575744629f, 1.327043890953064f, -0.01954427920281887f, -0.003544121515005827f,
        -0.07933732122182846f, 0.10343629866838455f, 0.27592796087265015f, 0.07041879743337631f,
        -0.09671662747859955f, 0.21126490831375122f, 0.95865398645401f, -0.041025493294000626f,
        0.0013416317524388433f, -0.0005313330329954624f, 0.007090425118803978f, -0.2991381585597992f,
        0.10009195655584335f, 0.5169633626937866f, -0.0015973434783518314f, -1.2178750038146973f,
        1.277948260307312f, -0.6836581826210022f, -0.09380525350570679f, 0.023678060621023178f,
        -0.0625782310962677f, 0.05080469697713852f, -1.1588910818099976f, -1.781064748764038f,
        -0.07479068636894226f, -0.1542879045009613f, -0.05529066175222397f, -0.10945872962474823f,
        -0.11709138751029968f, -0.002788121346384287f, 0.7342593669891357f, 1.2173552513122559f,
        -1.0994430780410767f, 0.4908110499382019f, 2.2181060314178467f, -0.0679241269826889f,
        -0.17445135116577148f, 0.19577476382255554f, 0.07862482219934464f, 0.40284812450408936f,
        -1.2446483373641968f, -0.3397694230079651f, 0.22191479802131653f, -0.3410000205039978f,
        -0.5218013525009155f, -0.022151784971356392f, 0.2559012472629547f, -0.06550517678260803f,
        -0.2747061252593994f, -0.9056085348129272f, -0.7935614585876465f, 0.23361186683177948f,
        0.5094031095504761f, -0.05706151947379112f, -1.2930928468704224f, 0.052306149154901505f,
        -0.12074967473745346f, 0.5355346202850342f, -1.5286816358566284f, -1.0710783004760742f,
        -0.9931448698043823f, 2.0995211601257324f, 1.0013189315795898f, -0.37779292464256287f,
        0.3131645917892456f, 0.009836643002927303f, 0.06881941109895706f, -0.47228384017944336f,
        0.03586467355489731f, 0.1897205114364624f, -0.5709006786346436f, 0.6212071776390076f,
        -0.06678985804319382f, 0.13542155921459198f, -0.31338632106781006f, -0.14245696365833282f,
        -0.1893080174922943f, -0.027418246492743492f, -0.6684828996658325f, -0.20925787091255188f,
        -0.1796063929796219f, 1.0326935052871704f, 0.0007892892463132739f, 0.10186822712421417f,
        0.5076878666877747f, -1.319150447845459f, -0.32685545086860657f, 0.7667765021324158f,
        1.724655032157898f, 3.5752015113830566f, 0.34944823384284973f, 0.3560718595981598f,
        0.38612157106399536f, -0.26963722705841064f, 0.1306147575378418f, -0.0420653261244297f,
        0.12350305914878845f, 0.043301060795784f, -0.1247343122959137f, 0.29557833075523376f,
        -0.1791735589504242f, -0.2697601020336151f, 0.36782175302505493f, 0.020023252815008163f,
        0.3946547210216522f, 0.04103904962539673f, -0.06274614483118057f, -0.10222409665584564f,
        0.25905218720436096f, -0.3254704475402832f, -0.24696402251720428f, 0.056852009147405624f,
        0.12636516988277435f, 0.3546000123023987f, 0.11819493025541306f, 0.040822941809892654f,
        -0.3929901719093323f, -0.43078282475471497f, 1.2384212017059326f, -0.7772414684295654f,
        -0.2201954424381256f, 0.36120977997779846f, -0.055914536118507385f, 0.2594129145145416f,
        0.23586688935756683f, 0.16859330236911774f, -0.10293246060609818f, 0.056883350014686584f,
        -0.19537100195884705f, 0.14842155575752258f, 0.1398843377828598f, -0.08113209903240204f,
        0.2720661163330078f, -0.1036592572927475f, 0.041199710220098495f, -0.003946354147046804f,
        -0.15092526376247406f, 0.17666849493980408f, -0.5239841938018799f, 0.048218898475170135f,
        0.45783737301826477f, 0.21446239948272705f, 0.18674954771995544f, -0.10356154292821884f,
        -0.18619294464588165f, 0.5749920010566711f, 1.1640300750732422f
    };
    constexpr size_t kWeightHHSize = sizeof(kWeightHH) / sizeof(float);

    // Biases [2 x 3*hidden] = [2 x 27]
    constexpr float kBias[] = {
        1.4544556140899658f, 0.3116452097892761f, 0.2023361623287201f, -0.7783133387565613f,
        0.1474064290523529f, -0.37509268522262573f, 1.2265702486038208f, 1.5453016757965088f,
        1.5517385005950928f, -0.0994311198592186f, 0.7627780437469482f, 0.6167539358139038f,
        0.4681053161621094f, 0.8334406614303589f, 0.31196537613868713f, -0.9086094498634338f,
        0.4087037742137909f, 0.3023912012577057f, -0.04329086095094681f, -1.0118701457977295f,
        0.10204429924488068f, 0.6014783382415771f, -0.31283214688301086f, 0.016538623720407486f,
        -0.1563028246164322f, -0.05946138873696327f, -0.03175334632396698f, 1.4544686079025269f,
        0.3116452097892761f, 0.2023361623287201f, -0.7783133387565613f, 0.1474064290523529f,
        -0.37509268522262573f, 1.2265706062316895f, 1.5453016757965088f, 1.5517358779907227f,
        -0.09944087266921997f, 0.7628083825111389f, 0.6167539358139038f, 0.4681053161621094f,
        0.8334406614303589f, 0.31196537613868713f, -0.9086100459098816f, 0.4087037742137909f,
        0.3023912012577057f, -0.1834275722503662f, 1.4153164625167847f, -0.03216709941625595f,
        -0.6119195222854614f, 0.3455105423927307f, 0.4000234603881836f, -0.5442468523979187f,
        0.027705200016498566f, 0.006273994687944651f
    };
    constexpr size_t kBiasSize = sizeof(kBias) / sizeof(float);

    // Dense output weights [1 x hidden] = [1 x 9]
    constexpr float kDenseW[] = {
        0.559700608253479f, 0.05602197349071503f, 0.037872590124607086f, -0.5296688079833984f,
        0.040486838668584824f, -0.345439612865448f, 0.6072275638580322f, -1.1746656894683838f,
        -1.3116488456726074f
    };
    constexpr size_t kDenseWSize = sizeof(kDenseW) / sizeof(float);

    // Dense output bias [1]
    constexpr float kDenseB[] = {
        -0.009952176362276077f
    };
    constexpr size_t kDenseBSize = sizeof(kDenseB) / sizeof(float);
} // namespace gru9_mesa_iic

namespace gru9_hak_clean {
    constexpr const char* kName = "HAK Clean";
    constexpr int kHiddenSize = 9;
    constexpr float kLevelAdjust = 1.7f;

    // Input-to-hidden weights [1 x 3*hidden] = [1 x 27]
    constexpr float kWeightIH[] = {
        -0.012616475112736225f, -0.7235372066497803f, -0.4347362816333771f, 0.1892153024673462f,
        -0.08144751191139221f, 0.036260172724723816f, -0.6552191972732544f, 0.22501792013645172f,
        -0.21257677674293518f, -0.10840824246406555f, 0.3135877847671509f, 0.1433219611644745f,
        0.5612328052520752f, 0.12199562788009644f, 0.24716418981552124f, 0.04816562682390213f,
        -0.19276079535484314f, -0.07039432227611542f, -0.021911803632974625f, -0.6911193132400513f,
        -0.03611823171377182f, 1.1240495443344116f, -0.24010713398456573f, 0.38096800446510315f,
        -0.06465018540620804f, -0.04449412226676941f, -0.8703638315200806f
    };
    constexpr size_t kWeightIHSize = sizeof(kWeightIH) / sizeof(float);

    // Hidden-to-hidden weights [hidden x 3*hidden] = [9 x 27]
    constexpr float kWeightHH[] = {
        -0.06873027235269547f, -0.16898947954177856f, -0.0444570891559124f, -0.05785595253109932f,
        0.18334859609603882f, -0.06899290531873703f, -0.02134804241359234f, -0.08113344013690948f,
        0.3541274666786194f, -0.17101676762104034f, 0.4329218864440918f, -0.01149047538638115f,
        -0.24853231012821198f, 0.018187738955020905f, 0.1724725216627121f, -0.23232418298721313f,
        0.5164659023284912f, -0.29107412695884705f, 1.2529988288879395f, 0.530044674873352f,
        0.7836939096450806f, -0.3416409194469452f, 0.9708663821220398f, -0.0037755602970719337f,
        -0.04013848677277565f, -0.19462473690509796f, -0.4484274983406067f, 0.2299157977104187f,
        -0.0008343359222635627f, 0.255938857793808f, 0.02885049395263195f, -0.34060558676719666f,
        0.33023902773857117f, -0.18781906366348267f, -0.19321434199810028f, -0.8284543752670288f,
        0.41753146052360535f, -0.11070365458726883f, -0.05010388419032097f, -0.6573538184165955f,
        -0.007941516116261482f, 0.151602640748024f, -0.4048653244972229f, 0.06196979433298111f,
        0.3122237026691437f, 0.01598399691283703f, 1.1304174661636353f, -0.11414197087287903f,
        0.7169473171234131f, 0.40345078706741333f, -0.10171397030353546f, 0.6032255291938782f,
        1.2270222902297974f, 0.9702175855636597f, -0.18242232501506805f, 0.024363812059164047f,
        -0.37241166830062866f, -0.17790614068508148f, 0.4241403639316559f, 0.1978207677602768f,
        0.2086690366268158f, 0.22681792080402374f, 0.3215771019458771f, -0.3545038104057312f,
        -0.19558987021446228f, -0.10655679553747177f, -0.2435087114572525f, 0.3202384114265442f,
        0.4003159701824188f, 0.5471120476722717f, 0.7150876522064209f, 0.038987256586551666f,
        -0.15816999971866608f, 0.5413448214530945f, 0.8321393728256226f, -0.7883877754211426f,
        -0.020647753030061722f, -0.6130058169364929f, 0.33783018589019775f, 0.08001288026571274f,
        0.5918266773223877f, 0.17112889885902405f, 0.6130213141441345f, 0.2753067910671234f,
        0.006752648390829563f, 0.18762080371379852f, 0.10355701297521591f, -0.11331449449062347f,
        0.20572535693645477f, -0.4727368950843811f, 0.5247183442115784f, -0.1399528980255127f,
        0.0004754884575959295f, 0.09635354578495026f, -0.09567287564277649f, 0.13437438011169434f,
        -0.1533748060464859f, 0.5540616512298584f, -0.15705454349517822f, -0.19679249823093414f,
        0.8184275031089783f, 0.13392741978168488f, 0.14058230817317963f, 0.4944375455379486f,
        -0.5550168752670288f, -0.7396768927574158f, 1.6954541206359863f, -0.932230532169342f,
        -0.023668676614761353f, 0.675629734992981f, -0.05441974848508835f, -0.08879932761192322f,
        0.06921596080064774f, -0.03723474591970444f, -0.5281131267547607f, 0.056799259036779404f,
        -0.2135927975177765f, -0.12000534683465958f, 0.24137315154075623f, 0.2535630464553833f,
        0.6757538914680481f, 0.23991157114505768f, 0.006120685487985611f, 0.128733828663826f,
        -0.3265807330608368f, -0.15207244455814362f, -0.9915776252746582f, -0.048092491924762726f,
        -0.16116130352020264f, 0.011816311627626419f, 0.976834774017334f, 0.9241310358047485f,
        0.2659417688846588f, -0.16820001602172852f, -0.571212112903595f, -0.15575340390205383f,
        0.8410375118255615f, 0.5819616913795471f, 1.1550382375717163f, -0.24565434455871582f,
        0.45346152782440186f, -0.46146947145462036f, 0.2695299983024597f, -0.3470086455345154f,
        -0.32895931601524353f, -0.5937108397483826f, -0.36337947845458984f, -0.07259009778499603f,
        -1.082977056503296f, -0.03971315175294876f, -0.23174071311950684f, 1.4528745412826538f,
        -0.10911118239164352f, -0.06137029826641083f, -0.2458679974079132f, 1.062893271446228f,
        0.3962229788303375f, -0.03130790963768959f, 1.4496126174926758f, -0.5609147548675537f,
        -0.047182660549879074f, 0.8052042126655579f, 0.04714835062623024f, 0.40541428327560425f,
        0.5441996455192566f, -0.4562903940677643f, 0.469580739736557f, -0.16537420451641083f,
        0.2539088726043701f, -0.2202642261981964f, -0.08087678998708725f, -0.08381014317274094f,
        -0.7338921427726746f, 0.07680122554302216f, -0.2654757499694824f, 0.035828523337841034f,
        -0.045658178627491f, -0.3060373365879059f, 1.8292217254638672f, 0.31486812233924866f,
        0.02849375270307064f, 0.20961076021194458f, 0.042317356914281845f, 1.1231101751327515f,
        -0.5564850568771362f, 0.6778684854507446f, 0.6849967241287231f, 0.7233251929283142f,
        -0.5829063653945923f, 0.35141289234161377f, 0.23598448932170868f, -0.41445428133010864f,
        -0.24126484990119934f, 0.18743441998958588f, 0.05150998756289482f, 0.4099934995174408f,
        -0.9526417255401611f, 0.029875000938773155f, 0.047494735568761826f, 0.11841512471437454f,
        0.4339196979999542f, -0.524913489818573f, -0.12553243339061737f, 0.19548968970775604f,
        -0.9040718078613281f, -1.000753402709961f, 0.5055684447288513f, -0.4720092713832855f,
        0.21881863474845886f, -0.5808384418487549f, -0.7905953526496887f, -0.205072820186615f,
        -0.10105918347835541f, 0.4416336417198181f, 0.149427130818367f, -0.5902734398841858f,
        -0.1265595704317093f, -0.6974983215332031f, -0.589733362197876f, -0.5631420016288757f,
        -0.08098999410867691f, 0.2909519672393799f, 0.02365815080702305f, 0.8123101592063904f,
        0.13241107761859894f, -0.31863632798194885f, 0.05568883940577507f, -0.14763833582401276f,
        -0.20235863327980042f, -0.44001731276512146f, -0.08792872726917267f, 0.1786840707063675f,
        -0.08953036367893219f, -0.14256595075130463f, -0.3567928969860077f, -1.005600094795227f,
        -0.5854975581169128f, 0.8719106912612915f, 0.6969981789588928f, -1.66796875f,
        0.6714034676551819f, 0.008103599771857262f, 0.2715536653995514f
    };
    constexpr size_t kWeightHHSize = sizeof(kWeightHH) / sizeof(float);

    // Biases [2 x 3*hidden] = [2 x 27]
    constexpr float kBias[] = {
        2.1089799404144287f, 1.9147611856460571f, 1.5510637760162354f, -0.7253775596618652f,
        1.7663995027542114f, -0.9079530239105225f, 0.5809383988380432f, -0.8258703947067261f,
        -0.5019692778587341f, 0.36737382411956787f, 0.34815865755081177f, 0.5241528749465942f,
        0.14285992085933685f, 0.35320430994033813f, 0.7185850739479065f, 0.14766588807106018f,
        -0.11754479259252548f, 0.4157218635082245f, -0.11846643686294556f, -0.08839821070432663f,
        0.00039527364424429834f, -0.0651460811495781f, 0.009713355451822281f, -0.3718374967575073f,
        -0.0006777336238883436f, 0.1377447545528412f, 0.37929025292396545f, 2.1089799404144287f,
        1.9147611856460571f, 1.5510637760162354f, -0.7253775596618652f, 1.7663995027542114f,
        -0.9079530239105225f, 0.5809383988380432f, -0.8258703947067261f, -0.5019692778587341f,
        0.36721888184547424f, 0.34815871715545654f, 0.524152934551239f, 0.14285992085933685f,
        0.3532487452030182f, 0.7185850739479065f, 0.14766588807106018f, -0.11754470318555832f,
        0.41572752594947815f, 0.35338062047958374f, -0.19249482452869415f, 0.03288188576698303f,
        0.49657508730888367f, 0.14461812376976013f, 0.18022337555885315f, 0.3506242036819458f,
        0.1633845865726471f, -0.0913025364279747f
    };
    constexpr size_t kBiasSize = sizeof(kBias) / sizeof(float);

    // Dense output weights [1 x hidden] = [1 x 9]
    constexpr float kDenseW[] = {
        0.1435343325138092f, -0.09214991331100464f, 0.15903472900390625f, -0.7055106163024902f,
        2.0855002403259277f, 0.31089720129966736f, 0.5753178596496582f, 0.7696769833564758f,
        0.886979341506958f
    };
    constexpr size_t kDenseWSize = sizeof(kDenseW) / sizeof(float);

    // Dense output bias [1]
    constexpr float kDenseB[] = {
        -0.2638515532016754f
    };
    constexpr size_t kDenseBSize = sizeof(kDenseB) / sizeof(float);
} // namespace gru9_hak_clean

namespace gru9_bassman {
    constexpr const char* kName = "Bassman";
    constexpr int kHiddenSize = 9;
    constexpr float kLevelAdjust = 0.8f;

    // Input-to-hidden weights [1 x 3*hidden] = [1 x 27]
    constexpr float kWeightIH[] = {
        -0.0552828311920166f, -0.030351951718330383f, -0.15669558942317963f, -0.015707779675722122f,
        0.1726430356502533f, 0.02735975757241249f, 0.10895262658596039f, -0.05913861468434334f,
        0.058854252099990845f, -0.06770405173301697f, -0.13166548311710358f, -0.0541447214782238f,
        -0.2306060492992401f, 0.06153033301234245f, -0.030178779736161232f, 0.36140143871307373f,
        -0.02121734619140625f, 0.08116284012794495f, 0.37203648686408997f, 0.47551172971725464f,
        -0.11820589005947113f, -0.5386384725570679f, -0.40045833587646484f, 2.2536823749542236f,
        0.7497175335884094f, -0.2842807173728943f, -0.7832939624786377f
    };
    constexpr size_t kWeightIHSize = sizeof(kWeightIH) / sizeof(float);

    // Hidden-to-hidden weights [hidden x 3*hidden] = [9 x 27]
    constexpr float kWeightHH[] = {
        0.15995670855045319f, -0.14914067089557648f, -0.2789002060890198f, -0.002169999061152339f,
        0.3963034451007843f, 0.04536328464746475f, 0.06132527440786362f, -0.30639609694480896f,
        -0.021007409319281578f, -0.036907680332660675f, 0.06018674373626709f, -0.2205009162425995f,
        0.39237722754478455f, 0.07671437412500381f, -0.02492983639240265f, -0.5298923850059509f,
        -0.45884284377098083f, -0.3652490973472595f, 0.5445352792739868f, 0.8665704727172852f,
        -0.1771935224533081f, -0.06727180629968643f, 0.22730723023414612f, -0.060933828353881836f,
        0.49356961250305176f, -0.54501873254776f, 0.2752610146999359f, -0.08952616900205612f,
        -0.03914886713027954f, 0.1616847962141037f, 0.13940176367759705f, 0.22367902100086212f,
        0.009372193366289139f, 0.003930886276066303f, -0.07484900206327438f, -0.020995359867811203f,
        -0.15763244032859802f, -0.011754914186894894f, 0.222540020942688f, -0.4027211666107178f,
        0.08694323897361755f, -0.25667136907577515f, -0.29867294430732727f, -0.5745465755462646f,
        -0.15196749567985535f, 0.06080205738544464f, 0.594179630279541f, 0.8187887072563171f,
        0.04399093613028526f, 0.33194610476493835f, 0.1430671066045761f, -0.07333245873451233f,
        -1.069273591041565f, 1.1513386964797974f, -0.00018313375767320395f, -0.05375399813055992f,
        0.04037374258041382f, -0.059257857501506805f, -0.07088220864534378f, -0.034494295716285706f,
        0.019554760307073593f, 0.13507592678070068f, 0.12269067764282227f, 0.03980719670653343f,
        0.041075028479099274f, -0.019312413409352303f, -0.190115824341774f, 0.30218103528022766f,
        -0.022742291912436485f, 0.6968958377838135f, 0.9035422801971436f, 0.3567427098751068f,
        -0.13775227963924408f, -0.5396113395690918f, 0.8584436774253845f, -1.1192741394042969f,
        0.28346291184425354f, -1.4756187200546265f, -0.22917082905769348f, 0.7323234677314758f,
        -0.47046229243278503f, -0.2616998851299286f, -0.06324409693479538f, -0.022242508828639984f,
        -0.12825201451778412f, 0.022545108571648598f, -0.08264908939599991f, -0.013395559042692184f,
        0.1430538296699524f, 0.041660621762275696f, -0.4740407466888428f, 0.14680759608745575f,
        -0.337575227022171f, 0.16390672326087952f, 0.26086148619651794f, -0.12935954332351685f,
        0.4676373600959778f, 0.9574460983276367f, 0.33745962381362915f, -0.9613723158836365f,
        0.27394357323646545f, -0.020663153380155563f, 0.9768266081809998f, -0.22922095656394958f,
        -0.0470949187874794f, -0.32898861169815063f, 0.9502826929092407f, -0.1762983798980713f,
        -0.13162046670913696f, 0.543434202671051f, -0.1689695417881012f, -0.19010430574417114f,
        0.26236337423324585f, -0.054490044713020325f, 0.0186367928981781f, -0.2210935652256012f,
        0.05643231421709061f, -0.07073281705379486f, 0.09232844412326813f, 0.16085593402385712f,
        1.0859546661376953f, -0.07566172629594803f, 0.22670158743858337f, 0.1670699119567871f,
        0.19761493802070618f, -0.006477236747741699f, 0.04430670291185379f, 0.032578833401203156f,
        0.3071563243865967f, 0.4319645166397095f, 1.4101715087890625f, 0.5148190855979919f,
        0.28692811727523804f, -0.18651056289672852f, -0.3288233280181885f, -0.1188168153166771f,
        0.07647890597581863f, -0.1500750631093979f, 0.11532825976610184f, -0.08173280954360962f,
        0.11618198454380035f, 0.07612345367670059f, -0.012127196416258812f, 0.15218470990657806f,
        -0.13484826683998108f, -0.16330991685390472f, -0.19506894052028656f, -0.09772591292858124f,
        0.18209309875965118f, -0.04956690967082977f, 0.37695959210395813f, 0.3947259485721588f,
        0.08312486112117767f, -0.06945481151342392f, 0.2764538824558258f, 0.9861345291137695f,
        2.241938352584839f, -0.3337174654006958f, 0.29682543873786926f, -0.8206092119216919f,
        0.37482330203056335f, 0.6865255236625671f, -0.05214996263384819f, -0.006532440893352032f,
        -0.06864612549543381f, -0.17452780902385712f, 0.06455828994512558f, -0.04602034017443657f,
        0.040857743471860886f, -0.06944781541824341f, 0.01985010877251625f, -0.04277738183736801f,
        -0.003929737955331802f, -0.5229294896125793f, 0.14630544185638428f, -0.1452445387840271f,
        0.01590707339346409f, 0.06615550071001053f, -0.621452808380127f, -0.2950851321220398f,
        -0.1286786049604416f, -0.022745059803128242f, 0.15557511150836945f, -0.009798585437238216f,
        -0.047067806124687195f, 0.14802446961402893f, 1.2390681505203247f, -0.1838175505399704f,
        0.1953406184911728f, 0.05667920038104057f, -0.0283050574362278f, 0.03178250789642334f,
        -0.09574665129184723f, -0.17807775735855103f, -0.22665703296661377f, -0.35343578457832336f,
        0.4144156575202942f, -0.09480272978544235f, 0.45682981610298157f, 0.01373417116701603f,
        0.4367183744907379f, 0.1680774986743927f, -0.04792090132832527f, -0.008556200191378593f,
        -0.22920013964176178f, -0.40071094036102295f, -0.3322775661945343f, -0.26314595341682434f,
        0.16624504327774048f, -0.2236584722995758f, -0.23046697676181793f, 0.012646827846765518f,
        -0.30076971650123596f, 0.8004752993583679f, 0.4815657138824463f, -0.0629228949546814f,
        -0.1768117994070053f, 0.31786710023880005f, -0.023084886372089386f, 0.07907523214817047f,
        0.04217776283621788f, 0.06982579082250595f, 0.06828603148460388f, -0.19491459429264069f,
        -0.08487904816865921f, -0.235983207821846f, -0.13642166554927826f, 0.4358243942260742f,
        -0.11376588046550751f, 0.053209174424409866f, -0.05504632368683815f, -0.3834777772426605f,
        -1.2233458757400513f, -0.30505573749542236f, 0.3453841507434845f, 0.3678337335586548f,
        -0.45556241273880005f, 0.45243704319000244f, -0.05878376588225365f, -1.026667833328247f,
        0.7402567863464355f, -0.7902718186378479f, 0.5626970529556274f
    };
    constexpr size_t kWeightHHSize = sizeof(kWeightHH) / sizeof(float);

    // Biases [2 x 3*hidden] = [2 x 27]
    constexpr float kBias[] = {
        1.4791090488433838f, 0.8872252106666565f, 1.255505084991455f, -0.6273059844970703f,
        2.0530476570129395f, -0.8202617764472961f, -0.6621493101119995f, -0.2523471713066101f,
        -0.0486859567463398f, 0.15896804630756378f, 0.14054542779922485f, 0.10158023238182068f,
        0.6378490924835205f, 0.16620376706123352f, 0.3358059227466583f, 0.22175993025302887f,
        0.23002469539642334f, 0.4394044876098633f, -0.23089683055877686f, 0.027949901297688484f,
        0.007241227198392153f, 0.015315423719584942f, -0.04764167219400406f, -0.10548243671655655f,
        -0.11819690465927124f, 0.08399385958909988f, 0.3320634663105011f, 1.4791090488433838f,
        0.8872252106666565f, 1.255505084991455f, -0.6273059844970703f, 2.0530476570129395f,
        -0.8202617764472961f, -0.6621493101119995f, -0.2523471713066101f, -0.0486859567463398f,
        0.15723247826099396f, 0.1405564695596695f, 0.10158234089612961f, 0.6378490924835205f,
        0.16658557951450348f, 0.3358058035373688f, 0.22175993025302887f, 0.23002585768699646f,
        0.4395991861820221f, 0.5436006784439087f, -0.1353028416633606f, 0.10029082000255585f,
        0.18212758004665375f, 0.10946966707706451f, 0.13357312977313995f, 0.030321570113301277f,
        -0.07347753643989563f, -0.41494783759117126f
    };
    constexpr size_t kBiasSize = sizeof(kBias) / sizeof(float);

    // Dense output weights [1 x hidden] = [1 x 9]
    constexpr float kDenseW[] = {
        -0.35878172516822815f, -0.35143688321113586f, 0.0438566580414772f, 0.09557642787694931f,
        0.35244128108024597f, -0.5041103959083557f, 0.6719605922698975f, 1.4568132162094116f,
        0.5651177763938904f
    };
    constexpr size_t kDenseWSize = sizeof(kDenseW) / sizeof(float);

    // Dense output bias [1]
    constexpr float kDenseB[] = {
        -0.39557117223739624f
    };
    constexpr size_t kDenseBSize = sizeof(kDenseB) / sizeof(float);
} // namespace gru9_bassman

namespace gru9_5150 {
    constexpr const char* kName = "5150";
    constexpr int kHiddenSize = 9;
    constexpr float kLevelAdjust = 0.6f;

    // Input-to-hidden weights [1 x 3*hidden] = [1 x 27]
    constexpr float kWeightIH[] = {
        -0.10029491037130356f, 0.39539408683776855f, -0.003912642132490873f, 0.15781715512275696f,
        0.30069857835769653f, -0.13050690293312073f, 0.15909086167812347f, 0.19767779111862183f,
        -0.14876919984817505f, 0.010837454348802567f, 0.08312078565359116f, 0.010858718305826187f,
        -0.12213930487632751f, 0.13805551826953888f, 0.002928786678239703f, 0.12726815044879913f,
        -0.047198496758937836f, 0.1211603507399559f, 2.087261199951172f, 2.8326735496520996f,
        -0.9548537135124207f, -0.15895815193653107f, 0.10418925434350967f, 0.3447468876838684f,
        -0.34842681884765625f, 0.4084584712982178f, -0.3318082392215729f
    };
    constexpr size_t kWeightIHSize = sizeof(kWeightIH) / sizeof(float);

    // Hidden-to-hidden weights [hidden x 3*hidden] = [9 x 27]
    constexpr float kWeightHH[] = {
        0.279853880405426f, 0.4110238254070282f, -0.02184336632490158f, -0.026962880045175552f,
        -0.07450610399246216f, -0.101193867623806f, 0.5569225549697876f, 0.051143400371074677f,
        0.021359063684940338f, 0.14612971246242523f, 0.11226102709770203f, -0.15400274097919464f,
        -0.33306899666786194f, 0.014791703782975674f, 0.21884165704250336f, 0.168436661362648f,
        -0.3421862721443176f, 0.21781663596630096f, 0.5456551313400269f, 2.0199341773986816f,
        0.25395116209983826f, 0.662376880645752f, -0.1667630672454834f, 0.6593583226203918f,
        -0.029065201058983803f, 1.4691778421401978f, -0.8024289608001709f, 0.6153132319450378f,
        -0.7782852053642273f, -0.08894426375627518f, 0.041232433170080185f, -0.09748302400112152f,
        0.01737213507294655f, -0.1788269430398941f, -0.4382805824279785f, 0.03455343097448349f,
        -0.18443253636360168f, 0.11979273706674576f, 0.3620227873325348f, -0.3429383337497711f,
        0.32085514068603516f, -0.21725447475910187f, 0.2532190978527069f, 0.21321140229701996f,
        -0.15920071303844452f, -0.34196215867996216f, 1.3450170755386353f, -0.41629987955093384f,
        -0.05839737132191658f, 0.14980284869670868f, 0.2088697850704193f, 0.09886208921670914f,
        3.2822296619415283f, 0.04207422956824303f, 0.19099770486354828f, 0.4569742977619171f,
        0.10507544875144958f, -0.08591914921998978f, -0.4043618142604828f, -0.22017423808574677f,
        -0.14538314938545227f, 0.282324880361557f, -0.1931607723236084f, 0.09280673414468765f,
        -0.35044506192207336f, -0.008585312403738499f, -0.26311779022216797f, -0.34506574273109436f,
        0.12011848390102386f, 0.0844358578324318f, -0.8067481517791748f, 0.1039697676897049f,
        -0.24600349366664886f, -0.4671876132488251f, 0.30354297161102295f, -0.3676024377346039f,
        -0.10936274379491806f, -0.30869895219802856f, 0.37636929750442505f, -0.19903483986854553f,
        0.2858554720878601f, -0.1372983306646347f, -0.11246408522129059f, 0.024203550070524216f,
        0.03544182330369949f, 0.015402376651763916f, -0.11344555765390396f, 0.23464994132518768f,
        0.012833056971430779f, 0.006977436598390341f, -0.07682888954877853f, 0.009238757193088531f,
        -0.10515128076076508f, 0.3502405881881714f, 0.26007577776908875f, -0.025113027542829514f,
        -0.07813632488250732f, 1.2120518684387207f, -0.06614027917385101f, -0.16352851688861847f,
        0.034074317663908005f, -0.3733396828174591f, 1.2140898704528809f, 0.0671117752790451f,
        -0.1901351660490036f, 0.12513042986392975f, -0.1401376724243164f, -0.22061866521835327f,
        -0.09837669879198074f, -0.07296714931726456f, 0.07415425777435303f, 0.12249387055635452f,
        0.19059647619724274f, -0.2786470949649811f, -0.17998622357845306f, -0.0587153322994709f,
        0.15234634280204773f, -0.32049474120140076f, 0.1664508730173111f, -0.14225755631923676f,
        0.15546996891498566f, 0.2856215834617615f, 0.38924160599708557f, -0.5475407838821411f,
        0.6039764881134033f, 0.669295608997345f, -0.07302369922399521f, -0.21606475114822388f,
        -0.38145944476127625f, 0.6767429113388062f, 1.1490588188171387f, 0.23141732811927795f,
        -0.3881435692310333f, -0.3343243896961212f, 0.029835257679224014f, 0.10364783555269241f,
        0.20524707436561584f, -0.12378998845815659f, 0.09323004633188248f, 0.5847142934799194f,
        -0.11467412859201431f, -0.19085516035556793f, 0.20209373533725739f, -0.08638408780097961f,
        0.01776629127562046f, -0.15625716745853424f, 0.075813427567482f, 0.18972429633140564f,
        0.25511687994003296f, 0.29399004578590393f, -0.29910117387771606f, -0.10164934396743774f,
        -0.042859964072704315f, -0.8418867588043213f, -0.8348802328109741f, 0.5251724720001221f,
        0.5052580833435059f, 0.12604670226573944f, 1.0433142185211182f, 0.384372740983963f,
        -0.30932149291038513f, -0.19716787338256836f, 0.33046185970306396f, 0.4767293632030487f,
        -0.1625777781009674f, 0.19637633860111237f, 0.2989841103553772f, 0.07176392525434494f,
        0.11505020409822464f, 0.4257659614086151f, 0.08635949343442917f, 0.3250618577003479f,
        -0.1283242553472519f, 0.11305569112300873f, -0.2142220139503479f, 0.2456805258989334f,
        0.24307163059711456f, 0.1461387276649475f, -0.5634647011756897f, -0.05678092688322067f,
        0.5646246075630188f, -0.0471145324409008f, -0.039803069084882736f, 0.0685255229473114f,
        -0.28412994742393494f, -0.031454917043447495f, 1.2988535165786743f, -0.3542329967021942f,
        -0.2897058129310608f, 0.2751341462135315f, -0.28562626242637634f, -0.01655545085668564f,
        -0.14892946183681488f, -0.055001065135002136f, -0.006849923171103001f, 0.006312100682407618f,
        0.1873953640460968f, -0.10183747857809067f, 0.07786726206541061f, -0.11563515663146973f,
        -0.02083977311849594f, 0.025995932519435883f, -0.07936025410890579f, 0.18506909906864166f,
        -0.10047942399978638f, -0.17354829609394073f, -0.2230573147535324f, 0.1424405872821808f,
        -0.22878959774971008f, 0.23047930002212524f, 0.42666730284690857f, 0.027816172689199448f,
        -0.3525228202342987f, 0.016032511368393898f, 0.3477236330509186f, -0.38176479935646057f,
        -0.33333343267440796f, -0.6075897812843323f, 0.01697651669383049f, -0.378978431224823f,
        -0.19345541298389435f, 0.149247407913208f, 0.2778279781341553f, -0.5271709561347961f,
        0.3874778747558594f, 0.12028679251670837f, 0.35273537039756775f, 0.3670301139354706f,
        0.4426630139350891f, -0.04335176572203636f, -0.07593750208616257f, -0.15744592249393463f,
        0.33702242374420166f, -0.20504538714885712f, 0.9893298745155334f, 0.5818567276000977f,
        -0.36911237239837646f, 1.0018742084503174f, -0.3915467858314514f, -0.483379065990448f,
        0.025392325595021248f, -0.32757896184921265f, 0.3506688177585602f
    };
    constexpr size_t kWeightHHSize = sizeof(kWeightHH) / sizeof(float);

    // Biases [2 x 3*hidden] = [2 x 27]
    constexpr float kBias[] = {
        -0.6570056676864624f, -0.7625259757041931f, -0.4935401380062103f, 0.3882617950439453f,
        1.6678688526153564f, 1.1328665018081665f, 0.7226774096488953f, -0.6539076566696167f,
        1.1644433736801147f, 0.4385550320148468f, 0.7962636947631836f, 0.10724996030330658f,
        0.36334332823753357f, 0.2530021369457245f, 0.17276468873023987f, 0.22074736654758453f,
        0.5745679140090942f, 0.11506269872188568f, -0.12087058275938034f, -0.22438204288482666f,
        -0.12205783277750015f, -0.3330017924308777f, 0.12413868308067322f, -0.07059116661548615f,
        0.06413894891738892f, -0.21534445881843567f, 0.1563182920217514f, -0.6570056676864624f,
        -0.7625259757041931f, -0.4935401380062103f, 0.3882596790790558f, 1.672628402709961f,
        1.1337413787841797f, 0.7226774096488953f, -0.6539076566696167f, 1.1628081798553467f,
        0.4378686547279358f, 0.7965229153633118f, 0.09567991644144058f, 0.36506515741348267f,
        0.2470959722995758f, 0.13386721909046173f, 0.22055870294570923f, 0.574568510055542f,
        0.05572935566306114f, -0.1475081890821457f, 0.05165950208902359f, -0.1899762749671936f,
        0.09854485094547272f, -0.2138112634420395f, 0.10794822871685028f, -0.09042128175497055f,
        0.1349363476037979f, 0.09115724265575409f
    };
    constexpr size_t kBiasSize = sizeof(kBias) / sizeof(float);

    // Dense output weights [1 x hidden] = [1 x 9]
    constexpr float kDenseW[] = {
        -0.21571148931980133f, 0.009336142800748348f, 1.1046335697174072f, 0.7788750529289246f,
        -0.7268757224082947f, 0.008250449784100056f, -0.15866594016551971f, 0.5746699571609497f,
        0.7435592412948608f
    };
    constexpr size_t kDenseWSize = sizeof(kDenseW) / sizeof(float);

    // Dense output bias [1]
    constexpr float kDenseB[] = {
        0.1311880350112915f
    };
    constexpr size_t kDenseBSize = sizeof(kDenseB) / sizeof(float);
} // namespace gru9_5150

namespace gru9_splawn {
    constexpr const char* kName = "Splawn";
    constexpr int kHiddenSize = 9;
    constexpr float kLevelAdjust = 0.5f;

    // Input-to-hidden weights [1 x 3*hidden] = [1 x 27]
    constexpr float kWeightIH[] = {
        -0.1962304264307022f, -0.1355326771736145f, -0.2770193815231323f, -0.026640359312295914f,
        -0.32773613929748535f, -0.032444391399621964f, -0.19838671386241913f, -0.03420368954539299f,
        0.07451529055833817f, -0.15546947717666626f, -0.0015930901281535625f, -0.14246152341365814f,
        -0.31645432114601135f, 0.09271357953548431f, 0.28320756554603577f, -0.16182054579257965f,
        0.038472067564725876f, -0.14872537553310394f, 0.4264770746231079f, -0.9290569424629211f,
        0.33339518308639526f, 0.36250436305999756f, 2.993844985961914f, 3.2608554363250732f,
        -1.0870774984359741f, -0.008460208773612976f, 0.16107945144176483f
    };
    constexpr size_t kWeightIHSize = sizeof(kWeightIH) / sizeof(float);

    // Hidden-to-hidden weights [hidden x 3*hidden] = [9 x 27]
    constexpr float kWeightHH[] = {
        -0.027524592354893684f, 0.22197243571281433f, -1.139214038848877f, -0.4078858196735382f,
        -0.47172272205352783f, -0.11344176530838013f, 0.7284901142120361f, 0.20500048995018005f,
        -0.04185975342988968f, 0.31803059577941895f, 0.37160950899124146f, 0.05201788246631622f,
        0.01207520067691803f, 0.29934701323509216f, 0.26072925329208374f, -0.04065680876374245f,
        0.10075835883617401f, 0.03044736757874489f, 0.7957772016525269f, -0.16138383746147156f,
        1.057283878326416f, -0.5710352063179016f, -1.6380332708358765f, -1.2685195207595825f,
        0.7969703078269958f, 0.013082528486847878f, 0.05098795145750046f, 0.9031445384025574f,
        -0.6511954069137573f, 0.13682380318641663f, -0.5169990062713623f, -1.4459470510482788f,
        0.49328991770744324f, 0.9079595804214478f, 0.011867444962263107f, 0.0033708014525473118f,
        0.16404539346694946f, 1.489447832107544f, -0.376074880361557f, 0.7988923788070679f,
        -1.1219359636306763f, -0.0711074098944664f, 0.7222583889961243f, -0.010381923988461494f,
        0.15066640079021454f, -0.14460253715515137f, -1.0689893960952759f, -0.2610788345336914f,
        -0.4348083734512329f, -2.319446086883545f, 0.4771786332130432f, 0.7259414196014404f,
        -0.06709892302751541f, 0.042649801820516586f, 0.3229622542858124f, -0.07200372219085693f,
        0.14209279417991638f, -0.17696869373321533f, -0.13050910830497742f, -0.12933368980884552f,
        0.2067319005727768f, 0.3414038419723511f, 0.12222814559936523f, 0.10561681538820267f,
        -0.07987423241138458f, 0.6149351000785828f, -0.23609435558319092f, 0.14508233964443207f,
        0.04395386576652527f, -0.27764689922332764f, 0.4104359745979309f, 0.11053051054477692f,
        -0.0364856980741024f, 0.15137460827827454f, 1.217787742614746f, -0.7010959386825562f,
        0.08042117208242416f, -3.828636181424372e-05f, -0.026667427271604538f, 0.21672670543193817f,
        -0.3421209156513214f, 0.26511773467063904f, -0.5924402475357056f, 0.3209276497364044f,
        -0.19019196927547455f, -0.5278565883636475f, -0.5044956803321838f, 0.18484970927238464f,
        0.2133544534444809f, 0.2489071488380432f, 0.32209277153015137f, -0.13611194491386414f,
        -0.3602774441242218f, -0.051932621747255325f, 0.39190927147865295f, 0.0822751447558403f,
        -0.42682692408561707f, 0.058555517345666885f, 0.4296930730342865f, 0.21663546562194824f,
        0.3250330686569214f, 0.09410503506660461f, 0.11239167302846909f, 0.002089698100462556f,
        0.06054902449250221f, 0.11345445364713669f, 0.3847461938858032f, -0.38146063685417175f,
        0.12650994956493378f, 0.08593269437551498f, -0.21439945697784424f, 0.13020479679107666f,
        -1.7263695001602173f, -1.7269773483276367f, 0.019987022504210472f, 0.11445435881614685f,
        -0.07362867146730423f, 0.3690851926803589f, -2.465437173843384f, -1.2924649715423584f,
        0.26227304339408875f, -0.6523703932762146f, 0.3553270697593689f, -0.22717048227787018f,
        0.08542075008153915f, -0.27077484130859375f, 0.8103504180908203f, 1.9631215333938599f,
        -2.5850296020507812f, 1.547258973121643f, 2.975011110305786f, -0.4287436604499817f,
        -0.39541375637054443f, -0.032461997121572495f, -0.022953007370233536f, 0.26470470428466797f,
        -0.22158563137054443f, 0.0028730689082294703f, -0.34109601378440857f, -0.7592737674713135f,
        -0.5777950882911682f, 0.3360382914543152f, -0.09993843734264374f, -0.05681144818663597f,
        -0.2873036861419678f, -0.4406214952468872f, 0.17392390966415405f, 0.4898023307323456f,
        -0.3069523274898529f, 0.3198238015174866f, 0.6525458693504333f, 0.06391310691833496f,
        0.02406768687069416f, 0.6604233980178833f, -0.3841896951198578f, 0.8002927303314209f,
        -0.2679363787174225f, 3.402167320251465f, -0.44198116660118103f, -1.1851885318756104f,
        0.14807407557964325f, -0.07971101254224777f, 0.01752319000661373f, 0.18374748528003693f,
        -0.7158287763595581f, -0.02686416544020176f, -0.6746514439582825f, -0.33210137486457825f,
        0.42791885137557983f, -0.009503907524049282f, -0.0272202268242836f, 0.31841230392456055f,
        -0.48059898614883423f, 0.2830291986465454f, -0.5168306231498718f, -0.054303884506225586f,
        -0.09494924545288086f, 0.12672720849514008f, -0.011610278859734535f, 0.040327899158000946f,
        0.6102017164230347f, -0.7066671252250671f, 0.021327031776309013f, 0.41988107562065125f,
        1.9918591976165771f, 3.4591245651245117f, 0.6946906447410583f, -0.02234477363526821f,
        0.17047686874866486f, -0.13662776350975037f, -0.01768340729176998f, -0.20407211780548096f,
        0.1330774575471878f, -0.028080351650714874f, 0.00451979273930192f, 0.21728071570396423f,
        -0.027602363377809525f, 0.04410528391599655f, -0.3046717643737793f, 0.017058949917554855f,
        -0.04613382741808891f, 0.19609542191028595f, -0.2186194360256195f, -0.6114206314086914f,
        -0.42649370431900024f, 0.24700169265270233f, -0.0056807068176567554f, 0.22170479595661163f,
        0.06457627564668655f, -0.26201027631759644f, -0.050230804830789566f, -0.21863198280334473f,
        -0.29225125908851624f, 0.12402655184268951f, 1.1420036554336548f, -0.9628114700317383f,
        0.03353501111268997f, -0.04973694682121277f, 0.1617184579372406f, 0.2387598603963852f,
        -0.07009554654359818f, 0.052098993211984634f, -0.21875831484794617f, 0.12748116254806519f,
        0.11153358221054077f, 0.13384290039539337f, 0.15491782128810883f, -1.9108493328094482f,
        -0.6965234875679016f, 0.1296902447938919f, -0.0025165663100779057f, 0.2260102927684784f,
        0.21223454177379608f, 0.14853651821613312f, -0.5169532895088196f, -0.22295399010181427f,
        0.34596478939056396f, 0.20344090461730957f, -0.014062924310564995f, -0.1367579847574234f,
        -0.10022738575935364f, 0.662987232208252f, 1.4477633237838745f
    };
    constexpr size_t kWeightHHSize = sizeof(kWeightHH) / sizeof(float);

    // Biases [2 x 3*hidden] = [2 x 27]
    constexpr float kBias[] = {
        2.0609941482543945f, -0.6399329304695129f, -0.08864486217498779f, 0.20826853811740875f,
        -0.9970732927322388f, -0.7389999032020569f, 1.6598868370056152f, 1.9578510522842407f,
        1.6268224716186523f, 0.17324931919574738f, 0.8972873091697693f, 0.9106922149658203f,
        0.2138533890247345f, 1.1183505058288574f, 0.8165175318717957f, -0.19522859156131744f,
        0.21931886672973633f, 0.5094407796859741f, 0.20262053608894348f, -1.2791446447372437f,
        0.37031975388526917f, 0.5160494446754456f, -0.14140361547470093f, 0.08626745641231537f,
        -0.047812435775995255f, -0.11191973835229874f, 0.12530671060085297f, 2.061035633087158f,
        -0.6399329304695129f, -0.08864486217498779f, 0.20826853811740875f, -0.9970732927322388f,
        -0.7389999032020569f, 1.659889817237854f, 1.9578510522842407f, 1.6267966032028198f,
        0.17323251068592072f, 0.8974360227584839f, 0.9106932878494263f, 0.21385356783866882f,
        1.1183505058288574f, 0.8165175318717957f, -0.19522970914840698f, 0.2193187177181244f,
        0.5094400644302368f, -0.17801499366760254f, 1.1853747367858887f, -0.49953359365463257f,
        -0.07018504291772842f, 0.5975275635719299f, 0.43096187710762024f, -0.22361980378627777f,
        -0.03789837658405304f, -0.008905002847313881f
    };
    constexpr size_t kBiasSize = sizeof(kBias) / sizeof(float);

    // Dense output weights [1 x hidden] = [1 x 9]
    constexpr float kDenseW[] = {
        -0.18492355942726135f, 0.1578197330236435f, -0.9123080372810364f, -1.2465184926986694f,
        0.05437188595533371f, -0.3180641233921051f, 0.8285513520240784f, -0.3889249265193939f,
        -0.9665180444717407f
    };
    constexpr size_t kDenseWSize = sizeof(kDenseW) / sizeof(float);

    // Dense output bias [1]
    constexpr float kDenseB[] = {
        0.7220124006271362f
    };
    constexpr size_t kDenseBSize = sizeof(kDenseB) / sizeof(float);
} // namespace gru9_splawn
