#pragma once
// Auto-generated from AIDA-X model: MESA_MK3_HIGAIN_LIGHT_MELODISAMPO
// Architecture: LSTM-12
// DO NOT EDIT - regenerate using convert_aidax_to_cpp.py

#include <cstddef>

namespace EmbeddedModels {
namespace MESA_MK3_HIGAIN_LIGHT_MELODISAMPO {

constexpr const char* kName = "MESA_MK3_HIGAIN_LIGHT_MELODISAMPO";
constexpr const char* kArchitecture = "LSTM";
constexpr int kHiddenSize = 12;
constexpr int kInputSize = 1;
constexpr int kOutputSize = 1;

// Input kernel weights: shape (input_size, 4 * hidden_size)
constexpr float kKernel[] = {
    0.03597775f, -0.34382287f, 0.15399155f, 0.08711370f, -0.09431005f, 0.50082058f, 0.03142821f, -0.12147614f,
    0.41030920f, -0.27982292f, 0.05228966f, -0.18530278f, -0.22248125f, -0.02627188f, 0.12222628f, 0.01570547f,
    0.07723032f, 0.50973517f, -0.15739568f, 0.21520293f, 0.41122043f, 0.30293462f, 0.22669896f, -0.32028708f,
    0.25087196f, 0.51635259f, -0.19905081f, -0.04513763f, 0.23781891f, 0.01163722f, 0.00179887f, 0.04605227f,
    0.22051208f, 2.44363761f, 0.62215424f, 0.29231605f, -0.00550745f, 0.14545321f, 0.31663758f, -0.12071674f,
    0.05860866f, -0.20135827f, -0.03973598f, -0.02701365f, -0.46738273f, 0.09117411f, 0.20281652f, 0.34878719f
};
constexpr size_t kKernelSize = sizeof(kKernel) / sizeof(kKernel[0]);

// Recurrent kernel weights: shape (hidden_size, 4 * hidden_size)
constexpr float kRecurrent[] = {
    0.05898358f, -0.02969803f, 0.23968948f, -0.03196619f, -0.77857393f, -0.46042687f, 0.29246163f, 0.02001691f,
    0.13641517f, 0.15668212f, -0.24209301f, -0.05611683f, 0.97470951f, 0.05313321f, 0.19455409f, 0.26709628f,
    0.36497036f, 0.21123222f, -0.07080083f, -0.11050586f, 0.41176471f, -0.00818360f, 0.23140022f, -0.12114812f,
    0.93051678f, -0.11035652f, 0.28289270f, 0.19313994f, 0.08193827f, -0.18546213f, 0.44575322f, -0.50948298f,
    -0.25907502f, -0.00190962f, -0.10898250f, 0.41716138f, -0.29867804f, 0.27971834f, -0.30576602f, -0.36011937f,
    0.38597965f, -0.36884481f, 0.39036578f, 0.14009602f, 0.46030205f, 0.03081654f, 0.03133264f, -0.19246787f,
    -0.10870323f, -0.45392996f, 0.16221975f, -0.09795268f, -0.10008770f, -0.33021849f, 0.02419157f, -0.10226766f,
    0.12427933f, -0.61319339f, 0.11567939f, 0.07689497f, 0.66471505f, 0.05554671f, -0.01021004f, -0.07790676f,
    -0.10095589f, -0.58515805f, -0.04428519f, -0.02393618f, -0.40444908f, 0.57871765f, -0.13311559f, 0.05458450f,
    -0.68172395f, -0.36962190f, 0.09974042f, 0.07577981f, -1.69876671f, 0.46180195f, 0.11130399f, 0.08690136f,
    -0.35296527f, -0.42289987f, -0.52721691f, -0.09698032f, 0.06947432f, -0.09344213f, -0.20946671f, -0.06015196f,
    -0.14478257f, -0.35709760f, 0.08169892f, 0.06710585f, -0.11104707f, 0.60814101f, 0.37459716f, 0.75910133f,
    -0.48183843f, 0.33057520f, -0.00258632f, 0.46065319f, -0.44982281f, -0.19451959f, 0.40215179f, 0.11634737f,
    0.32627124f, -0.06329270f, 0.34516194f, 0.32440618f, 0.37553206f, -0.44184729f, -0.47438255f, -0.42664102f,
    0.04867334f, -0.07304707f, 0.36137855f, -1.13101149f, -0.30980399f, 0.06655011f, -0.36766818f, 0.02948402f,
    -0.15370022f, -0.12954816f, 0.41315541f, -0.05386288f, -0.37347990f, 0.06064249f, 0.86219221f, -0.09995139f,
    0.02505761f, 0.07884219f, -0.25338864f, -0.48485970f, 0.11904228f, -0.35939017f, -0.62721515f, -0.42000806f,
    -0.44644907f, -0.28219190f, 0.30697042f, 0.53098518f, -0.54181558f, -0.03935705f, -0.15845755f, -0.30122215f,
    -0.33069226f, 0.18674102f, 0.18752803f, -0.29947552f, -0.11116988f, -0.22796221f, 0.52161461f, 0.54222608f,
    0.35590282f, -0.07142036f, -0.02765535f, 0.49429861f, 0.21921705f, -0.18524072f, 0.18262503f, -0.39691433f,
    0.10378778f, -0.15179935f, 0.35548180f, -0.50600749f, -0.76262164f, -0.12956870f, 0.05562225f, 0.22186498f,
    0.33442172f, -0.07060826f, 0.11135764f, 0.02739407f, -0.15743625f, -0.15624899f, 0.16347827f, 0.81583101f,
    -0.22455299f, 0.02310092f, 0.09102425f, -0.35097766f, 0.31849030f, 0.05307566f, 0.37886378f, -0.87877274f,
    -0.31572261f, -0.32757753f, 0.64079368f, -0.59509724f, -0.35950243f, 0.03750260f, -0.11156442f, -0.02812518f,
    0.17472152f, -0.81120431f, -0.29871318f, -0.30829191f, 0.60755813f, 1.74069893f, -0.66417885f, -0.24947841f,
    0.12637226f, -0.93968433f, -0.16179866f, -0.10068589f, 0.32323319f, 0.68722957f, 0.38610411f, -0.09496440f,
    0.44856033f, 0.01333592f, -0.27534801f, 0.17049035f, 0.73609626f, 0.05352914f, -0.06264123f, 0.05013223f,
    -4.00365067f, 0.40216321f, -0.01075336f, 0.19235536f, 0.66282427f, -1.86590242f, 0.16850801f, 0.09117105f,
    1.40309024f, -0.24375397f, 0.37593931f, 0.22856781f, 0.18225257f, -0.29429743f, -0.72735721f, 0.16729368f,
    -0.07790361f, 0.14380999f, 1.05183709f, 0.70025194f, 0.04185280f, 0.58573681f, 0.30716005f, -1.50020301f,
    0.61747056f, -2.70660853f, -0.23677069f, -0.18188751f, 0.12497994f, 0.56678087f, -0.05340374f, -0.10557692f,
    -1.06471610f, 0.31595382f, -1.18399143f, -0.34278193f, 0.51362532f, 0.27398413f, 0.38266039f, 0.17475401f,
    1.41950953f, -0.31981874f, -0.38876334f, 0.64697868f, 2.16433072f, -0.28256592f, 1.15683305f, 0.27485421f,
    0.17167275f, -0.56434798f, 0.20670648f, 0.16743673f, 0.16043229f, -0.25374073f, 0.11141649f, -0.15865178f,
    -0.17334272f, -0.06865340f, -0.08352443f, 0.09938384f, 0.15241072f, 0.63597780f, -0.17797051f, 0.08579481f,
    0.84759593f, 0.45217770f, 0.07601508f, 0.67263871f, 0.21170168f, 0.47358602f, 0.06994642f, -0.03891887f,
    0.26927042f, -1.02530003f, 0.12587108f, 0.02186199f, 0.86907977f, -0.16562769f, -0.07369126f, -0.11505642f,
    -0.89362025f, 0.05744965f, -0.21207353f, -0.22716321f, -0.79039228f, 0.19821182f, 0.63794219f, 0.46278405f,
    0.34133667f, -0.64922082f, 0.01480351f, 0.55042899f, 0.38728335f, 0.03746162f, 0.27491093f, 0.23354869f,
    -0.93086320f, -0.00949476f, -0.27549091f, -0.71998072f, -0.12978908f, 0.29874107f, -0.08341017f, 0.41976362f,
    0.17209914f, 0.03505618f, 0.13739614f, -0.15662637f, -0.36957732f, 0.35247725f, 0.56334692f, -0.55123711f,
    0.10692883f, -0.16633226f, 0.53570765f, -0.31777859f, 0.04755054f, 0.42081636f, -0.00277599f, 0.01333640f,
    0.27314982f, -0.11377934f, -0.16435480f, 0.50639176f, 0.24899052f, 0.10357442f, -0.11589886f, 0.37437892f,
    -0.32091069f, 0.03877354f, 0.12023979f, 0.00802658f, 0.05988428f, -0.19776188f, 0.15947583f, 0.25382933f,
    0.12847741f, -0.12982766f, -0.12140004f, 0.24476920f, 0.14935091f, 0.30978364f, 0.09891856f, 0.13059042f,
    -0.15435098f, -0.23831709f, 0.03658557f, -0.99493659f, -0.59880102f, 0.00476341f, -0.23785827f, -0.00433080f,
    0.21411911f, 0.39166069f, 0.11528901f, -0.10144869f, 0.01067961f, -0.01567031f, 0.07407202f, 0.47775239f,
    0.24314654f, 0.20091490f, 0.17826934f, 0.66606492f, -0.12601939f, 0.29367062f, -0.22137755f, -0.15061693f,
    0.66723013f, -0.31928793f, -0.60965168f, -0.32685712f, 0.57220745f, -0.64728761f, -0.13868015f, -0.43787426f,
    0.59709054f, -0.02950343f, -1.05643451f, -0.84993321f, 0.09942404f, 0.20800312f, 0.14466962f, 0.91295463f,
    0.46527374f, -0.43890354f, 0.32115895f, 0.65083402f, 1.20039785f, 0.06615974f, 0.80986923f, -0.23884821f,
    1.15171182f, 0.32962370f, -0.56470734f, 0.14133984f, -1.19207048f, 0.56556612f, -0.14588931f, -0.25025299f,
    0.07471440f, -0.58617616f, -0.05946240f, 0.68126607f, -0.55289543f, 0.24741644f, -0.10176660f, -0.21597078f,
    0.51023257f, 0.27823895f, 0.37690204f, 0.11537405f, 0.81242597f, 0.71862274f, 0.38628343f, -0.09839446f,
    0.10320458f, -0.09056465f, -0.11489726f, 0.27739084f, -0.20140342f, 0.98890811f, 0.16825764f, 0.13943245f,
    0.05463925f, -0.22505319f, -0.24500875f, -0.42237183f, -0.12356272f, 0.18224318f, -0.05514643f, 0.18042421f,
    -0.44643876f, 0.33885545f, 0.07882851f, 0.44322202f, 0.56460810f, -0.17490092f, 0.02276400f, -0.97287619f,
    2.26243520f, 0.33486837f, 0.25804931f, -0.18101183f, 1.84931099f, -0.71788025f, 0.00689864f, -0.26127017f,
    -0.53337508f, -0.18494119f, 0.43417951f, 0.02751710f, -0.15524130f, 0.33740076f, 0.99589837f, 0.18087827f,
    0.11147528f, 0.03249649f, -0.37344313f, -0.78538913f, 0.12261106f, 0.25719884f, 0.31851950f, 0.74265265f,
    0.20543095f, 1.41667509f, 0.08256827f, 0.04929767f, 0.02835585f, -0.23494454f, -0.00012865f, -0.02936769f,
    0.00318930f, -0.80242145f, 0.55309927f, 0.05706842f, -0.01709980f, 0.02647917f, -0.03876146f, -0.23825863f,
    -0.02137110f, -0.26174918f, 0.28049475f, 0.15032838f, -0.23497038f, -0.44858491f, -0.07548501f, 0.00184895f,
    -0.53611308f, -0.20439588f, 0.28112653f, -0.09857965f, -1.01496696f, 0.81899554f, -0.05364694f, 0.06738466f,
    -0.34310883f, -0.82561642f, 0.20363624f, -0.14706135f, 0.07778863f, 0.29011968f, -0.13775299f, 0.23753496f,
    0.19978406f, -0.15549357f, -0.04999160f, -0.42984557f, -0.31300122f, 0.16946822f, -0.10022029f, -0.13683574f,
    0.67777902f, -0.99140209f, -0.55144167f, -0.50650364f, 0.13593958f, 0.29473993f, 0.16873510f, -1.08663821f,
    -1.80771184f, 1.15855312f, -0.85081840f, 0.06057353f, 0.36593166f, 0.85262585f, 0.32054967f, 0.79410803f,
    0.19700436f, 0.25544274f, 0.49626806f, 1.52614331f, 1.25562191f, 0.11385908f, 1.19691908f, 0.70483160f,
    0.45002589f, 0.01173390f, -0.31365055f, -0.00337194f, 0.37335873f, 0.30182728f, 0.30115721f, -0.07525658f,
    -0.52395219f, 0.00587141f, -0.05755361f, 0.90123183f, -0.05118963f, 0.82466775f, 0.33057788f, 0.41330740f,
    0.81211257f, 0.55704451f, 0.03254646f, -0.07438175f, 0.84894061f, 0.02028063f, 0.19190595f, 1.02981055f
};
constexpr size_t kRecurrentSize = sizeof(kRecurrent) / sizeof(kRecurrent[0]);

// Bias: shape (4 * hidden_size,)
constexpr float kBias[] = {
    1.80292058f, -0.55496538f, -0.73100764f, -2.05925941f, 0.89257443f, 0.42851478f, 0.15819952f, -3.06554365f,
    -2.76341748f, 0.51396608f, -1.85781217f, 0.10907152f, 1.16855216f, 1.92551827f, 1.39805174f, 2.41569948f,
    -0.74987525f, 0.26012978f, 1.35825217f, 2.97040653f, 2.61680293f, 0.02156990f, 2.42335558f, 1.36515403f,
    -0.38694200f, -0.17445025f, 0.06106234f, 0.21297668f, 0.30207235f, 0.85330009f, 0.67829573f, 0.58050621f,
    0.33340919f, 0.59062850f, -0.10337279f, -0.25242302f, 0.77027249f, 0.99087733f, 0.46379834f, 0.24053472f,
    1.20105803f, 1.44453406f, 0.74655432f, -0.37276286f, 0.68618643f, 1.21224570f, 0.45715719f, 1.35466063f
};
constexpr size_t kBiasSize = sizeof(kBias) / sizeof(kBias[0]);

// Dense output weights: shape (hidden_size, output_size)
constexpr float kDenseW[] = {
    -0.75841743f, 0.01638355f, -0.27442163f, 1.12851512f, -0.00865130f, 0.01342949f, 1.01743019f, -0.63728410f,
    -0.14162169f, -0.01096017f, -0.04284177f, 0.05084131f
};
constexpr size_t kDenseWSize = sizeof(kDenseW) / sizeof(kDenseW[0]);

// Dense output bias: shape (output_size,)
constexpr float kDenseB[] = {
    0.19465618f
};
constexpr size_t kDenseBSize = sizeof(kDenseB) / sizeof(kDenseB[0]);

} // namespace MESA_MK3_HIGAIN_LIGHT_MELODISAMPO
} // namespace EmbeddedModels
