#pragma once
// Auto-generated from AIDA-X model: tw40_blues_solo_deerinkstudios
// Architecture: LSTM-12
// DO NOT EDIT - regenerate using convert_aidax_to_cpp.py

#include <cstddef>

namespace EmbeddedModels {
namespace tw40_blues_solo_deerinkstudios {

constexpr const char* kName = "tw40_blues_solo_deerinkstudios";
constexpr const char* kArchitecture = "LSTM";
constexpr int kHiddenSize = 12;
constexpr int kInputSize = 1;
constexpr int kOutputSize = 1;

// Input kernel weights: shape (input_size, 4 * hidden_size)
constexpr float kKernel[] = {
    0.03837487f, 0.01598552f, -0.03373012f, 0.02442768f, 0.10544886f, 0.09951581f, 0.00914386f, -0.00754662f,
    -0.13908154f, 0.18861403f, -0.01581776f, -0.04104662f, -0.05221104f, -0.01219189f, 0.00159934f, -0.04114816f,
    -0.01972761f, -0.12932040f, -0.10503222f, 0.03099102f, 0.04587243f, 0.24978949f, -0.06941865f, 0.08606210f,
    -0.17749205f, 0.85709834f, -0.16233507f, 0.03197154f, -0.06450760f, 0.05995985f, -0.69479543f, -0.25216931f,
    0.21301316f, -0.34758052f, 0.13709843f, -0.25969630f, -0.00231407f, 0.03697575f, -0.05082424f, 0.01464149f,
    0.06379907f, 0.10472908f, -0.07646632f, 0.03828337f, -0.04319067f, 0.17010851f, -0.03981064f, -0.01831012f
};
constexpr size_t kKernelSize = sizeof(kKernel) / sizeof(kKernel[0]);

// Recurrent kernel weights: shape (hidden_size, 4 * hidden_size)
constexpr float kRecurrent[] = {
    -0.06741688f, 0.04514065f, 0.10014597f, 0.08403054f, -0.00042319f, -0.00192800f, 0.16573653f, -0.05676507f,
    -0.20769958f, 0.01585031f, -0.08630645f, -0.02885359f, -0.18761316f, -0.12460499f, -0.11976040f, 0.08206238f,
    0.01356073f, 0.05346666f, -0.17943519f, -0.18606174f, 0.06342314f, -0.01844444f, -0.00232124f, -0.11687075f,
    0.37704200f, 0.04359301f, 0.03999231f, 0.24221030f, -0.18997850f, 0.10615687f, -0.16216919f, -0.34201512f,
    -0.05758198f, -0.13723712f, 0.01154556f, -0.56805342f, -0.02433758f, 0.06729150f, 0.06631963f, 0.01151601f,
    -0.02764126f, 0.10582677f, 0.10110520f, -0.02281349f, 0.01451314f, 0.02070066f, -0.04239830f, 0.03264235f,
    -0.03286581f, 0.03644244f, 0.06816931f, 0.02198156f, 0.06070206f, -0.09675255f, 0.12244714f, -0.03416249f,
    0.18259668f, -0.08563902f, 0.05745452f, -0.00318385f, -0.04400866f, -0.03238342f, 0.00972185f, 0.00495677f,
    0.02558621f, -0.12434520f, 0.06382065f, -0.08018059f, -0.03053538f, -0.08200457f, 0.00648312f, 0.03474452f,
    -0.26682618f, 0.12909703f, -0.85072196f, -0.50162315f, 0.31772047f, -0.71640897f, -0.23214127f, -0.44285110f,
    -0.14081468f, 0.08800316f, -0.47636744f, 0.58248508f, -0.01352900f, 0.06257503f, 0.04794484f, 0.03810160f,
    0.06121444f, -0.13193615f, 0.08532632f, -0.11418109f, -0.04423783f, -0.06322166f, 0.03197781f, 0.06644922f,
    0.08408322f, 0.03738100f, 0.02243921f, -0.05073483f, 0.16589440f, -0.12046425f, -0.06496499f, 0.06823274f,
    0.18350740f, -0.07821852f, -0.04341699f, 0.11515505f, 0.12410867f, 0.10687554f, -0.03425560f, -0.02269103f,
    0.20502961f, 0.16706644f, -0.00190838f, 0.11764662f, -0.05419048f, -0.12251285f, -0.06324907f, 0.09863815f,
    -0.26910004f, 0.54625756f, -0.01296699f, -0.10917914f, -0.21606441f, 0.60900372f, 0.51704425f, -0.94152069f,
    -0.09065706f, -0.07397593f, 0.16300891f, -0.49130037f, 0.08160204f, 0.02022424f, 0.02573293f, 0.04387011f,
    0.10268674f, 0.12088238f, 0.04744400f, -0.09625696f, -0.05164763f, -0.09260827f, 0.02196415f, 0.12283339f,
    0.04775741f, -0.05739750f, -0.13737507f, -0.01578012f, 0.03067744f, -0.07171615f, 0.03142861f, -0.05913138f,
    -0.02204441f, 0.01451212f, -0.04218950f, 0.07919315f, -0.02068008f, -0.11907444f, 0.07750601f, 0.01820659f,
    0.06942552f, 0.07731348f, 0.10557032f, 0.05233528f, 0.11745514f, 0.00870853f, -0.21094605f, -0.00482636f,
    -0.52815336f, 0.22386919f, 0.35388914f, 0.12413708f, 0.17917816f, 0.11751543f, -0.35207912f, -0.04267280f,
    0.09222467f, -0.26682377f, -0.23467429f, -0.21319832f, -0.01951383f, -0.07531945f, -0.11422805f, -0.00099289f,
    0.06171400f, -0.05089098f, -0.04057289f, 0.12615828f, 0.01881435f, -0.00755639f, -0.01310152f, 0.04984418f,
    0.00459328f, -0.06355984f, -0.12761347f, 0.03796665f, -0.15282184f, 0.15983321f, -0.14005429f, -0.00984162f,
    -0.13568161f, -0.12802425f, 0.03578965f, 0.03485386f, 0.05938863f, 0.04990911f, -0.15485513f, -0.00845902f,
    -0.24698876f, -0.05701428f, -0.02890731f, -0.14686182f, -0.04700579f, -0.02895734f, 0.05400375f, 0.05744983f,
    0.20650646f, -0.00803821f, -0.60100514f, -0.05773236f, 0.40580547f, 0.00907278f, 0.28570530f, 1.13938749f,
    -0.00964811f, 0.04315294f, -0.15300931f, -0.16040090f, -0.02589883f, -0.07144656f, -0.08230706f, 0.11688863f,
    -0.11845673f, -0.17746872f, -0.09106249f, -0.06875640f, 0.06792920f, 0.05065961f, -0.01486693f, -0.00353046f,
    -0.01882507f, 0.02587544f, -0.03783426f, 0.07512750f, 0.00497678f, 0.35449085f, 0.16932607f, 0.05455525f,
    -0.10804818f, 0.04855485f, 0.07555450f, 0.01911506f, 0.07691605f, 0.15051137f, -0.05068251f, -0.18062519f,
    -0.24651971f, 0.14415093f, -0.01556008f, -0.17814258f, -0.06057703f, 0.14556018f, 0.05035742f, 0.00266357f,
    -0.03776572f, 0.00250067f, -0.05798209f, 0.10548245f, 0.56104976f, 0.75658202f, 0.17333642f, -0.15852623f,
    -0.16232206f, -0.24625647f, 0.32831693f, -0.10260794f, 0.05761422f, 0.01710573f, -0.05625417f, 0.01917920f,
    -0.02033017f, -0.08851041f, 0.00746538f, -0.12965481f, -0.07544104f, 0.17084679f, 0.04007666f, 0.19022638f,
    -0.16234756f, 0.01720002f, 0.02279969f, 0.02108691f, -0.06833435f, -0.13046576f, 0.06363072f, 0.02022117f,
    0.34641615f, -0.09795760f, 0.10873649f, 0.02732128f, -0.08504064f, 0.04948564f, -0.00134620f, 0.02813266f,
    -0.06440695f, -0.13963497f, 0.06001272f, -0.09505113f, -0.06631806f, -0.07833003f, 0.11371484f, -0.01829276f,
    -0.21990551f, 0.96283746f, 0.26981530f, 0.07007270f, 0.15179706f, -0.29125193f, 0.23397180f, 0.24368474f,
    0.13551508f, 0.22839147f, -0.35505953f, -0.00881417f, -0.09856051f, 0.06424442f, 0.02471421f, -0.01729530f,
    -0.08197395f, -0.28308710f, 0.03737171f, 0.04795018f, 0.03852405f, -0.08383810f, 0.06822797f, 0.01308706f,
    0.04283499f, -0.06244924f, -0.00861784f, 0.10709587f, 0.10336786f, 0.21599044f, 0.03270068f, 0.16689920f,
    0.28747559f, -0.04393002f, -0.00425423f, -0.00367027f, 0.11831053f, 0.09163452f, -0.13601168f, -0.06457417f,
    -0.12873225f, -0.31915137f, -0.04588056f, 0.08967836f, -0.20271309f, -0.00094456f, 0.10771795f, -0.02585221f,
    -0.02744139f, 0.14260232f, 0.58440959f, -0.35187933f, -0.03775571f, -0.02789664f, -0.30439138f, 0.65273273f,
    0.14862473f, -0.18529612f, -0.06298507f, 0.03797973f, 0.04242117f, -0.11192594f, 0.03510752f, 0.24096143f,
    0.07230540f, -0.01275501f, 0.04920254f, -0.20414624f, -0.07265132f, 0.15176208f, -0.00078530f, -0.01055380f,
    -0.01993565f, -0.00670433f, -0.01643096f, 0.04992767f, 0.11019533f, -0.08372921f, 0.05465641f, -0.00162912f,
    -0.09871221f, 0.17347559f, 0.02401042f, -0.05983267f, -0.05760147f, 0.00507555f, 0.00846709f, 0.02544429f,
    0.07938890f, -0.13290708f, 0.03585805f, -0.03917871f, -0.24084012f, 0.23538563f, -0.01494332f, -0.07267375f,
    -0.13169864f, -0.27631307f, 0.20449404f, -0.25688276f, -0.01111792f, -0.30822921f, 0.62139368f, -0.20148274f,
    0.53346831f, -0.29467157f, -0.07287654f, 0.06943659f, -0.01725394f, -0.01205365f, -0.02237043f, 0.02629760f,
    0.06553369f, -0.04779115f, 0.01510792f, -0.01444817f, -0.09152899f, 0.17605382f, 0.01634915f, -0.05511957f,
    0.00069749f, -0.06668427f, -0.05644104f, 0.04411040f, -0.04277877f, -0.06711619f, -0.05962555f, -0.04702811f,
    -0.29602101f, -0.15994854f, -0.01366673f, -0.01399771f, 0.04407572f, -0.06614559f, -0.02292975f, 0.12840264f,
    0.14685267f, 0.16240123f, -0.03129610f, 0.17604709f, -0.51634008f, -0.29877332f, 0.02164275f, 0.00460483f,
    -0.06098914f, 0.22392596f, 0.30441880f, -0.09395514f, -0.00541621f, -0.38379630f, -0.22846428f, 0.03461478f,
    -0.37567836f, 0.04409148f, 0.06318349f, -0.06272006f, -0.05239001f, -0.05289921f, -0.05967712f, -0.01748803f,
    -0.02092642f, 0.00164089f, -0.04310956f, 0.14051770f, -0.12740864f, -0.28941962f, -0.01914752f, -0.08463404f,
    -0.01981642f, -0.01257266f, -0.01434935f, 0.00694084f, -0.06219319f, 0.15946776f, -0.06574609f, 0.04178363f,
    -0.00931192f, 0.09349361f, 0.03205330f, -0.00715140f, 0.06791759f, 0.11459250f, 0.00900311f, -0.07873385f,
    -0.07428125f, 0.05269757f, -0.04029780f, 0.11280601f, -0.00581573f, 0.06422782f, 0.10316049f, 0.09886016f,
    -0.41151044f, 0.00881017f, -0.05546340f, -0.37417662f, 0.26024890f, 0.78223383f, -0.08984154f, 0.17665820f,
    0.16424972f, -0.24145813f, 0.16079202f, -0.46180862f, -0.01695774f, -0.02833844f, -0.02168261f, -0.04001300f,
    -0.07253192f, 0.11578670f, -0.09744087f, -0.01468144f, 0.01580147f, 0.06690353f, -0.01223139f, 0.05321646f,
    -0.04510255f, -0.06103864f, -0.03235792f, -0.04256866f, -0.06830271f, -0.07530027f, -0.02587067f, -0.15168683f,
    0.31114110f, -0.07833823f, 0.02500499f, -0.02380415f, -0.03299268f, 0.00384159f, -0.00592533f, -0.07313021f,
    -0.06183539f, -0.03667954f, 0.01753494f, -0.05007653f, -0.17776670f, -0.12970085f, 0.03524528f, 0.07814864f,
    0.27012208f, -0.13862647f, 0.61430556f, -0.02025297f, -0.70691067f, -0.26684904f, -0.16977870f, -0.20367292f,
    0.08674283f, -0.05849479f, 0.70065445f, 0.10913370f, -0.09609825f, -0.06366167f, -0.03142819f, -0.04352699f,
    -0.07645156f, 0.02329968f, 0.00866190f, -0.16281307f, -0.02451725f, -0.09761170f, -0.01041791f, -0.16640358f
};
constexpr size_t kRecurrentSize = sizeof(kRecurrent) / sizeof(kRecurrent[0]);

// Bias: shape (4 * hidden_size,)
constexpr float kBias[] = {
    0.42490083f, 1.15218973f, 1.01857376f, 0.12342221f, 0.60545701f, 0.71838880f, 0.23856729f, 1.25075424f,
    -1.68274498f, -0.25677577f, 0.47280374f, 0.50022280f, 0.74147618f, 0.42989260f, 0.22375435f, 0.98003745f,
    0.32524765f, 0.61470115f, 0.91176391f, -0.08007018f, 2.12786031f, 0.45234174f, 0.72100484f, 0.47288269f,
    0.02754654f, -0.00750412f, 0.16940516f, -0.04996741f, -0.02078351f, -0.09761418f, -0.06390490f, -0.07670413f,
    -0.01191404f, -0.16275328f, 0.11157018f, -0.16474953f, 0.74385327f, 1.22260284f, 1.21666956f, 0.53898674f,
    0.90120041f, 0.52447712f, 1.00747240f, 0.61298418f, 0.75102305f, 0.13236897f, 0.86132318f, 0.50967860f
};
constexpr size_t kBiasSize = sizeof(kBias) / sizeof(kBias[0]);

// Dense output weights: shape (hidden_size, output_size)
constexpr float kDenseW[] = {
    -0.78894532f, 0.25466758f, 0.59054381f, 0.67446381f, -0.11241804f, -0.01930237f, -0.42051440f, 0.97794294f,
    -0.07159186f, -0.06152530f, -0.08624390f, 0.06349538f
};
constexpr size_t kDenseWSize = sizeof(kDenseW) / sizeof(kDenseW[0]);

// Dense output bias: shape (output_size,)
constexpr float kDenseB[] = {
    0.08506265f
};
constexpr size_t kDenseBSize = sizeof(kDenseB) / sizeof(kDenseB[0]);

} // namespace tw40_blues_solo_deerinkstudios
} // namespace EmbeddedModels
