#pragma once
// Auto-generated from AIDA-X model: tw40_british_lead_deerinkstudios
// Architecture: LSTM-12
// DO NOT EDIT - regenerate using convert_aidax_to_cpp.py

#include <cstddef>

namespace EmbeddedModels {
namespace tw40_british_lead_deerinkstudios {

constexpr const char* kName = "tw40_british_lead_deerinkstudios";
constexpr const char* kArchitecture = "LSTM";
constexpr int kHiddenSize = 12;
constexpr int kInputSize = 1;
constexpr int kOutputSize = 1;

// Input kernel weights: shape (input_size, 4 * hidden_size)
constexpr float kKernel[] = {
    0.03566178f, -0.10315718f, -0.13419971f, 0.06033594f, 0.09696368f, 0.12694472f, -0.22230117f, -0.13719456f,
    0.20423238f, -0.06716336f, -0.06480373f, -0.01308436f, -0.29986686f, -0.34990805f, -0.40165636f, 0.08321454f,
    -0.02748171f, -0.25639710f, -0.05590791f, -0.08281836f, 0.06874695f, -0.18982054f, -0.09437429f, 0.12792066f,
    0.66532582f, 0.29666010f, -0.49645388f, -0.11016716f, -0.16294454f, 0.36201370f, -1.11101878f, 0.38641614f,
    -0.08421352f, 0.12536350f, 0.38605833f, -2.02226663f, 0.08036032f, 0.16002478f, -0.04539782f, -0.04452418f,
    0.16511515f, -0.37828100f, 0.06484519f, 0.03935985f, 0.14136848f, 0.00325818f, 0.13397913f, -0.01372402f
};
constexpr size_t kKernelSize = sizeof(kKernel) / sizeof(kKernel[0]);

// Recurrent kernel weights: shape (hidden_size, 4 * hidden_size)
constexpr float kRecurrent[] = {
    0.50446028f, 0.04719548f, -0.02407091f, -0.28582940f, 0.10176404f, -0.06368614f, -0.12363030f, 0.06986853f,
    0.02167331f, -0.00767163f, -0.03379523f, 0.06335472f, 0.88042206f, 0.15196890f, 0.03259564f, 0.17162335f,
    -0.45750764f, 0.21744697f, -0.08075402f, -0.03695812f, 0.02929719f, 0.36393076f, 0.01344153f, -0.09127609f,
    0.85183543f, -0.12957950f, 0.27318832f, 0.22294149f, -0.35667598f, 0.03566043f, 0.01014293f, -1.36836576f,
    -0.04651310f, 0.05965915f, -0.12655158f, -0.26802251f, -0.19407073f, 0.25775635f, 0.17950533f, -0.10710972f,
    -0.42808133f, 0.26653066f, 0.03866199f, -0.61262172f, -0.25491914f, 0.08806226f, 0.29827708f, 0.20741393f,
    0.20162593f, -0.14284986f, -0.20772973f, -0.18584578f, 0.12297942f, -0.25609589f, -0.10173194f, 0.13756855f,
    -0.09878034f, -0.06929424f, 0.29853991f, -0.14377142f, -0.41200811f, -0.08877593f, 0.23922081f, -0.30953392f,
    0.13593267f, -0.38232118f, 0.85367513f, 0.13040674f, -0.02477097f, -0.20205803f, 0.48414910f, -0.05472706f,
    0.39068413f, 0.49319670f, -0.51054776f, -0.07852525f, -0.57403183f, 0.00863170f, -0.25510597f, -0.04762469f,
    0.02309314f, 0.07171299f, -0.58419967f, 0.08766378f, 0.10978051f, 0.05268551f, -0.47086906f, -0.04748667f,
    0.16830128f, -0.13163325f, 0.01371277f, 0.10599037f, -0.04759792f, -0.06659527f, 0.17595613f, -0.08364474f,
    -0.08936294f, 0.14629477f, -0.11125030f, -0.33047184f, -0.13209559f, -0.71002787f, 0.14803885f, 0.01067229f,
    0.00242795f, -0.23914127f, -0.30797499f, 0.05560770f, 0.82469815f, 0.20741765f, 0.14431545f, 0.39404699f,
    0.43055758f, 0.02867242f, 0.25465822f, -0.10249576f, 0.20248030f, 0.13224499f, -0.24934795f, -0.22994246f,
    -0.48765975f, 0.05150932f, 0.46395099f, -0.17905515f, 0.91841650f, 0.06481568f, 0.44233835f, 0.18522006f,
    0.16221878f, 0.49145317f, -0.64233780f, -1.13055587f, 0.22367133f, -0.30104834f, -0.02939186f, -0.12200631f,
    0.16919480f, 0.36743954f, 0.24438143f, -0.01800394f, -0.05821379f, -0.33867407f, -0.25578815f, 0.02126388f,
    0.21185897f, 0.01992922f, 0.08030926f, -0.28955916f, -0.06084900f, -0.09188469f, -0.44602385f, 0.28130588f,
    -0.33421433f, 0.27130538f, -0.25729954f, 0.11635818f, 0.16637290f, 0.12043309f, 0.04686789f, -0.33050454f,
    0.14658239f, -0.18835112f, -0.00481223f, 0.13569602f, -0.52234089f, 0.38114527f, -0.24383759f, -0.12453950f,
    -0.82569051f, 0.15344408f, -0.12153577f, 0.01123386f, 0.88332629f, -0.06316011f, -0.13706897f, 0.28314069f,
    0.51188964f, -0.76356858f, -0.29839945f, -0.06455339f, 0.37465650f, -0.12062817f, 0.05127190f, -0.33192599f,
    -0.12088035f, -0.09403664f, -0.06572895f, 0.36709204f, -0.29184061f, 0.17590706f, 0.08353575f, 0.09766030f,
    -0.54415250f, 0.40283653f, 0.00350235f, 0.08728942f, -0.38547111f, -0.08297313f, 0.24897550f, 0.00602349f,
    -0.12448638f, 0.08719954f, -0.18817179f, -0.10314751f, -0.58243871f, 0.06228095f, -0.01895860f, -0.03683355f,
    -0.99415863f, 0.04788676f, -0.04759376f, -0.03258820f, -0.38045546f, 0.26469216f, 0.16432981f, -0.29265448f,
    -2.13678718f, -0.11941864f, 0.07600829f, -0.02422906f, 0.22321188f, 0.07208820f, 0.08480984f, 0.38639534f,
    -0.02492812f, 0.07794783f, -0.09919254f, -0.22955497f, -0.83752531f, -0.26976949f, -0.13920805f, -0.07357096f,
    -0.48080182f, 0.14061837f, -0.08371790f, 0.24583574f, 0.17833729f, 0.18887463f, -0.25555280f, -0.01541342f,
    -0.01722374f, 0.05200080f, 0.00204007f, 0.30057749f, 0.05605240f, 0.19287518f, 0.53760159f, -0.07131381f,
    0.25270176f, -0.16086066f, -0.04099710f, 0.01948239f, -0.20757684f, -0.20937844f, -0.53170991f, 0.22896411f,
    -0.01446914f, 0.06513602f, 0.00162254f, -0.00952004f, -0.20196298f, -0.22987232f, -0.25858247f, 0.26511458f,
    -0.63041580f, 0.46143726f, 0.41986904f, -0.01410017f, 0.26059192f, 0.20276336f, 0.63820440f, -0.05307399f,
    0.11179746f, -0.07707793f, 0.04237144f, 1.08028710f, -0.14688165f, 0.13027610f, -0.05735296f, -0.05739982f,
    0.15511656f, -0.06119651f, 0.12429880f, 0.06734468f, 0.07748044f, -0.19900350f, 0.03046804f, 0.01937744f,
    0.07364799f, -0.01430461f, -0.14714074f, -0.22353929f, -0.01371278f, -0.39761928f, 0.19321139f, -0.04950459f,
    0.35306019f, -0.03432424f, 0.74723965f, 0.04897520f, 0.17602322f, -0.20416723f, -0.53239661f, 0.07227311f,
    -0.08805931f, -0.26089925f, 0.24884190f, -0.08250789f, -0.03195274f, 0.01183157f, 0.21558732f, 0.24910565f,
    -0.30876786f, 0.46202537f, -0.46067968f, -0.08825692f, 0.02797291f, -0.20493741f, 0.59688413f, 0.29528582f,
    -0.01676002f, 0.61988801f, -0.43455222f, -1.05871069f, -0.37445503f, -0.42719728f, 0.07188454f, 0.40736476f,
    -0.18509053f, 0.01220040f, 0.23815763f, -0.19928578f, -0.01360332f, -0.04065765f, 0.21740884f, 0.07255000f,
    -0.25237560f, 0.17286196f, 0.15895426f, -0.01082767f, -0.18351512f, -0.05018834f, -0.19351311f, -0.65773761f,
    0.05360376f, 0.22019194f, -0.00575413f, -0.06953347f, -0.32401386f, -0.03433843f, -0.09830716f, -0.37464651f,
    0.18965158f, 0.04072612f, -0.09872670f, -0.30195549f, -0.23793501f, -0.09404226f, 0.22928390f, 0.19537714f,
    0.24013492f, 0.05184889f, 0.23702812f, -0.27131623f, 0.04161175f, -0.07906462f, -0.28249431f, 1.06279254f,
    0.58011127f, -0.29402491f, -0.27982056f, -0.07864437f, -0.12335118f, -0.01554835f, -0.21829180f, -0.26435649f,
    0.24462815f, 0.42192116f, -0.38525128f, -0.19050659f, -0.25502717f, 0.46355134f, 0.16831113f, -0.10944287f,
    -0.08305794f, 0.06934451f, -0.08610886f, 0.13975903f, -0.08765206f, 0.01661637f, -0.05534376f, -0.22304109f,
    0.05755711f, 0.08957142f, 0.18671423f, -0.07874350f, 0.44007069f, 0.10682770f, -0.06668615f, -0.73532307f,
    0.12436893f, -0.06526173f, 0.25485426f, 0.08503868f, -0.25646287f, -0.17028385f, 0.06376843f, 0.09642147f,
    -0.10085305f, 0.02052213f, -0.28688544f, 0.30648869f, -0.10090511f, 0.04902112f, 0.46735370f, -0.63274997f,
    0.17530325f, -0.49607539f, 0.03656861f, -0.47792691f, 0.14956427f, -0.26202196f, -0.24053566f, -0.46480125f,
    0.06528383f, -0.15342979f, -0.19834852f, -0.08417208f, -0.40853190f, 0.13384454f, 0.02171761f, -0.11133946f,
    0.04662523f, -0.22321001f, -0.21572749f, -0.34731621f, -0.07081731f, 0.20492065f, -0.11773445f, 0.08477848f,
    -0.43816143f, -0.16880593f, -0.09049019f, -0.02083333f, 0.49872103f, 0.01887082f, -0.16050059f, 0.00762966f,
    -0.00263818f, -0.36055991f, 0.06715474f, -0.01022147f, -0.08748405f, -0.31089020f, 0.15625492f, -0.03450036f,
    -0.06308814f, 0.07500728f, -0.05988297f, -0.44733348f, -0.25329652f, -0.06173279f, -0.05929689f, -0.03989884f,
    -0.43980762f, 0.11551572f, -0.05903725f, -0.12012766f, 0.00377209f, -0.07908055f, -0.07562891f, 0.02689392f,
    -0.14786811f, 0.08892515f, 0.16829304f, 0.09223977f, -0.37221932f, -0.44488573f, 0.03106561f, 0.01886075f,
    0.22268613f, 0.48830789f, -0.45935023f, -0.72701675f, -0.06725967f, -0.36280969f, 0.17883520f, -0.24770677f,
    -0.25412965f, -0.20017861f, -0.06832986f, 0.13222101f, 0.32966411f, 0.60375619f, -0.27677551f, 0.47413081f,
    0.25699279f, 0.29676956f, 0.74814558f, -0.09218248f, 0.30094275f, -0.31830466f, 0.03706653f, 0.21906178f,
    0.67331451f, -0.81186134f, 0.29687390f, 0.42153791f, -0.04236583f, 0.43078229f, 0.28267321f, 0.29681879f,
    -0.02290323f, 0.29818642f, 0.14609039f, -0.23267077f, 0.22231439f, 0.28318909f, -0.18204217f, 0.04941159f,
    -0.12071530f, 0.06863109f, 0.29717842f, -0.13751712f, 0.00167003f, -0.07335135f, -0.00137984f, 0.18839557f,
    0.27564535f, 0.16622944f, 0.17958899f, 0.30748409f, 0.20761147f, 0.02185870f, 0.51897299f, 0.14883810f,
    -0.06886479f, 0.26221639f, -0.14914069f, 0.06472452f, -0.52607036f, 0.18356977f, 0.41250792f, 0.10018485f,
    0.35949737f, 0.41303313f, -0.42695159f, 0.10016134f, 0.05912300f, -0.21589200f, -0.11131778f, -0.01314325f,
    1.55629516f, -0.07227428f, 0.54707915f, 0.40776607f, -0.82421225f, 0.03184787f, 0.38247052f, 0.97694790f,
    0.28214884f, 0.19009751f, 0.25979346f, -0.44472200f, 0.44071883f, 0.52359319f, 0.32671648f, 0.09880868f,
    0.06040999f, 0.35980737f, -0.09160508f, -0.10027565f, -0.03518271f, 0.24338250f, 0.03024935f, 0.08488643f
};
constexpr size_t kRecurrentSize = sizeof(kRecurrent) / sizeof(kRecurrent[0]);

// Bias: shape (4 * hidden_size,)
constexpr float kBias[] = {
    1.40748787f, -0.18115841f, -0.36925352f, -1.84977269f, 0.37467763f, -2.07447338f, -0.44373587f, 0.85570467f,
    -0.65343547f, -0.80503583f, -0.33090296f, 1.78041887f, 0.99192822f, 1.06195331f, 1.18698573f, 2.72594738f,
    0.48761424f, 2.91045618f, 1.38015175f, -1.71160197f, 0.58098161f, 1.28223014f, 1.41407537f, 0.66288096f,
    -0.02560141f, 0.11098981f, -0.02876577f, -0.02495226f, -0.04721791f, -0.05912723f, -0.04285820f, -0.10018425f,
    -0.10181507f, -0.09985200f, 0.16549453f, 0.17194140f, -0.07066965f, 0.48885900f, 1.00792813f, 0.73386687f,
    1.04933214f, 0.82995200f, 1.18062425f, 0.12315914f, 0.42758971f, -0.11204560f, 1.12266219f, 1.96722388f
};
constexpr size_t kBiasSize = sizeof(kBias) / sizeof(kBias[0]);

// Dense output weights: shape (hidden_size, output_size)
constexpr float kDenseW[] = {
    0.26376447f, -0.10339998f, -0.25353572f, 1.11318290f, 0.01398145f, 0.38326165f, 0.03735912f, 1.85295498f,
    -1.22701228f, 0.43838975f, -0.11340013f, -0.07202696f
};
constexpr size_t kDenseWSize = sizeof(kDenseW) / sizeof(kDenseW[0]);

// Dense output bias: shape (output_size,)
constexpr float kDenseB[] = {
    -0.05378116f
};
constexpr size_t kDenseBSize = sizeof(kDenseB) / sizeof(kDenseB[0]);

} // namespace tw40_british_lead_deerinkstudios
} // namespace EmbeddedModels
