#pragma once
// Auto-generated from AIDA-X model: tw40_british_rhythm_deerinkstudios
// Architecture: LSTM-12
// DO NOT EDIT - regenerate using convert_aidax_to_cpp.py

#include <cstddef>

namespace EmbeddedModels {
namespace tw40_british_rhythm_deerinkstudios {

constexpr const char* kName = "tw40_british_rhythm_deerinkstudios";
constexpr const char* kArchitecture = "LSTM";
constexpr int kHiddenSize = 12;
constexpr int kInputSize = 1;
constexpr int kOutputSize = 1;

// Input kernel weights: shape (input_size, 4 * hidden_size)
constexpr float kKernel[] = {
    -0.02212709f, -0.06383096f, 0.01562194f, 0.03322100f, -0.02708208f, -0.02462232f, -0.00781845f, 0.00598490f,
    -0.10172535f, 0.08121250f, -0.00270283f, 0.05204199f, -0.08302253f, -0.03694883f, -0.06949475f, -0.05528362f,
    -0.04873965f, 0.02348232f, 0.01064767f, 0.02409420f, -0.14476827f, 0.15391734f, 0.00327201f, 0.00668588f,
    -0.00476607f, 1.11497879f, -0.16387373f, 0.24270722f, -0.16706377f, 0.15804911f, -0.07370531f, 0.18696931f,
    -0.24080071f, -0.20600662f, 0.46865517f, -0.23762237f, -0.01615826f, -0.04688725f, 0.00631262f, 0.02172780f,
    -0.03250185f, -0.00260267f, -0.00508442f, -0.00709620f, -0.02431881f, 0.11063132f, 0.00567393f, 0.06516007f
};
constexpr size_t kKernelSize = sizeof(kKernel) / sizeof(kKernel[0]);

// Recurrent kernel weights: shape (hidden_size, 4 * hidden_size)
constexpr float kRecurrent[] = {
    0.07573198f, -0.00031747f, -0.03300189f, -0.09054990f, 0.06781009f, 0.06804470f, 0.05563753f, 0.01556376f,
    -0.20633502f, -0.06409828f, -0.07784040f, 0.14633623f, 0.22922623f, -0.06676310f, 0.06641039f, 0.06832890f,
    0.00181563f, 0.19131857f, -0.03112406f, 0.09769823f, 0.02686852f, 0.09791961f, 0.13246237f, 0.14792052f,
    0.73058480f, 0.21195100f, 0.48023540f, 0.18430923f, -0.28939253f, 0.34645149f, -0.15841867f, -0.75204962f,
    0.16380487f, -0.12051298f, -0.13745221f, -0.20319873f, 0.13125838f, -0.01090858f, -0.01568359f, -0.02207786f,
    0.05596329f, 0.09456243f, 0.03951574f, 0.11160346f, -0.00195728f, -0.06976207f, 0.02506702f, 0.07560118f,
    -0.07201570f, -0.03288035f, 0.00039333f, -0.00784257f, 0.04335728f, 0.02557018f, -0.02187588f, -0.00613718f,
    0.08932706f, -0.10478451f, 0.00103299f, 0.02168820f, -0.00467441f, 0.05472757f, -0.08458389f, -0.03438257f,
    0.01576143f, -0.00788354f, -0.03457311f, 0.03340933f, -0.05357181f, -0.11449701f, -0.05719941f, -0.01492453f,
    -0.06702160f, -0.10685398f, -0.69655961f, -0.39988565f, 0.23381674f, -0.17592041f, -0.66043633f, -1.00272298f,
    0.08143310f, 0.02333780f, -0.36150476f, 0.38876727f, -0.02860767f, -0.06693742f, -0.02211437f, 0.03525359f,
    -0.00031300f, 0.01309268f, -0.02112959f, -0.08270550f, -0.00017978f, -0.12851575f, 0.04589969f, 0.05759998f,
    0.18746381f, -0.00502867f, -0.00065842f, -0.01523952f, 0.01971401f, 0.00311702f, 0.04366455f, 0.03039755f,
    0.17467584f, -0.04532365f, 0.19004723f, 0.05134194f, 0.17907478f, -0.05291885f, -0.01667797f, 0.02519871f,
    0.00848913f, -0.11099759f, -0.04104124f, 0.07434576f, 0.06510694f, -0.02664739f, 0.00918206f, 0.07227867f,
    -0.53719532f, 0.61441445f, 0.35042980f, 0.28532416f, 0.21681301f, 0.07274216f, 0.33850053f, -1.27299285f,
    -0.02514899f, 0.59415221f, 0.10588273f, 0.07134399f, 0.17254414f, -0.04492988f, -0.02844720f, 0.07808595f,
    -0.00141439f, 0.02158198f, 0.03378374f, -0.13243663f, 0.06509507f, -0.02924864f, 0.09065900f, 0.13509110f,
    0.00386514f, 0.00150624f, -0.03391086f, 0.00771705f, -0.02986914f, -0.02454882f, -0.04172957f, -0.03687673f,
    0.08642673f, 0.17511582f, -0.01558533f, -0.01391262f, 0.18359512f, -0.08768565f, 0.03704973f, 0.07074107f,
    -0.14333571f, -0.03565246f, -0.01141243f, 0.03036437f, -0.11143085f, 0.07905190f, 0.06236088f, -0.11426417f,
    -0.34544662f, 0.28602099f, -0.00491185f, 0.06620555f, 0.22514394f, -0.24347402f, -0.28927717f, -0.20303318f,
    -0.05553331f, -0.26036689f, -0.29566017f, -0.04201154f, 0.02901641f, -0.00477365f, -0.04082871f, 0.00822104f,
    -0.03507013f, -0.11277726f, -0.01826536f, 0.02663550f, -0.03031433f, 0.16029918f, -0.04155500f, -0.02080711f,
    -0.07094599f, 0.03030317f, 0.04870820f, -0.07542328f, 0.02079491f, 0.09155853f, -0.00729801f, 0.05486026f,
    0.05203586f, 0.01471388f, -0.08012427f, -0.07881363f, -0.08576762f, 0.03114756f, 0.04168547f, -0.03956508f,
    0.05201623f, 0.17765193f, 0.00242551f, 0.09924376f, 0.06089668f, 0.02638669f, -0.09942000f, -0.05530545f,
    0.04981647f, 0.12579021f, -0.08173651f, -0.43483999f, 0.45096675f, 0.08663400f, 0.07748093f, 0.86953199f,
    -0.09331626f, 0.00720828f, -0.15319973f, 0.38720655f, -0.07981290f, 0.04122997f, 0.04626470f, -0.10114000f,
    -0.00155357f, 0.05874120f, -0.00918245f, 0.23866519f, 0.00725883f, 0.12349817f, -0.03982142f, -0.11797333f,
    0.01569600f, 0.09468221f, 0.02790066f, 0.00621104f, 0.02308951f, 0.09986680f, 0.05122899f, 0.07898071f,
    -0.20193031f, 0.15012869f, -0.02427115f, 0.03014090f, -0.10347485f, 0.09478584f, 0.12459335f, -0.02959459f,
    0.08191328f, 0.18540591f, 0.07482270f, 0.22849785f, 0.23999713f, 0.39225313f, -0.06634296f, 0.18474957f,
    -0.15571469f, -0.29323831f, 0.09129170f, 0.15095228f, 0.64210653f, 0.37348199f, 0.33460626f, -0.24307375f,
    -0.12734401f, -0.40157446f, 0.21254888f, -0.27620077f, 0.05386689f, 0.09008859f, 0.06969546f, 0.05044616f,
    0.03963349f, 0.13704766f, 0.05110188f, 0.01556898f, 0.06955951f, 0.21912557f, -0.07481161f, 0.11136362f,
    -0.11018953f, 0.03142089f, 0.03116888f, -0.04056592f, 0.02158088f, 0.01603852f, 0.00539723f, -0.01950105f,
    -0.11335284f, -0.04104980f, -0.08249266f, -0.05994371f, -0.09280436f, 0.06389351f, -0.02298914f, -0.00785862f,
    0.03885422f, 0.03074756f, 0.02017255f, -0.06592450f, 0.01924166f, -0.12360210f, -0.03022072f, -0.01842827f,
    -0.28290170f, 1.01274920f, -0.32628688f, 0.30954316f, 0.17100264f, -0.12553854f, 0.20767820f, 0.24757190f,
    0.08998787f, -0.18562789f, -0.69715053f, 0.08201014f, -0.07106973f, 0.01788037f, 0.02468705f, -0.05008163f,
    0.02279518f, 0.00723938f, -0.00087545f, 0.02870128f, -0.02943634f, -0.11146187f, -0.06411491f, -0.07701451f,
    0.09057757f, -0.06859434f, -0.08723408f, 0.27799779f, -0.01605971f, 0.07005214f, -0.04967313f, 0.17936017f,
    -0.00316122f, -0.05485942f, -0.02769191f, -0.05198632f, 0.12711173f, 0.01532669f, -0.06944182f, 0.01651988f,
    0.00996468f, -0.02336120f, -0.05676679f, 0.22477387f, -0.08113076f, -0.01649341f, 0.08136441f, 0.12878308f,
    0.00611995f, 0.24860455f, 0.27985474f, -0.21146517f, -0.09570538f, 0.03211872f, -0.05952700f, 0.60340321f,
    0.03786153f, -0.01110001f, -0.11329456f, -0.15337607f, 0.06271981f, -0.10514066f, -0.07459483f, 0.25781077f,
    -0.06075922f, -0.03926381f, 0.00107304f, 0.01325902f, -0.05863828f, 0.05545490f, 0.04561631f, 0.05667484f,
    -0.04510271f, 0.05792635f, 0.00463846f, -0.12871100f, -0.01957730f, 0.06366304f, 0.02635529f, 0.03558606f,
    0.13368738f, 0.08368596f, -0.02745364f, 0.00025634f, 0.03808628f, 0.05944078f, 0.00881029f, 0.10143206f,
    0.01929045f, 0.13587941f, 0.07325350f, 0.08896422f, -0.07313145f, 0.09959039f, 0.01085277f, 0.03255934f,
    -0.16042285f, 0.08030574f, -0.26637447f, 0.08758806f, -0.24002869f, 0.22338565f, 0.17194805f, -0.10031813f,
    0.51252764f, -0.45606631f, 0.75478011f, -0.03066355f, -0.02094503f, 0.05502161f, -0.00253952f, -0.08259111f,
    -0.01881142f, 0.04488890f, 0.01835461f, 0.25535446f, 0.02645220f, 0.08084123f, -0.01849450f, -0.01360849f,
    -0.03621814f, -0.13797083f, -0.02908041f, -0.04633789f, -0.02673592f, -0.03737554f, -0.04767011f, -0.13957599f,
    0.15768155f, -0.00271277f, 0.01152431f, 0.00827258f, -0.01380085f, -0.06857560f, -0.08362514f, -0.09208725f,
    -0.05821520f, -0.21401230f, -0.03289512f, -0.18477488f, -0.30161923f, -0.07008484f, 0.12465730f, -0.07619441f,
    -0.09269206f, 0.08063656f, 0.19479524f, -0.13489377f, 0.02401808f, -0.43579990f, -0.28719902f, 0.03203698f,
    -0.32838157f, 0.00027346f, -0.18368903f, -0.02129752f, -0.09252963f, -0.14282893f, -0.07602646f, -0.09224718f,
    -0.05575722f, -0.02450729f, -0.06810667f, -0.05601453f, 0.00213153f, -0.08166658f, 0.04547585f, -0.03340510f,
    0.11758842f, 0.02032113f, 0.04386284f, -0.02553335f, -0.09753712f, -0.02521194f, 0.04272469f, 0.05378177f,
    0.13665971f, 0.06589738f, 0.18616220f, 0.00664958f, -0.15281887f, -0.02491913f, 0.01434134f, 0.03152629f,
    -0.03141006f, 0.03471615f, 0.08454274f, 0.13409500f, 0.00214413f, 0.05449380f, 0.22356839f, 0.05747782f,
    -0.50255930f, -0.11518753f, 0.16875179f, -0.02828609f, 0.10504352f, 0.23437007f, -0.39282677f, -0.17242353f,
    0.11594051f, -0.26918152f, 0.56473184f, -0.03618323f, 0.06912628f, 0.02013855f, 0.02799471f, -0.02489571f,
    -0.07120896f, 0.07038422f, 0.03413408f, 0.10944963f, -0.00769653f, 0.03240335f, 0.01107231f, 0.11152927f,
    -0.08242813f, -0.08322225f, -0.05726500f, -0.16720389f, -0.02687162f, -0.06581315f, -0.03343345f, -0.05623507f,
    0.04522369f, -0.17865808f, -0.05825205f, -0.11555551f, 0.13384597f, -0.03587527f, -0.08678884f, 0.03997323f,
    -0.01714298f, -0.11429080f, 0.00516420f, -0.06265505f, -0.48877203f, -0.16167557f, 0.03570243f, -0.30702680f,
    0.45021778f, 0.21952793f, 0.32725877f, -0.09946260f, 0.17513405f, -0.09055179f, -0.27163780f, -0.01065537f,
    0.19494857f, -0.01612261f, 0.22972268f, 0.22734244f, -0.10582863f, -0.08052798f, -0.08343641f, -0.18875039f,
    -0.05480336f, -0.18028323f, -0.04630868f, 0.27398410f, -0.19364563f, -0.00181735f, 0.00074661f, -0.23605955f
};
constexpr size_t kRecurrentSize = sizeof(kRecurrent) / sizeof(kRecurrent[0]);

// Bias: shape (4 * hidden_size,)
constexpr float kBias[] = {
    0.67018884f, 1.18714786f, 0.83730578f, 0.14147264f, 0.34061065f, 0.26764411f, 0.79424852f, 1.56120169f,
    -0.83736300f, -0.14266536f, 0.60026169f, 0.07077663f, 0.66546327f, 0.10657597f, 0.60837293f, 1.14396024f,
    0.68986750f, 0.50741404f, 0.33855295f, 0.43892133f, 1.49409246f, 0.52621293f, 0.20804673f, 0.70972836f,
    0.08082011f, 0.06244215f, 0.01872872f, -0.11035959f, -0.02757423f, -0.04475309f, -0.16807963f, -0.01661606f,
    -0.02697492f, -0.25416645f, -0.01505126f, -0.08523358f, 1.05801058f, 1.24043393f, 1.24621582f, 0.82075197f,
    0.55421770f, 0.41826278f, 1.06400323f, 0.51955795f, 0.43240592f, -0.10194160f, 0.72498846f, 0.37498283f
};
constexpr size_t kBiasSize = sizeof(kBias) / sizeof(kBias[0]);

// Dense output weights: shape (hidden_size, output_size)
constexpr float kDenseW[] = {
    0.10091187f, 0.02961538f, 0.04472185f, 1.18937302f, -0.08991756f, -0.20148195f, -0.23178302f, 1.05796981f,
    -0.06679051f, -0.26174131f, -0.21669482f, -0.14442152f
};
constexpr size_t kDenseWSize = sizeof(kDenseW) / sizeof(kDenseW[0]);

// Dense output bias: shape (output_size,)
constexpr float kDenseB[] = {
    0.01951328f
};
constexpr size_t kDenseBSize = sizeof(kDenseB) / sizeof(kDenseB[0]);

} // namespace tw40_british_rhythm_deerinkstudios
} // namespace EmbeddedModels
