#pragma once
// Auto-generated from AIDA-X model: tw40_california_crunch_deerinkstudios
// Architecture: LSTM-12
// DO NOT EDIT - regenerate using convert_aidax_to_cpp.py

#include <cstddef>

namespace EmbeddedModels {
namespace tw40_california_crunch_deerinkstudios {

constexpr const char* kName = "tw40_california_crunch_deerinkstudios";
constexpr const char* kArchitecture = "LSTM";
constexpr int kHiddenSize = 12;
constexpr int kInputSize = 1;
constexpr int kOutputSize = 1;

// Input kernel weights: shape (input_size, 4 * hidden_size)
constexpr float kKernel[] = {
    -0.07599553f, 0.00628439f, 0.00598256f, 0.00042786f, 0.02751677f, -0.04126060f, 0.16782609f, -0.03713113f,
    -0.12921843f, -0.11078013f, -0.02292198f, 0.01623745f, -0.03222729f, -0.01050011f, 0.00929879f, 0.00654586f,
    -0.00652959f, -0.10950363f, 0.13887008f, -0.01995606f, 0.04415157f, -0.17002721f, -0.02435600f, 0.01444933f,
    0.17028946f, -0.09987092f, -0.40111184f, -0.01312197f, -0.33092099f, -0.00667051f, -0.73054558f, 0.13836980f,
    -0.02723748f, 0.03286561f, 0.02229323f, -0.87675589f, -0.07173891f, -0.03458810f, 0.01147333f, -0.03384335f,
    0.05884732f, -0.02910274f, 0.12104565f, -0.04764434f, -0.06747469f, -0.11167841f, 0.02004974f, 0.01383365f
};
constexpr size_t kKernelSize = sizeof(kKernel) / sizeof(kKernel[0]);

// Recurrent kernel weights: shape (hidden_size, 4 * hidden_size)
constexpr float kRecurrent[] = {
    0.04302583f, 0.00612048f, -0.01054374f, 0.24196553f, -0.01375251f, -0.01391307f, -0.02798590f, -0.09597906f,
    0.12750775f, -0.05815831f, -0.02050912f, -0.02748067f, 0.02268085f, 0.01932828f, -0.10410734f, 0.16837375f,
    -0.09273948f, -0.06375102f, 0.10891122f, -0.03214186f, -0.00022153f, -0.11065595f, 0.00016831f, -0.03832291f,
    0.25274613f, -0.13939019f, 0.08837391f, 0.46568990f, -0.54602528f, 0.23557088f, -0.02280656f, -0.03835789f,
    0.14973402f, 0.36773452f, -0.41671419f, -0.15692855f, 0.03866391f, -0.06649940f, -0.01749624f, 0.02684812f,
    -0.04162274f, -0.04719704f, -0.01606425f, -0.02725221f, -0.01104042f, -0.05532936f, -0.03109878f, -0.02873100f,
    0.04450380f, -0.10736329f, -0.03773545f, 0.16405113f, -0.12161686f, 0.02834148f, -0.04273588f, -0.02327082f,
    0.06336977f, 0.03947932f, -0.04393659f, -0.06802395f, -0.00807643f, -0.13290235f, -0.02894187f, 0.09085633f,
    -0.01674227f, 0.12561998f, 0.02735527f, 0.05188210f, -0.08616177f, 0.06034125f, 0.02098665f, -0.02430706f,
    0.21645176f, 0.26046935f, -0.77786583f, -0.13293837f, -0.63677794f, -0.01662593f, -0.05819758f, -0.10936667f,
    0.08691613f, 0.11044258f, 0.38458323f, 0.37919107f, 0.03120098f, -0.19532406f, -0.04154908f, 0.03974749f,
    -0.17705178f, -0.00354775f, -0.03163017f, 0.19555716f, -0.03390292f, 0.05401585f, -0.05799292f, -0.06895716f,
    -0.02930093f, 0.04117932f, -0.00619481f, 0.14834599f, 0.00643477f, 0.03975270f, -0.04894928f, -0.05101470f,
    -0.00250434f, -0.02754604f, 0.00476409f, 0.00241469f, -0.01238903f, 0.12019270f, 0.01765483f, 0.16293322f,
    0.00356655f, 0.10228661f, -0.09687020f, -0.09825277f, -0.01516063f, -0.02853842f, -0.05093492f, 0.04423092f,
    -0.37758577f, 0.03719229f, 0.09688637f, -0.00276046f, -0.13654232f, 0.39002484f, 0.53512734f, 0.09539698f,
    -0.05076250f, 0.06968819f, 0.13087817f, -1.11035657f, -0.04930892f, 0.08631220f, -0.01502313f, 0.09836669f,
    -0.08174247f, 0.00941302f, -0.04232656f, -0.09296055f, 0.00456729f, -0.01898728f, -0.00820883f, 0.00255388f,
    -0.10572856f, -0.01463343f, -0.00165039f, -0.05168981f, -0.05459211f, 0.09011591f, 0.03423887f, 0.05231411f,
    0.04016011f, -0.03690876f, 0.06896988f, -0.01740529f, -0.13493788f, 0.06207730f, 0.09613314f, 0.14282718f,
    0.25763685f, -0.01260411f, -0.01058510f, 0.00362770f, -0.20573871f, -0.01119207f, 0.07120011f, 0.01180640f,
    -0.53181607f, 0.23476766f, 0.14388353f, 0.12474535f, 0.07946999f, 0.12593530f, -0.38903812f, 0.28304088f,
    -0.14257267f, -0.21649021f, -0.27813518f, -0.00056056f, -0.09071949f, -0.00919047f, -0.01125001f, 0.01084071f,
    0.09962819f, -0.00329760f, 0.04043709f, 0.23412527f, -0.07611805f, -0.01241721f, 0.01471195f, -0.02902110f,
    -0.09012606f, 0.03978859f, 0.03683879f, -0.08610430f, -0.03926459f, -0.04340117f, 0.01241551f, -0.06819452f,
    0.15199788f, 0.13683367f, 0.03643992f, -0.04871555f, 0.05450684f, 0.03975425f, -0.01791517f, -0.04146499f,
    -0.38606980f, 0.09551382f, -0.00770420f, -0.29037285f, -0.29421628f, -0.08957838f, -0.01124383f, -0.02181178f,
    -0.04397469f, -0.02061420f, -0.13271464f, -0.08381011f, 0.68370658f, 0.04867053f, 0.10394558f, 1.11299992f,
    -0.00262573f, -0.18478726f, 0.03604645f, 0.09453789f, -0.04011398f, 0.00964889f, 0.04030999f, 0.27837247f,
    -0.18960959f, 0.01469227f, -0.03020946f, -0.38089418f, 0.00330828f, 0.09822997f, 0.09078002f, -0.05197774f,
    -0.04192808f, -0.13436393f, -0.01467159f, -0.25021920f, -0.05241212f, -0.09623002f, -0.11720294f, 0.25751641f,
    -0.05341683f, -0.04311127f, -0.01684201f, 0.04507457f, 0.07723559f, 0.13101043f, -0.00950536f, -0.09271976f,
    -0.30250043f, 0.11616037f, -0.03269796f, 0.54942393f, 0.21675365f, -0.12577148f, 0.00704659f, 0.06888604f,
    0.43622181f, 0.26147002f, 0.19920824f, -0.09230794f, 0.98625225f, 0.41549248f, 0.10602227f, 0.31188932f,
    -0.04857606f, 0.09100623f, 0.05073202f, 0.16316202f, -0.02086928f, 0.02619721f, -0.00254493f, -0.21845964f,
    0.09613541f, -0.06600608f, -0.10413140f, 0.42555189f, -0.01495128f, -0.09281757f, -0.03528054f, 0.04817635f,
    0.05159993f, -0.13670801f, -0.01836673f, -0.17545411f, -0.10804015f, -0.06970739f, -0.14968504f, 0.04870329f,
    0.20777488f, 0.13590565f, -0.01325107f, -0.07487108f, 0.02519259f, -0.24928093f, -0.03453093f, -0.15837385f,
    -0.01845498f, 0.02274451f, -0.07158829f, 0.11937728f, -0.25749904f, 0.13434972f, -0.00442054f, -0.03462726f,
    -0.03537741f, 0.57741839f, -0.17667285f, 0.04014912f, 0.36946175f, -0.30067378f, 0.33955976f, 0.10740481f,
    -0.01045044f, 0.04879761f, -0.42509291f, -0.77536052f, 0.06939933f, -0.08819474f, -0.02190326f, -0.10528760f,
    -0.07238597f, -0.05122701f, -0.17729127f, 0.08739080f, 0.02486365f, 0.10540933f, -0.06364197f, -0.07470918f,
    0.02472203f, 0.02367765f, -0.01381881f, 0.12353799f, 0.12544206f, -0.00597065f, -0.01070701f, 0.04836117f,
    0.02965185f, 0.06964406f, -0.03532295f, -0.00099733f, 0.08308787f, 0.00956558f, -0.03026119f, -0.02872410f,
    0.16909726f, 0.08581311f, 0.10592519f, 0.08405173f, 0.04676686f, -0.02653622f, 0.06175406f, 0.04730381f,
    -0.09294511f, 0.12015750f, 0.25392994f, -0.43299639f, -0.20193861f, -0.12734863f, -0.28380883f, 0.20367399f,
    -0.06154386f, 0.19502145f, -0.02150259f, -0.15133139f, -0.00044008f, -0.09303505f, 0.02325159f, 0.19827490f,
    0.22259122f, 0.04126092f, 0.10525985f, -0.15136166f, 0.05101860f, 0.05668401f, 0.09131909f, -0.00195693f,
    0.00465603f, 0.00691161f, -0.04443448f, -0.07513987f, -0.00289404f, -0.10649004f, -0.02159718f, 0.07408039f,
    0.09227979f, 0.09840167f, 0.10973243f, -0.00096284f, 0.01610519f, 0.18586287f, 0.00361330f, -0.06831570f,
    0.04464751f, -0.11518293f, 0.05522216f, 0.08901750f, -0.21265049f, 0.17655368f, 0.14509408f, 0.00662170f,
    0.03507701f, -0.18827757f, -0.09504537f, 0.13311549f, 0.01311053f, 0.25643083f, -0.07457131f, 0.31176707f,
    0.67650813f, -0.41731051f, -0.04237456f, -0.36445788f, 0.00400080f, -0.01478533f, -0.04174888f, -0.01921834f,
    0.04346092f, -0.04628467f, -0.01884135f, 0.10814598f, -0.03334581f, 0.13271353f, 0.08155502f, -0.00209924f,
    -0.00436728f, -0.06399136f, -0.03235852f, 0.06660429f, -0.04177693f, -0.04304000f, -0.05125837f, -0.11812129f,
    -0.07365350f, -0.10968077f, -0.06336542f, -0.06860527f, -0.01127391f, -0.10224719f, -0.04488791f, 0.02571323f,
    0.01891986f, -0.03886173f, -0.01565380f, -0.05970700f, -0.43045637f, -0.21928036f, -0.11571806f, -0.02156527f,
    0.14307013f, 0.23969257f, 0.04099619f, 0.05486621f, 0.08183291f, 0.15096952f, 0.21964423f, -0.02271749f,
    -0.27969125f, 0.02199607f, -0.11140668f, 0.36003035f, -0.01693728f, -0.04888082f, -0.03946550f, -0.00559086f,
    -0.06128196f, -0.05129286f, -0.04000762f, -0.15433438f, -0.09360932f, -0.18830800f, -0.06827226f, -0.06769908f,
    0.03372144f, 0.03990132f, -0.00603904f, -0.02660381f, 0.07406662f, -0.06959254f, 0.05481329f, -0.01051122f,
    0.02843294f, -0.00154261f, -0.09201297f, -0.00901889f, 0.06716993f, 0.06325175f, 0.02157000f, 0.01551618f,
    0.10855751f, 0.04682167f, -0.09720790f, 0.01857443f, 0.03885475f, 0.03152241f, -0.20069294f, -0.00027828f,
    -0.19594584f, 0.07251900f, 0.00794911f, 0.09876595f, 0.03201726f, 0.06841142f, -0.20890956f, -0.22156176f,
    0.04462990f, 0.13409808f, 0.39945099f, -0.03895869f, 0.01126846f, 0.02427887f, -0.00591834f, -0.04391128f,
    0.13511731f, -0.01489955f, 0.03783435f, -0.10403608f, -0.05663178f, 0.00857298f, -0.06482693f, -0.00674388f,
    -0.00142733f, -0.00682295f, -0.02209593f, 0.14870958f, -0.02642517f, 0.05569728f, -0.00378244f, 0.00923003f,
    0.07870379f, 0.02511404f, -0.02766239f, -0.02469016f, -0.05927898f, -0.03000620f, -0.01730376f, 0.09437916f,
    0.08523757f, 0.02237428f, -0.00054673f, 0.01376794f, -0.11570679f, 0.04549927f, -0.00424776f, -0.04539661f,
    0.64289415f, 0.00826792f, 0.83892238f, 0.09227152f, -1.15310764f, -0.40425023f, -0.17407213f, 0.49775153f,
    0.13392060f, -0.08077572f, 0.39871237f, 0.07827169f, -0.00182461f, -0.10104391f, -0.03177236f, -0.02172717f,
    0.02877210f, -0.00792854f, -0.03771037f, 0.18943733f, -0.03834958f, 0.07254875f, -0.02857976f, -0.04280498f
};
constexpr size_t kRecurrentSize = sizeof(kRecurrent) / sizeof(kRecurrent[0]);

// Bias: shape (4 * hidden_size,)
constexpr float kBias[] = {
    0.38186646f, -0.18760015f, 0.81268913f, -0.29636562f, 1.24098420f, 0.18448588f, 0.41958636f, 1.01207566f,
    -1.54268718f, -0.32022309f, 0.00207977f, 1.25472951f, 0.66933084f, 1.27243209f, 0.46817669f, 1.33803511f,
    0.45922053f, 1.05100286f, 0.45130059f, 0.13717914f, 2.26548648f, 0.35575914f, 1.18206644f, 0.20629892f,
    -0.02894340f, 0.04239307f, -0.07947562f, -0.05097521f, -0.11604469f, -0.00088490f, -0.06000397f, 0.12895647f,
    -0.02169843f, -0.20556182f, -0.03324044f, -0.02897296f, 0.66562462f, 0.71302116f, 0.97229832f, 0.33453542f,
    0.70447743f, 1.03444362f, 0.80225372f, 0.75206411f, 0.65246373f, -0.08556483f, 0.49632412f, 1.31540561f
};
constexpr size_t kBiasSize = sizeof(kBias) / sizeof(kBias[0]);

// Dense output weights: shape (hidden_size, output_size)
constexpr float kDenseW[] = {
    -0.57242727f, 0.01392441f, 0.13314803f, 0.72971380f, -0.28863829f, -0.27063426f, -0.21665962f, 1.26666451f,
    0.05568967f, -0.13236108f, -0.84275949f, -0.11031605f
};
constexpr size_t kDenseWSize = sizeof(kDenseW) / sizeof(kDenseW[0]);

// Dense output bias: shape (output_size,)
constexpr float kDenseB[] = {
    0.01318994f
};
constexpr size_t kDenseBSize = sizeof(kDenseB) / sizeof(kDenseB[0]);

} // namespace tw40_california_crunch_deerinkstudios
} // namespace EmbeddedModels
